digraph Tree {
node [shape=box] ;
0 [label="inline <= 0.5\ngini = 0.5\nsamples = 307\nvalue = [158, 149]\nclass = Acceptable"] ;
1 [label="gvn <= 0.5\ngini = 0.353\nsamples = 144\nvalue = [111, 33]\nclass = Acceptable"] ;
0 -> 1 [labeldistance=2.5, labelangle=45, headlabel="True"] ;
2 [label="licm <= 0.5\ngini = 0.027\nsamples = 72\nvalue = [71, 1]\nclass = Acceptable"] ;
1 -> 2 ;
3 [label="gini = 0.0\nsamples = 42\nvalue = [42, 0]\nclass = Acceptable"] ;
2 -> 3 ;
4 [label="sccp <= 0.5\ngini = 0.064\nsamples = 30\nvalue = [29, 1]\nclass = Acceptable"] ;
2 -> 4 ;
5 [label="gini = 0.0\nsamples = 16\nvalue = [16, 0]\nclass = Acceptable"] ;
4 -> 5 ;
6 [label="instcombine <= 0.5\ngini = 0.133\nsamples = 14\nvalue = [13, 1]\nclass = Acceptable"] ;
4 -> 6 ;
7 [label="gini = 0.0\nsamples = 8\nvalue = [8, 0]\nclass = Acceptable"] ;
6 -> 7 ;
8 [label="ipsccp <= 0.5\ngini = 0.278\nsamples = 6\nvalue = [5, 1]\nclass = Acceptable"] ;
6 -> 8 ;
9 [label="iv_users <= 0.5\ngini = 0.5\nsamples = 2\nvalue = [1, 1]\nclass = Acceptable"] ;
8 -> 9 ;
10 [label="gini = 0.0\nsamples = 1\nvalue = [0, 1]\nclass = Non-acceptable"] ;
9 -> 10 ;
11 [label="gini = 0.0\nsamples = 1\nvalue = [1, 0]\nclass = Acceptable"] ;
9 -> 11 ;
12 [label="gini = 0.0\nsamples = 4\nvalue = [4, 0]\nclass = Acceptable"] ;
8 -> 12 ;
13 [label="instcombine <= 0.5\ngini = 0.494\nsamples = 72\nvalue = [40, 32]\nclass = Acceptable"] ;
1 -> 13 ;
14 [label="licm <= 0.5\ngini = 0.136\nsamples = 41\nvalue = [38, 3]\nclass = Acceptable"] ;
13 -> 14 ;
15 [label="gini = 0.0\nsamples = 24\nvalue = [24, 0]\nclass = Acceptable"] ;
14 -> 15 ;
16 [label="iv_users <= 0.5\ngini = 0.291\nsamples = 17\nvalue = [14, 3]\nclass = Acceptable"] ;
14 -> 16 ;
17 [label="ipsccp <= 0.5\ngini = 0.444\nsamples = 9\nvalue = [6, 3]\nclass = Acceptable"] ;
16 -> 17 ;
18 [label="simplifycfg <= 0.5\ngini = 0.444\nsamples = 3\nvalue = [1, 2]\nclass = Non-acceptable"] ;
17 -> 18 ;
19 [label="jump_threading <= 0.5\ngini = 0.5\nsamples = 2\nvalue = [1, 1]\nclass = Acceptable"] ;
18 -> 19 ;
20 [label="gini = 0.0\nsamples = 1\nvalue = [1, 0]\nclass = Acceptable"] ;
19 -> 20 ;
21 [label="gini = 0.0\nsamples = 1\nvalue = [0, 1]\nclass = Non-acceptable"] ;
19 -> 21 ;
22 [label="gini = 0.0\nsamples = 1\nvalue = [0, 1]\nclass = Non-acceptable"] ;
18 -> 22 ;
23 [label="sccp <= 0.5\ngini = 0.278\nsamples = 6\nvalue = [5, 1]\nclass = Acceptable"] ;
17 -> 23 ;
24 [label="gini = 0.0\nsamples = 3\nvalue = [3, 0]\nclass = Acceptable"] ;
23 -> 24 ;
25 [label="jump_threading <= 0.5\ngini = 0.444\nsamples = 3\nvalue = [2, 1]\nclass = Acceptable"] ;
23 -> 25 ;
26 [label="gini = 0.0\nsamples = 2\nvalue = [2, 0]\nclass = Acceptable"] ;
25 -> 26 ;
27 [label="gini = 0.0\nsamples = 1\nvalue = [0, 1]\nclass = Non-acceptable"] ;
25 -> 27 ;
28 [label="gini = 0.0\nsamples = 8\nvalue = [8, 0]\nclass = Acceptable"] ;
16 -> 28 ;
29 [label="sccp <= 0.5\ngini = 0.121\nsamples = 31\nvalue = [2, 29]\nclass = Non-acceptable"] ;
13 -> 29 ;
30 [label="licm <= 0.5\ngini = 0.245\nsamples = 14\nvalue = [2, 12]\nclass = Non-acceptable"] ;
29 -> 30 ;
31 [label="jump_threading <= 0.5\ngini = 0.375\nsamples = 8\nvalue = [2, 6]\nclass = Non-acceptable"] ;
30 -> 31 ;
32 [label="simplifycfg <= 0.5\ngini = 0.444\nsamples = 6\nvalue = [2, 4]\nclass = Non-acceptable"] ;
31 -> 32 ;
33 [label="ipsccp <= 0.5\ngini = 0.48\nsamples = 5\nvalue = [2, 3]\nclass = Non-acceptable"] ;
32 -> 33 ;
34 [label="iv_users <= 0.5\ngini = 0.5\nsamples = 2\nvalue = [1, 1]\nclass = Acceptable"] ;
33 -> 34 ;
35 [label="gini = 0.0\nsamples = 1\nvalue = [0, 1]\nclass = Non-acceptable"] ;
34 -> 35 ;
36 [label="gini = 0.0\nsamples = 1\nvalue = [1, 0]\nclass = Acceptable"] ;
34 -> 36 ;
37 [label="iv_users <= 0.5\ngini = 0.444\nsamples = 3\nvalue = [1, 2]\nclass = Non-acceptable"] ;
33 -> 37 ;
38 [label="gini = 0.0\nsamples = 1\nvalue = [1, 0]\nclass = Acceptable"] ;
37 -> 38 ;
39 [label="gini = 0.0\nsamples = 2\nvalue = [0, 2]\nclass = Non-acceptable"] ;
37 -> 39 ;
40 [label="gini = 0.0\nsamples = 1\nvalue = [0, 1]\nclass = Non-acceptable"] ;
32 -> 40 ;
41 [label="gini = 0.0\nsamples = 2\nvalue = [0, 2]\nclass = Non-acceptable"] ;
31 -> 41 ;
42 [label="gini = 0.0\nsamples = 6\nvalue = [0, 6]\nclass = Non-acceptable"] ;
30 -> 42 ;
43 [label="gini = 0.0\nsamples = 17\nvalue = [0, 17]\nclass = Non-acceptable"] ;
29 -> 43 ;
44 [label="licm <= 0.5\ngini = 0.41\nsamples = 163\nvalue = [47, 116]\nclass = Non-acceptable"] ;
0 -> 44 [labeldistance=2.5, labelangle=-45, headlabel="False"] ;
45 [label="gvn <= 0.5\ngini = 0.479\nsamples = 78\nvalue = [47, 31]\nclass = Acceptable"] ;
44 -> 45 ;
46 [label="gini = 0.0\nsamples = 40\nvalue = [40, 0]\nclass = Acceptable"] ;
45 -> 46 ;
47 [label="instcombine <= 0.5\ngini = 0.301\nsamples = 38\nvalue = [7, 31]\nclass = Non-acceptable"] ;
45 -> 47 ;
48 [label="jump_threading <= 0.5\ngini = 0.475\nsamples = 18\nvalue = [7, 11]\nclass = Non-acceptable"] ;
47 -> 48 ;
49 [label="sccp <= 0.5\ngini = 0.494\nsamples = 9\nvalue = [5, 4]\nclass = Acceptable"] ;
48 -> 49 ;
50 [label="gini = 0.0\nsamples = 2\nvalue = [2, 0]\nclass = Acceptable"] ;
49 -> 50 ;
51 [label="print_used_types <= 0.5\ngini = 0.49\nsamples = 7\nvalue = [3, 4]\nclass = Non-acceptable"] ;
49 -> 51 ;
52 [label="gini = 0.0\nsamples = 2\nvalue = [0, 2]\nclass = Non-acceptable"] ;
51 -> 52 ;
53 [label="iv_users <= 0.5\ngini = 0.48\nsamples = 5\nvalue = [3, 2]\nclass = Acceptable"] ;
51 -> 53 ;
54 [label="ipsccp <= 0.5\ngini = 0.444\nsamples = 3\nvalue = [1, 2]\nclass = Non-acceptable"] ;
53 -> 54 ;
55 [label="gini = 0.0\nsamples = 1\nvalue = [0, 1]\nclass = Non-acceptable"] ;
54 -> 55 ;
56 [label="simplifycfg <= 0.5\ngini = 0.5\nsamples = 2\nvalue = [1, 1]\nclass = Acceptable"] ;
54 -> 56 ;
57 [label="gini = 0.0\nsamples = 1\nvalue = [1, 0]\nclass = Acceptable"] ;
56 -> 57 ;
58 [label="gini = 0.0\nsamples = 1\nvalue = [0, 1]\nclass = Non-acceptable"] ;
56 -> 58 ;
59 [label="gini = 0.0\nsamples = 2\nvalue = [2, 0]\nclass = Acceptable"] ;
53 -> 59 ;
60 [label="ipsccp <= 0.5\ngini = 0.346\nsamples = 9\nvalue = [2, 7]\nclass = Non-acceptable"] ;
48 -> 60 ;
61 [label="gini = 0.0\nsamples = 4\nvalue = [0, 4]\nclass = Non-acceptable"] ;
60 -> 61 ;
62 [label="sccp <= 0.5\ngini = 0.48\nsamples = 5\nvalue = [2, 3]\nclass = Non-acceptable"] ;
60 -> 62 ;
63 [label="simplifycfg <= 0.5\ngini = 0.444\nsamples = 3\nvalue = [2, 1]\nclass = Acceptable"] ;
62 -> 63 ;
64 [label="gini = 0.0\nsamples = 2\nvalue = [2, 0]\nclass = Acceptable"] ;
63 -> 64 ;
65 [label="gini = 0.0\nsamples = 1\nvalue = [0, 1]\nclass = Non-acceptable"] ;
63 -> 65 ;
66 [label="gini = 0.0\nsamples = 2\nvalue = [0, 2]\nclass = Non-acceptable"] ;
62 -> 66 ;
67 [label="gini = 0.0\nsamples = 20\nvalue = [0, 20]\nclass = Non-acceptable"] ;
47 -> 67 ;
68 [label="gini = 0.0\nsamples = 85\nvalue = [0, 85]\nclass = Non-acceptable"] ;
44 -> 68 ;
}