digraph Tree {
node [shape=box] ;
0 [label="crfRatio <= 33.55\ngini = 0.428\nsamples = 5000\nvalue = [1552, 3448]\nclass = Non-acceptable"] ;
1 [label="qcomp <= 0.05\ngini = 0.015\nsamples = 2899\nvalue = [22, 2877]\nclass = Non-acceptable"] ;
0 -> 1 [labeldistance=2.5, labelangle=45, headlabel="True"] ;
2 [label="rc_lookahead <= 20.5\ngini = 0.292\nsamples = 62\nvalue = [11, 51]\nclass = Non-acceptable"] ;
1 -> 2 ;
3 [label="no_mbtree <= 0.5\ngini = 0.278\nsamples = 6\nvalue = [5, 1]\nclass = Acceptable"] ;
2 -> 3 ;
4 [label="gini = 0.0\nsamples = 5\nvalue = [5, 0]\nclass = Acceptable"] ;
3 -> 4 ;
5 [label="gini = 0.0\nsamples = 1\nvalue = [0, 1]\nclass = Non-acceptable"] ;
3 -> 5 ;
6 [label="keyint <= 150.0\ngini = 0.191\nsamples = 56\nvalue = [6, 50]\nclass = Non-acceptable"] ;
2 -> 6 ;
7 [label="gini = 0.0\nsamples = 3\nvalue = [3, 0]\nclass = Acceptable"] ;
6 -> 7 ;
8 [label="ipratio <= 0.55\ngini = 0.107\nsamples = 53\nvalue = [3, 50]\nclass = Non-acceptable"] ;
6 -> 8 ;
9 [label="gini = 0.0\nsamples = 3\nvalue = [3, 0]\nclass = Acceptable"] ;
8 -> 9 ;
10 [label="gini = 0.0\nsamples = 50\nvalue = [0, 50]\nclass = Non-acceptable"] ;
8 -> 10 ;
11 [label="crfRatio <= 29.75\ngini = 0.008\nsamples = 2837\nvalue = [11, 2826]\nclass = Non-acceptable"] ;
1 -> 11 ;
12 [label="ipratio <= 0.05\ngini = 0.005\nsamples = 2827\nvalue = [7, 2820]\nclass = Non-acceptable"] ;
11 -> 12 ;
13 [label="rc_lookahead <= 20.5\ngini = 0.19\nsamples = 66\nvalue = [7, 59]\nclass = Non-acceptable"] ;
12 -> 13 ;
14 [label="no_mbtree <= 0.5\ngini = 0.444\nsamples = 3\nvalue = [2, 1]\nclass = Acceptable"] ;
13 -> 14 ;
15 [label="gini = 0.0\nsamples = 2\nvalue = [2, 0]\nclass = Acceptable"] ;
14 -> 15 ;
16 [label="gini = 0.0\nsamples = 1\nvalue = [0, 1]\nclass = Non-acceptable"] ;
14 -> 16 ;
17 [label="no_asm <= 0.5\ngini = 0.146\nsamples = 63\nvalue = [5, 58]\nclass = Non-acceptable"] ;
13 -> 17 ;
18 [label="no_mbtree <= 0.5\ngini = 0.201\nsamples = 44\nvalue = [5, 39]\nclass = Non-acceptable"] ;
17 -> 18 ;
19 [label="rc_lookahead <= 124.0\ngini = 0.251\nsamples = 34\nvalue = [5, 29]\nclass = Non-acceptable"] ;
18 -> 19 ;
20 [label="bframes <= 2.0\ngini = 0.285\nsamples = 29\nvalue = [5, 24]\nclass = Non-acceptable"] ;
19 -> 20 ;
21 [label="gini = 0.0\nsamples = 3\nvalue = [0, 3]\nclass = Non-acceptable"] ;
20 -> 21 ;
22 [label="aq_strength <= 1.5\ngini = 0.311\nsamples = 26\nvalue = [5, 21]\nclass = Non-acceptable"] ;
20 -> 22 ;
23 [label="b_bias <= 50.0\ngini = 0.34\nsamples = 23\nvalue = [5, 18]\nclass = Non-acceptable"] ;
22 -> 23 ;
24 [label="bframes <= 14.0\ngini = 0.375\nsamples = 20\nvalue = [5, 15]\nclass = Non-acceptable"] ;
23 -> 24 ;
25 [label="ref <= 6.0\ngini = 0.401\nsamples = 18\nvalue = [5, 13]\nclass = Non-acceptable"] ;
24 -> 25 ;
26 [label="qpSetting <= 11.5\ngini = 0.43\nsamples = 16\nvalue = [5, 11]\nclass = Non-acceptable"] ;
25 -> 26 ;
27 [label="gini = 0.0\nsamples = 1\nvalue = [0, 1]\nclass = Non-acceptable"] ;
26 -> 27 ;
28 [label="no_scenecut <= 0.5\ngini = 0.444\nsamples = 15\nvalue = [5, 10]\nclass = Non-acceptable"] ;
26 -> 28 ;
29 [label="keyint <= 625.0\ngini = 0.48\nsamples = 10\nvalue = [4, 6]\nclass = Non-acceptable"] ;
28 -> 29 ;
30 [label="scenecut <= 20.5\ngini = 0.494\nsamples = 9\nvalue = [4, 5]\nclass = Non-acceptable"] ;
29 -> 30 ;
31 [label="gini = 0.0\nsamples = 1\nvalue = [0, 1]\nclass = Non-acceptable"] ;
30 -> 31 ;
32 [label="qpSetting <= 37.0\ngini = 0.5\nsamples = 8\nvalue = [4, 4]\nclass = Acceptable"] ;
30 -> 32 ;
33 [label="Threads <= 66.0\ngini = 0.49\nsamples = 7\nvalue = [4, 3]\nclass = Acceptable"] ;
32 -> 33 ;
34 [label="crfRatio <= 16.5\ngini = 0.444\nsamples = 6\nvalue = [4, 2]\nclass = Acceptable"] ;
33 -> 34 ;
35 [label="gini = 0.0\nsamples = 1\nvalue = [0, 1]\nclass = Non-acceptable"] ;
34 -> 35 ;
36 [label="ManualThreads <= 0.5\ngini = 0.32\nsamples = 5\nvalue = [4, 1]\nclass = Acceptable"] ;
34 -> 36 ;
37 [label="gini = 0.0\nsamples = 3\nvalue = [3, 0]\nclass = Acceptable"] ;
36 -> 37 ;
38 [label="no_cabac <= 0.5\ngini = 0.5\nsamples = 2\nvalue = [1, 1]\nclass = Acceptable"] ;
36 -> 38 ;
39 [label="gini = 0.0\nsamples = 1\nvalue = [0, 1]\nclass = Non-acceptable"] ;
38 -> 39 ;
40 [label="gini = 0.0\nsamples = 1\nvalue = [1, 0]\nclass = Acceptable"] ;
38 -> 40 ;
41 [label="gini = 0.0\nsamples = 1\nvalue = [0, 1]\nclass = Non-acceptable"] ;
33 -> 41 ;
42 [label="gini = 0.0\nsamples = 1\nvalue = [0, 1]\nclass = Non-acceptable"] ;
32 -> 42 ;
43 [label="gini = 0.0\nsamples = 1\nvalue = [0, 1]\nclass = Non-acceptable"] ;
29 -> 43 ;
44 [label="ManualThreads <= 0.5\ngini = 0.32\nsamples = 5\nvalue = [1, 4]\nclass = Non-acceptable"] ;
28 -> 44 ;
45 [label="gini = 0.0\nsamples = 3\nvalue = [0, 3]\nclass = Non-acceptable"] ;
44 -> 45 ;
46 [label="gini = 0.5\nsamples = 2\nvalue = [1, 1]\nclass = Acceptable"] ;
44 -> 46 ;
47 [label="gini = 0.0\nsamples = 2\nvalue = [0, 2]\nclass = Non-acceptable"] ;
25 -> 47 ;
48 [label="gini = 0.0\nsamples = 2\nvalue = [0, 2]\nclass = Non-acceptable"] ;
24 -> 48 ;
49 [label="gini = 0.0\nsamples = 3\nvalue = [0, 3]\nclass = Non-acceptable"] ;
23 -> 49 ;
50 [label="gini = 0.0\nsamples = 3\nvalue = [0, 3]\nclass = Non-acceptable"] ;
22 -> 50 ;
51 [label="gini = 0.0\nsamples = 5\nvalue = [0, 5]\nclass = Non-acceptable"] ;
19 -> 51 ;
52 [label="gini = 0.0\nsamples = 10\nvalue = [0, 10]\nclass = Non-acceptable"] ;
18 -> 52 ;
53 [label="gini = 0.0\nsamples = 19\nvalue = [0, 19]\nclass = Non-acceptable"] ;
17 -> 53 ;
54 [label="gini = 0.0\nsamples = 2761\nvalue = [0, 2761]\nclass = Non-acceptable"] ;
12 -> 54 ;
55 [label="crfRatio <= 30.95\ngini = 0.48\nsamples = 10\nvalue = [4, 6]\nclass = Non-acceptable"] ;
11 -> 55 ;
56 [label="bframes <= 5.0\ngini = 0.375\nsamples = 4\nvalue = [3, 1]\nclass = Acceptable"] ;
55 -> 56 ;
57 [label="gini = 0.0\nsamples = 1\nvalue = [0, 1]\nclass = Non-acceptable"] ;
56 -> 57 ;
58 [label="gini = 0.0\nsamples = 3\nvalue = [3, 0]\nclass = Acceptable"] ;
56 -> 58 ;
59 [label="b_bias <= 47.5\ngini = 0.278\nsamples = 6\nvalue = [1, 5]\nclass = Non-acceptable"] ;
55 -> 59 ;
60 [label="gini = 0.0\nsamples = 5\nvalue = [0, 5]\nclass = Non-acceptable"] ;
59 -> 60 ;
61 [label="gini = 0.0\nsamples = 1\nvalue = [1, 0]\nclass = Acceptable"] ;
59 -> 61 ;
62 [label="qcomp <= 0.75\ngini = 0.396\nsamples = 2101\nvalue = [1530, 571]\nclass = Acceptable"] ;
0 -> 62 [labeldistance=2.5, labelangle=-45, headlabel="False"] ;
63 [label="no_mbtree <= 0.5\ngini = 0.127\nsamples = 1070\nvalue = [997, 73]\nclass = Acceptable"] ;
62 -> 63 ;
64 [label="Threads <= 122.0\ngini = 0.002\nsamples = 926\nvalue = [925, 1]\nclass = Acceptable"] ;
63 -> 64 ;
65 [label="gini = 0.0\nsamples = 925\nvalue = [925, 0]\nclass = Acceptable"] ;
64 -> 65 ;
66 [label="gini = 0.0\nsamples = 1\nvalue = [0, 1]\nclass = Non-acceptable"] ;
64 -> 66 ;
67 [label="crfRatio <= 40.5\ngini = 0.5\nsamples = 144\nvalue = [72, 72]\nclass = Acceptable"] ;
63 -> 67 ;
68 [label="rc_lookahead <= 125.5\ngini = 0.5\nsamples = 141\nvalue = [69, 72]\nclass = Non-acceptable"] ;
67 -> 68 ;
69 [label="ipratio <= 1.05\ngini = 0.489\nsamples = 68\nvalue = [29, 39]\nclass = Non-acceptable"] ;
68 -> 69 ;
70 [label="scenecut <= 50.5\ngini = 0.438\nsamples = 37\nvalue = [12, 25]\nclass = Non-acceptable"] ;
69 -> 70 ;
71 [label="Threads <= 64.5\ngini = 0.495\nsamples = 20\nvalue = [9, 11]\nclass = Non-acceptable"] ;
70 -> 71 ;
72 [label="ref <= 4.5\ngini = 0.48\nsamples = 10\nvalue = [6, 4]\nclass = Acceptable"] ;
71 -> 72 ;
73 [label="b_bias <= 17.0\ngini = 0.278\nsamples = 6\nvalue = [5, 1]\nclass = Acceptable"] ;
72 -> 73 ;
74 [label="bframes <= 13.0\ngini = 0.5\nsamples = 2\nvalue = [1, 1]\nclass = Acceptable"] ;
73 -> 74 ;
75 [label="gini = 0.0\nsamples = 1\nvalue = [1, 0]\nclass = Acceptable"] ;
74 -> 75 ;
76 [label="gini = 0.0\nsamples = 1\nvalue = [0, 1]\nclass = Non-acceptable"] ;
74 -> 76 ;
77 [label="gini = 0.0\nsamples = 4\nvalue = [4, 0]\nclass = Acceptable"] ;
73 -> 77 ;
78 [label="b_bias <= 17.0\ngini = 0.375\nsamples = 4\nvalue = [1, 3]\nclass = Non-acceptable"] ;
72 -> 78 ;
79 [label="gini = 0.0\nsamples = 1\nvalue = [1, 0]\nclass = Acceptable"] ;
78 -> 79 ;
80 [label="gini = 0.0\nsamples = 3\nvalue = [0, 3]\nclass = Non-acceptable"] ;
78 -> 80 ;
81 [label="bframes <= 13.0\ngini = 0.42\nsamples = 10\nvalue = [3, 7]\nclass = Non-acceptable"] ;
71 -> 81 ;
82 [label="gini = 0.0\nsamples = 6\nvalue = [0, 6]\nclass = Non-acceptable"] ;
81 -> 82 ;
83 [label="ref <= 4.5\ngini = 0.375\nsamples = 4\nvalue = [3, 1]\nclass = Acceptable"] ;
81 -> 83 ;
84 [label="gini = 0.0\nsamples = 1\nvalue = [0, 1]\nclass = Non-acceptable"] ;
83 -> 84 ;
85 [label="gini = 0.0\nsamples = 3\nvalue = [3, 0]\nclass = Acceptable"] ;
83 -> 85 ;
86 [label="qpSetting <= 25.5\ngini = 0.291\nsamples = 17\nvalue = [3, 14]\nclass = Non-acceptable"] ;
70 -> 86 ;
87 [label="Threads <= 64.5\ngini = 0.375\nsamples = 12\nvalue = [3, 9]\nclass = Non-acceptable"] ;
86 -> 87 ;
88 [label="aq_strength <= 1.05\ngini = 0.48\nsamples = 5\nvalue = [2, 3]\nclass = Non-acceptable"] ;
87 -> 88 ;
89 [label="bframes <= 13.0\ngini = 0.5\nsamples = 4\nvalue = [2, 2]\nclass = Acceptable"] ;
88 -> 89 ;
90 [label="b_bias <= 17.0\ngini = 0.444\nsamples = 3\nvalue = [1, 2]\nclass = Non-acceptable"] ;
89 -> 90 ;
91 [label="keyint <= 500.5\ngini = 0.5\nsamples = 2\nvalue = [1, 1]\nclass = Acceptable"] ;
90 -> 91 ;
92 [label="gini = 0.0\nsamples = 1\nvalue = [0, 1]\nclass = Non-acceptable"] ;
91 -> 92 ;
93 [label="gini = 0.0\nsamples = 1\nvalue = [1, 0]\nclass = Acceptable"] ;
91 -> 93 ;
94 [label="gini = 0.0\nsamples = 1\nvalue = [0, 1]\nclass = Non-acceptable"] ;
90 -> 94 ;
95 [label="gini = 0.0\nsamples = 1\nvalue = [1, 0]\nclass = Acceptable"] ;
89 -> 95 ;
96 [label="gini = 0.0\nsamples = 1\nvalue = [0, 1]\nclass = Non-acceptable"] ;
88 -> 96 ;
97 [label="keyint <= 500.5\ngini = 0.245\nsamples = 7\nvalue = [1, 6]\nclass = Non-acceptable"] ;
87 -> 97 ;
98 [label="b_bias <= 17.0\ngini = 0.444\nsamples = 3\nvalue = [1, 2]\nclass = Non-acceptable"] ;
97 -> 98 ;
99 [label="gini = 0.0\nsamples = 1\nvalue = [1, 0]\nclass = Acceptable"] ;
98 -> 99 ;
100 [label="gini = 0.0\nsamples = 2\nvalue = [0, 2]\nclass = Non-acceptable"] ;
98 -> 100 ;
101 [label="gini = 0.0\nsamples = 4\nvalue = [0, 4]\nclass = Non-acceptable"] ;
97 -> 101 ;
102 [label="gini = 0.0\nsamples = 5\nvalue = [0, 5]\nclass = Non-acceptable"] ;
86 -> 102 ;
103 [label="scenecut <= 50.5\ngini = 0.495\nsamples = 31\nvalue = [17, 14]\nclass = Acceptable"] ;
69 -> 103 ;
104 [label="b_bias <= 17.0\ngini = 0.484\nsamples = 17\nvalue = [7, 10]\nclass = Non-acceptable"] ;
103 -> 104 ;
105 [label="keyint <= 500.5\ngini = 0.444\nsamples = 6\nvalue = [4, 2]\nclass = Acceptable"] ;
104 -> 105 ;
106 [label="qpSetting <= 25.5\ngini = 0.5\nsamples = 4\nvalue = [2, 2]\nclass = Acceptable"] ;
105 -> 106 ;
107 [label="gini = 0.0\nsamples = 1\nvalue = [1, 0]\nclass = Acceptable"] ;
106 -> 107 ;
108 [label="ref <= 4.5\ngini = 0.444\nsamples = 3\nvalue = [1, 2]\nclass = Non-acceptable"] ;
106 -> 108 ;
109 [label="bframes <= 13.0\ngini = 0.5\nsamples = 2\nvalue = [1, 1]\nclass = Acceptable"] ;
108 -> 109 ;
110 [label="gini = 0.0\nsamples = 1\nvalue = [0, 1]\nclass = Non-acceptable"] ;
109 -> 110 ;
111 [label="gini = 0.0\nsamples = 1\nvalue = [1, 0]\nclass = Acceptable"] ;
109 -> 111 ;
112 [label="gini = 0.0\nsamples = 1\nvalue = [0, 1]\nclass = Non-acceptable"] ;
108 -> 112 ;
113 [label="gini = 0.0\nsamples = 2\nvalue = [2, 0]\nclass = Acceptable"] ;
105 -> 113 ;
114 [label="ref <= 4.5\ngini = 0.397\nsamples = 11\nvalue = [3, 8]\nclass = Non-acceptable"] ;
104 -> 114 ;
115 [label="qpSetting <= 25.5\ngini = 0.444\nsamples = 6\nvalue = [2, 4]\nclass = Non-acceptable"] ;
114 -> 115 ;
116 [label="gini = 0.0\nsamples = 2\nvalue = [0, 2]\nclass = Non-acceptable"] ;
115 -> 116 ;
117 [label="keyint <= 500.5\ngini = 0.5\nsamples = 4\nvalue = [2, 2]\nclass = Acceptable"] ;
115 -> 117 ;
118 [label="bframes <= 13.0\ngini = 0.444\nsamples = 3\nvalue = [1, 2]\nclass = Non-acceptable"] ;
117 -> 118 ;
119 [label="gini = 0.0\nsamples = 2\nvalue = [0, 2]\nclass = Non-acceptable"] ;
118 -> 119 ;
120 [label="gini = 0.0\nsamples = 1\nvalue = [1, 0]\nclass = Acceptable"] ;
118 -> 120 ;
121 [label="gini = 0.0\nsamples = 1\nvalue = [1, 0]\nclass = Acceptable"] ;
117 -> 121 ;
122 [label="qpSetting <= 25.5\ngini = 0.32\nsamples = 5\nvalue = [1, 4]\nclass = Non-acceptable"] ;
114 -> 122 ;
123 [label="aq_strength <= 1.05\ngini = 0.444\nsamples = 3\nvalue = [1, 2]\nclass = Non-acceptable"] ;
122 -> 123 ;
124 [label="gini = 0.0\nsamples = 1\nvalue = [0, 1]\nclass = Non-acceptable"] ;
123 -> 124 ;
125 [label="bframes <= 13.0\ngini = 0.5\nsamples = 2\nvalue = [1, 1]\nclass = Acceptable"] ;
123 -> 125 ;
126 [label="gini = 0.0\nsamples = 1\nvalue = [0, 1]\nclass = Non-acceptable"] ;
125 -> 126 ;
127 [label="gini = 0.0\nsamples = 1\nvalue = [1, 0]\nclass = Acceptable"] ;
125 -> 127 ;
128 [label="gini = 0.0\nsamples = 2\nvalue = [0, 2]\nclass = Non-acceptable"] ;
122 -> 128 ;
129 [label="aq_strength <= 1.05\ngini = 0.408\nsamples = 14\nvalue = [10, 4]\nclass = Acceptable"] ;
103 -> 129 ;
130 [label="gini = 0.0\nsamples = 4\nvalue = [4, 0]\nclass = Acceptable"] ;
129 -> 130 ;
131 [label="qpSetting <= 25.5\ngini = 0.48\nsamples = 10\nvalue = [6, 4]\nclass = Acceptable"] ;
129 -> 131 ;
132 [label="ref <= 4.5\ngini = 0.5\nsamples = 6\nvalue = [3, 3]\nclass = Acceptable"] ;
131 -> 132 ;
133 [label="gini = 0.0\nsamples = 1\nvalue = [0, 1]\nclass = Non-acceptable"] ;
132 -> 133 ;
134 [label="Threads <= 64.5\ngini = 0.48\nsamples = 5\nvalue = [3, 2]\nclass = Acceptable"] ;
132 -> 134 ;
135 [label="b_bias <= 17.0\ngini = 0.444\nsamples = 3\nvalue = [2, 1]\nclass = Acceptable"] ;
134 -> 135 ;
136 [label="gini = 0.0\nsamples = 1\nvalue = [0, 1]\nclass = Non-acceptable"] ;
135 -> 136 ;
137 [label="gini = 0.0\nsamples = 2\nvalue = [2, 0]\nclass = Acceptable"] ;
135 -> 137 ;
138 [label="b_bias <= 17.0\ngini = 0.5\nsamples = 2\nvalue = [1, 1]\nclass = Acceptable"] ;
134 -> 138 ;
139 [label="gini = 0.0\nsamples = 1\nvalue = [1, 0]\nclass = Acceptable"] ;
138 -> 139 ;
140 [label="gini = 0.0\nsamples = 1\nvalue = [0, 1]\nclass = Non-acceptable"] ;
138 -> 140 ;
141 [label="bframes <= 13.0\ngini = 0.375\nsamples = 4\nvalue = [3, 1]\nclass = Acceptable"] ;
131 -> 141 ;
142 [label="gini = 0.0\nsamples = 1\nvalue = [1, 0]\nclass = Acceptable"] ;
141 -> 142 ;
143 [label="ref <= 4.5\ngini = 0.444\nsamples = 3\nvalue = [2, 1]\nclass = Acceptable"] ;
141 -> 143 ;
144 [label="gini = 0.0\nsamples = 1\nvalue = [1, 0]\nclass = Acceptable"] ;
143 -> 144 ;
145 [label="gini = 0.5\nsamples = 2\nvalue = [1, 1]\nclass = Acceptable"] ;
143 -> 145 ;
146 [label="aq_strength <= 1.05\ngini = 0.495\nsamples = 73\nvalue = [40, 33]\nclass = Acceptable"] ;
68 -> 146 ;
147 [label="bframes <= 15.5\ngini = 0.5\nsamples = 39\nvalue = [19, 20]\nclass = Non-acceptable"] ;
146 -> 147 ;
148 [label="keyint <= 500.5\ngini = 0.483\nsamples = 22\nvalue = [9, 13]\nclass = Non-acceptable"] ;
147 -> 148 ;
149 [label="ref <= 6.5\ngini = 0.5\nsamples = 14\nvalue = [7, 7]\nclass = Acceptable"] ;
148 -> 149 ;
150 [label="b_bias <= 17.0\ngini = 0.497\nsamples = 13\nvalue = [7, 6]\nclass = Acceptable"] ;
149 -> 150 ;
151 [label="scenecut <= 50.5\ngini = 0.444\nsamples = 6\nvalue = [4, 2]\nclass = Acceptable"] ;
150 -> 151 ;
152 [label="ipratio <= 1.05\ngini = 0.5\nsamples = 4\nvalue = [2, 2]\nclass = Acceptable"] ;
151 -> 152 ;
153 [label="gini = 0.0\nsamples = 1\nvalue = [0, 1]\nclass = Non-acceptable"] ;
152 -> 153 ;
154 [label="Threads <= 64.5\ngini = 0.444\nsamples = 3\nvalue = [2, 1]\nclass = Acceptable"] ;
152 -> 154 ;
155 [label="gini = 0.0\nsamples = 1\nvalue = [1, 0]\nclass = Acceptable"] ;
154 -> 155 ;
156 [label="gini = 0.5\nsamples = 2\nvalue = [1, 1]\nclass = Acceptable"] ;
154 -> 156 ;
157 [label="gini = 0.0\nsamples = 2\nvalue = [2, 0]\nclass = Acceptable"] ;
151 -> 157 ;
158 [label="scenecut <= 50.5\ngini = 0.49\nsamples = 7\nvalue = [3, 4]\nclass = Non-acceptable"] ;
150 -> 158 ;
159 [label="qpSetting <= 25.5\ngini = 0.48\nsamples = 5\nvalue = [3, 2]\nclass = Acceptable"] ;
158 -> 159 ;
160 [label="ref <= 4.5\ngini = 0.444\nsamples = 3\nvalue = [1, 2]\nclass = Non-acceptable"] ;
159 -> 160 ;
161 [label="gini = 0.0\nsamples = 1\nvalue = [0, 1]\nclass = Non-acceptable"] ;
160 -> 161 ;
162 [label="gini = 0.5\nsamples = 2\nvalue = [1, 1]\nclass = Acceptable"] ;
160 -> 162 ;
163 [label="gini = 0.0\nsamples = 2\nvalue = [2, 0]\nclass = Acceptable"] ;
159 -> 163 ;
164 [label="gini = 0.0\nsamples = 2\nvalue = [0, 2]\nclass = Non-acceptable"] ;
158 -> 164 ;
165 [label="gini = 0.0\nsamples = 1\nvalue = [0, 1]\nclass = Non-acceptable"] ;
149 -> 165 ;
166 [label="ref <= 4.5\ngini = 0.375\nsamples = 8\nvalue = [2, 6]\nclass = Non-acceptable"] ;
148 -> 166 ;
167 [label="ipratio <= 1.05\ngini = 0.5\nsamples = 4\nvalue = [2, 2]\nclass = Acceptable"] ;
166 -> 167 ;
168 [label="gini = 0.0\nsamples = 1\nvalue = [1, 0]\nclass = Acceptable"] ;
167 -> 168 ;
169 [label="scenecut <= 50.5\ngini = 0.444\nsamples = 3\nvalue = [1, 2]\nclass = Non-acceptable"] ;
167 -> 169 ;
170 [label="gini = 0.0\nsamples = 1\nvalue = [1, 0]\nclass = Acceptable"] ;
169 -> 170 ;
171 [label="gini = 0.0\nsamples = 2\nvalue = [0, 2]\nclass = Non-acceptable"] ;
169 -> 171 ;
172 [label="gini = 0.0\nsamples = 4\nvalue = [0, 4]\nclass = Non-acceptable"] ;
166 -> 172 ;
173 [label="qpSetting <= 25.5\ngini = 0.484\nsamples = 17\nvalue = [10, 7]\nclass = Acceptable"] ;
147 -> 173 ;
174 [label="b_bias <= 17.0\ngini = 0.375\nsamples = 8\nvalue = [6, 2]\nclass = Acceptable"] ;
173 -> 174 ;
175 [label="gini = 0.0\nsamples = 3\nvalue = [3, 0]\nclass = Acceptable"] ;
174 -> 175 ;
176 [label="ref <= 4.5\ngini = 0.48\nsamples = 5\nvalue = [3, 2]\nclass = Acceptable"] ;
174 -> 176 ;
177 [label="gini = 0.0\nsamples = 1\nvalue = [0, 1]\nclass = Non-acceptable"] ;
176 -> 177 ;
178 [label="keyint <= 500.5\ngini = 0.375\nsamples = 4\nvalue = [3, 1]\nclass = Acceptable"] ;
176 -> 178 ;
179 [label="gini = 0.0\nsamples = 2\nvalue = [2, 0]\nclass = Acceptable"] ;
178 -> 179 ;
180 [label="ipratio <= 1.05\ngini = 0.5\nsamples = 2\nvalue = [1, 1]\nclass = Acceptable"] ;
178 -> 180 ;
181 [label="gini = 0.0\nsamples = 1\nvalue = [1, 0]\nclass = Acceptable"] ;
180 -> 181 ;
182 [label="gini = 0.0\nsamples = 1\nvalue = [0, 1]\nclass = Non-acceptable"] ;
180 -> 182 ;
183 [label="b_bias <= 17.0\ngini = 0.494\nsamples = 9\nvalue = [4, 5]\nclass = Non-acceptable"] ;
173 -> 183 ;
184 [label="ipratio <= 1.05\ngini = 0.49\nsamples = 7\nvalue = [4, 3]\nclass = Acceptable"] ;
183 -> 184 ;
185 [label="scenecut <= 50.5\ngini = 0.375\nsamples = 4\nvalue = [3, 1]\nclass = Acceptable"] ;
184 -> 185 ;
186 [label="keyint <= 500.5\ngini = 0.444\nsamples = 3\nvalue = [2, 1]\nclass = Acceptable"] ;
185 -> 186 ;
187 [label="ref <= 4.5\ngini = 0.5\nsamples = 2\nvalue = [1, 1]\nclass = Acceptable"] ;
186 -> 187 ;
188 [label="gini = 0.0\nsamples = 1\nvalue = [1, 0]\nclass = Acceptable"] ;
187 -> 188 ;
189 [label="gini = 0.0\nsamples = 1\nvalue = [0, 1]\nclass = Non-acceptable"] ;
187 -> 189 ;
190 [label="gini = 0.0\nsamples = 1\nvalue = [1, 0]\nclass = Acceptable"] ;
186 -> 190 ;
191 [label="gini = 0.0\nsamples = 1\nvalue = [1, 0]\nclass = Acceptable"] ;
185 -> 191 ;
192 [label="keyint <= 500.5\ngini = 0.444\nsamples = 3\nvalue = [1, 2]\nclass = Non-acceptable"] ;
184 -> 192 ;
193 [label="gini = 0.0\nsamples = 1\nvalue = [0, 1]\nclass = Non-acceptable"] ;
192 -> 193 ;
194 [label="Threads <= 64.5\ngini = 0.5\nsamples = 2\nvalue = [1, 1]\nclass = Acceptable"] ;
192 -> 194 ;
195 [label="gini = 0.0\nsamples = 1\nvalue = [0, 1]\nclass = Non-acceptable"] ;
194 -> 195 ;
196 [label="gini = 0.0\nsamples = 1\nvalue = [1, 0]\nclass = Acceptable"] ;
194 -> 196 ;
197 [label="gini = 0.0\nsamples = 2\nvalue = [0, 2]\nclass = Non-acceptable"] ;
183 -> 197 ;
198 [label="scenecut <= 50.5\ngini = 0.472\nsamples = 34\nvalue = [21, 13]\nclass = Acceptable"] ;
146 -> 198 ;
199 [label="b_bias <= 17.0\ngini = 0.434\nsamples = 22\nvalue = [15, 7]\nclass = Acceptable"] ;
198 -> 199 ;
200 [label="ipratio <= 1.05\ngini = 0.49\nsamples = 7\nvalue = [3, 4]\nclass = Non-acceptable"] ;
199 -> 200 ;
201 [label="keyint <= 500.5\ngini = 0.48\nsamples = 5\nvalue = [3, 2]\nclass = Acceptable"] ;
200 -> 201 ;
202 [label="gini = 0.0\nsamples = 2\nvalue = [2, 0]\nclass = Acceptable"] ;
201 -> 202 ;
203 [label="ref <= 4.5\ngini = 0.444\nsamples = 3\nvalue = [1, 2]\nclass = Non-acceptable"] ;
201 -> 203 ;
204 [label="gini = 0.0\nsamples = 1\nvalue = [0, 1]\nclass = Non-acceptable"] ;
203 -> 204 ;
205 [label="bframes <= 13.0\ngini = 0.5\nsamples = 2\nvalue = [1, 1]\nclass = Acceptable"] ;
203 -> 205 ;
206 [label="gini = 0.0\nsamples = 1\nvalue = [0, 1]\nclass = Non-acceptable"] ;
205 -> 206 ;
207 [label="gini = 0.0\nsamples = 1\nvalue = [1, 0]\nclass = Acceptable"] ;
205 -> 207 ;
208 [label="gini = 0.0\nsamples = 2\nvalue = [0, 2]\nclass = Non-acceptable"] ;
200 -> 208 ;
209 [label="Threads <= 64.5\ngini = 0.32\nsamples = 15\nvalue = [12, 3]\nclass = Acceptable"] ;
199 -> 209 ;
210 [label="keyint <= 500.5\ngini = 0.42\nsamples = 10\nvalue = [7, 3]\nclass = Acceptable"] ;
209 -> 210 ;
211 [label="qpSetting <= 25.5\ngini = 0.32\nsamples = 5\nvalue = [4, 1]\nclass = Acceptable"] ;
210 -> 211 ;
212 [label="bframes <= 13.0\ngini = 0.444\nsamples = 3\nvalue = [2, 1]\nclass = Acceptable"] ;
211 -> 212 ;
213 [label="gini = 0.0\nsamples = 1\nvalue = [1, 0]\nclass = Acceptable"] ;
212 -> 213 ;
214 [label="gini = 0.5\nsamples = 2\nvalue = [1, 1]\nclass = Acceptable"] ;
212 -> 214 ;
215 [label="gini = 0.0\nsamples = 2\nvalue = [2, 0]\nclass = Acceptable"] ;
211 -> 215 ;
216 [label="ref <= 4.5\ngini = 0.48\nsamples = 5\nvalue = [3, 2]\nclass = Acceptable"] ;
210 -> 216 ;
217 [label="ipratio <= 1.05\ngini = 0.375\nsamples = 4\nvalue = [3, 1]\nclass = Acceptable"] ;
216 -> 217 ;
218 [label="bframes <= 13.0\ngini = 0.444\nsamples = 3\nvalue = [2, 1]\nclass = Acceptable"] ;
217 -> 218 ;
219 [label="gini = 0.5\nsamples = 2\nvalue = [1, 1]\nclass = Acceptable"] ;
218 -> 219 ;
220 [label="gini = 0.0\nsamples = 1\nvalue = [1, 0]\nclass = Acceptable"] ;
218 -> 220 ;
221 [label="gini = 0.0\nsamples = 1\nvalue = [1, 0]\nclass = Acceptable"] ;
217 -> 221 ;
222 [label="gini = 0.0\nsamples = 1\nvalue = [0, 1]\nclass = Non-acceptable"] ;
216 -> 222 ;
223 [label="gini = 0.0\nsamples = 5\nvalue = [5, 0]\nclass = Acceptable"] ;
209 -> 223 ;
224 [label="ipratio <= 1.05\ngini = 0.5\nsamples = 12\nvalue = [6, 6]\nclass = Acceptable"] ;
198 -> 224 ;
225 [label="keyint <= 500.5\ngini = 0.444\nsamples = 9\nvalue = [3, 6]\nclass = Non-acceptable"] ;
224 -> 225 ;
226 [label="gini = 0.0\nsamples = 3\nvalue = [0, 3]\nclass = Non-acceptable"] ;
225 -> 226 ;
227 [label="b_bias <= 17.0\ngini = 0.5\nsamples = 6\nvalue = [3, 3]\nclass = Acceptable"] ;
225 -> 227 ;
228 [label="gini = 0.0\nsamples = 2\nvalue = [2, 0]\nclass = Acceptable"] ;
227 -> 228 ;
229 [label="ref <= 4.5\ngini = 0.375\nsamples = 4\nvalue = [1, 3]\nclass = Non-acceptable"] ;
227 -> 229 ;
230 [label="Threads <= 64.5\ngini = 0.5\nsamples = 2\nvalue = [1, 1]\nclass = Acceptable"] ;
229 -> 230 ;
231 [label="gini = 0.0\nsamples = 1\nvalue = [0, 1]\nclass = Non-acceptable"] ;
230 -> 231 ;
232 [label="gini = 0.0\nsamples = 1\nvalue = [1, 0]\nclass = Acceptable"] ;
230 -> 232 ;
233 [label="gini = 0.0\nsamples = 2\nvalue = [0, 2]\nclass = Non-acceptable"] ;
229 -> 233 ;
234 [label="gini = 0.0\nsamples = 3\nvalue = [3, 0]\nclass = Acceptable"] ;
224 -> 234 ;
235 [label="gini = 0.0\nsamples = 3\nvalue = [3, 0]\nclass = Acceptable"] ;
67 -> 235 ;
236 [label="no_mbtree <= 0.5\ngini = 0.499\nsamples = 1031\nvalue = [533, 498]\nclass = Acceptable"] ;
62 -> 236 ;
237 [label="rc_lookahead <= 195.0\ngini = 0.498\nsamples = 870\nvalue = [464, 406]\nclass = Acceptable"] ;
236 -> 237 ;
238 [label="qpSetting <= 11.5\ngini = 0.498\nsamples = 864\nvalue = [458, 406]\nclass = Acceptable"] ;
237 -> 238 ;
239 [label="gini = 0.0\nsamples = 3\nvalue = [0, 3]\nclass = Non-acceptable"] ;
238 -> 239 ;
240 [label="qcomp <= 0.85\ngini = 0.498\nsamples = 861\nvalue = [458, 403]\nclass = Acceptable"] ;
238 -> 240 ;
241 [label="qpSetting <= 33.0\ngini = 0.498\nsamples = 857\nvalue = [454, 403]\nclass = Acceptable"] ;
240 -> 241 ;
242 [label="keyint <= 500.5\ngini = 0.5\nsamples = 452\nvalue = [228, 224]\nclass = Acceptable"] ;
241 -> 242 ;
243 [label="no_asm <= 0.5\ngini = 0.496\nsamples = 238\nvalue = [130, 108]\nclass = Acceptable"] ;
242 -> 243 ;
244 [label="ref <= 4.5\ngini = 0.499\nsamples = 199\nvalue = [103, 96]\nclass = Acceptable"] ;
243 -> 244 ;
245 [label="scenecut <= 50.5\ngini = 0.498\nsamples = 98\nvalue = [46, 52]\nclass = Non-acceptable"] ;
244 -> 245 ;
246 [label="b_bias <= 17.0\ngini = 0.48\nsamples = 50\nvalue = [20, 30]\nclass = Non-acceptable"] ;
245 -> 246 ;
247 [label="no_scenecut <= 0.5\ngini = 0.499\nsamples = 27\nvalue = [14, 13]\nclass = Acceptable"] ;
246 -> 247 ;
248 [label="rc_lookahead <= 125.5\ngini = 0.465\nsamples = 19\nvalue = [12, 7]\nclass = Acceptable"] ;
247 -> 248 ;
249 [label="ipratio <= 1.05\ngini = 0.346\nsamples = 9\nvalue = [7, 2]\nclass = Acceptable"] ;
248 -> 249 ;
250 [label="gini = 0.0\nsamples = 3\nvalue = [3, 0]\nclass = Acceptable"] ;
249 -> 250 ;
251 [label="ManualThreads <= 0.5\ngini = 0.444\nsamples = 6\nvalue = [4, 2]\nclass = Acceptable"] ;
249 -> 251 ;
252 [label="Threads <= 64.5\ngini = 0.48\nsamples = 5\nvalue = [3, 2]\nclass = Acceptable"] ;
251 -> 252 ;
253 [label="gini = 0.0\nsamples = 1\nvalue = [0, 1]\nclass = Non-acceptable"] ;
252 -> 253 ;
254 [label="qp <= 0.5\ngini = 0.375\nsamples = 4\nvalue = [3, 1]\nclass = Acceptable"] ;
252 -> 254 ;
255 [label="gini = 0.0\nsamples = 1\nvalue = [1, 0]\nclass = Acceptable"] ;
254 -> 255 ;
256 [label="bframes <= 13.0\ngini = 0.444\nsamples = 3\nvalue = [2, 1]\nclass = Acceptable"] ;
254 -> 256 ;
257 [label="gini = 0.0\nsamples = 1\nvalue = [1, 0]\nclass = Acceptable"] ;
256 -> 257 ;
258 [label="no_cabac <= 0.5\ngini = 0.5\nsamples = 2\nvalue = [1, 1]\nclass = Acceptable"] ;
256 -> 258 ;
259 [label="gini = 0.0\nsamples = 1\nvalue = [0, 1]\nclass = Non-acceptable"] ;
258 -> 259 ;
260 [label="gini = 0.0\nsamples = 1\nvalue = [1, 0]\nclass = Acceptable"] ;
258 -> 260 ;
261 [label="gini = 0.0\nsamples = 1\nvalue = [1, 0]\nclass = Acceptable"] ;
251 -> 261 ;
262 [label="ipratio <= 1.05\ngini = 0.5\nsamples = 10\nvalue = [5, 5]\nclass = Acceptable"] ;
248 -> 262 ;
263 [label="Threads <= 64.5\ngini = 0.444\nsamples = 6\nvalue = [2, 4]\nclass = Non-acceptable"] ;
262 -> 263 ;
264 [label="qp <= 0.5\ngini = 0.5\nsamples = 4\nvalue = [2, 2]\nclass = Acceptable"] ;
263 -> 264 ;
265 [label="gini = 0.0\nsamples = 1\nvalue = [0, 1]\nclass = Non-acceptable"] ;
264 -> 265 ;
266 [label="bframes <= 13.0\ngini = 0.444\nsamples = 3\nvalue = [2, 1]\nclass = Acceptable"] ;
264 -> 266 ;
267 [label="gini = 0.0\nsamples = 2\nvalue = [2, 0]\nclass = Acceptable"] ;
266 -> 267 ;
268 [label="gini = 0.0\nsamples = 1\nvalue = [0, 1]\nclass = Non-acceptable"] ;
266 -> 268 ;
269 [label="gini = 0.0\nsamples = 2\nvalue = [0, 2]\nclass = Non-acceptable"] ;
263 -> 269 ;
270 [label="Threads <= 64.5\ngini = 0.375\nsamples = 4\nvalue = [3, 1]\nclass = Acceptable"] ;
262 -> 270 ;
271 [label="bframes <= 13.0\ngini = 0.5\nsamples = 2\nvalue = [1, 1]\nclass = Acceptable"] ;
270 -> 271 ;
272 [label="gini = 0.0\nsamples = 1\nvalue = [0, 1]\nclass = Non-acceptable"] ;
271 -> 272 ;
273 [label="gini = 0.0\nsamples = 1\nvalue = [1, 0]\nclass = Acceptable"] ;
271 -> 273 ;
274 [label="gini = 0.0\nsamples = 2\nvalue = [2, 0]\nclass = Acceptable"] ;
270 -> 274 ;
275 [label="bframes <= 13.0\ngini = 0.375\nsamples = 8\nvalue = [2, 6]\nclass = Non-acceptable"] ;
247 -> 275 ;
276 [label="ipratio <= 1.05\ngini = 0.5\nsamples = 4\nvalue = [2, 2]\nclass = Acceptable"] ;
275 -> 276 ;
277 [label="gini = 0.0\nsamples = 1\nvalue = [0, 1]\nclass = Non-acceptable"] ;
276 -> 277 ;
278 [label="Threads <= 64.5\ngini = 0.444\nsamples = 3\nvalue = [2, 1]\nclass = Acceptable"] ;
276 -> 278 ;
279 [label="gini = 0.5\nsamples = 2\nvalue = [1, 1]\nclass = Acceptable"] ;
278 -> 279 ;
280 [label="gini = 0.0\nsamples = 1\nvalue = [1, 0]\nclass = Acceptable"] ;
278 -> 280 ;
281 [label="gini = 0.0\nsamples = 4\nvalue = [0, 4]\nclass = Non-acceptable"] ;
275 -> 281 ;
282 [label="aq_strength <= 1.05\ngini = 0.386\nsamples = 23\nvalue = [6, 17]\nclass = Non-acceptable"] ;
246 -> 282 ;
283 [label="no_cabac <= 0.5\ngini = 0.153\nsamples = 12\nvalue = [1, 11]\nclass = Non-acceptable"] ;
282 -> 283 ;
284 [label="gini = 0.0\nsamples = 9\nvalue = [0, 9]\nclass = Non-acceptable"] ;
283 -> 284 ;
285 [label="ipratio <= 1.05\ngini = 0.444\nsamples = 3\nvalue = [1, 2]\nclass = Non-acceptable"] ;
283 -> 285 ;
286 [label="gini = 0.0\nsamples = 1\nvalue = [0, 1]\nclass = Non-acceptable"] ;
285 -> 286 ;
287 [label="Threads <= 64.5\ngini = 0.5\nsamples = 2\nvalue = [1, 1]\nclass = Acceptable"] ;
285 -> 287 ;
288 [label="gini = 0.0\nsamples = 1\nvalue = [0, 1]\nclass = Non-acceptable"] ;
287 -> 288 ;
289 [label="gini = 0.0\nsamples = 1\nvalue = [1, 0]\nclass = Acceptable"] ;
287 -> 289 ;
290 [label="Threads <= 64.5\ngini = 0.496\nsamples = 11\nvalue = [5, 6]\nclass = Non-acceptable"] ;
282 -> 290 ;
291 [label="gini = 0.0\nsamples = 2\nvalue = [2, 0]\nclass = Acceptable"] ;
290 -> 291 ;
292 [label="rc_lookahead <= 125.5\ngini = 0.444\nsamples = 9\nvalue = [3, 6]\nclass = Non-acceptable"] ;
290 -> 292 ;
293 [label="crf <= 0.5\ngini = 0.32\nsamples = 5\nvalue = [1, 4]\nclass = Non-acceptable"] ;
292 -> 293 ;
294 [label="bframes <= 13.0\ngini = 0.375\nsamples = 4\nvalue = [1, 3]\nclass = Non-acceptable"] ;
293 -> 294 ;
295 [label="gini = 0.0\nsamples = 1\nvalue = [0, 1]\nclass = Non-acceptable"] ;
294 -> 295 ;
296 [label="no_cabac <= 0.5\ngini = 0.444\nsamples = 3\nvalue = [1, 2]\nclass = Non-acceptable"] ;
294 -> 296 ;
297 [label="gini = 0.5\nsamples = 2\nvalue = [1, 1]\nclass = Acceptable"] ;
296 -> 297 ;
298 [label="gini = 0.0\nsamples = 1\nvalue = [0, 1]\nclass = Non-acceptable"] ;
296 -> 298 ;
299 [label="gini = 0.0\nsamples = 1\nvalue = [0, 1]\nclass = Non-acceptable"] ;
293 -> 299 ;
300 [label="qp <= 0.5\ngini = 0.5\nsamples = 4\nvalue = [2, 2]\nclass = Acceptable"] ;
292 -> 300 ;
301 [label="gini = 0.0\nsamples = 1\nvalue = [1, 0]\nclass = Acceptable"] ;
300 -> 301 ;
302 [label="bframes <= 13.0\ngini = 0.444\nsamples = 3\nvalue = [1, 2]\nclass = Non-acceptable"] ;
300 -> 302 ;
303 [label="gini = 0.0\nsamples = 2\nvalue = [0, 2]\nclass = Non-acceptable"] ;
302 -> 303 ;
304 [label="gini = 0.0\nsamples = 1\nvalue = [1, 0]\nclass = Acceptable"] ;
302 -> 304 ;
305 [label="ipratio <= 1.05\ngini = 0.497\nsamples = 48\nvalue = [26, 22]\nclass = Acceptable"] ;
245 -> 305 ;
306 [label="qp <= 0.5\ngini = 0.375\nsamples = 24\nvalue = [18, 6]\nclass = Acceptable"] ;
305 -> 306 ;
307 [label="b_bias <= 17.0\ngini = 0.444\nsamples = 3\nvalue = [1, 2]\nclass = Non-acceptable"] ;
306 -> 307 ;
308 [label="Threads <= 64.5\ngini = 0.5\nsamples = 2\nvalue = [1, 1]\nclass = Acceptable"] ;
307 -> 308 ;
309 [label="gini = 0.0\nsamples = 1\nvalue = [0, 1]\nclass = Non-acceptable"] ;
308 -> 309 ;
310 [label="gini = 0.0\nsamples = 1\nvalue = [1, 0]\nclass = Acceptable"] ;
308 -> 310 ;
311 [label="gini = 0.0\nsamples = 1\nvalue = [0, 1]\nclass = Non-acceptable"] ;
307 -> 311 ;
312 [label="Threads <= 64.5\ngini = 0.308\nsamples = 21\nvalue = [17, 4]\nclass = Acceptable"] ;
306 -> 312 ;
313 [label="aq_strength <= 1.05\ngini = 0.444\nsamples = 12\nvalue = [8, 4]\nclass = Acceptable"] ;
312 -> 313 ;
314 [label="ManualThreads <= 0.5\ngini = 0.245\nsamples = 7\nvalue = [6, 1]\nclass = Acceptable"] ;
313 -> 314 ;
315 [label="gini = 0.0\nsamples = 6\nvalue = [6, 0]\nclass = Acceptable"] ;
314 -> 315 ;
316 [label="gini = 0.0\nsamples = 1\nvalue = [0, 1]\nclass = Non-acceptable"] ;
314 -> 316 ;
317 [label="b_bias <= 17.0\ngini = 0.48\nsamples = 5\nvalue = [2, 3]\nclass = Non-acceptable"] ;
313 -> 317 ;
318 [label="gini = 0.0\nsamples = 2\nvalue = [0, 2]\nclass = Non-acceptable"] ;
317 -> 318 ;
319 [label="no_scenecut <= 0.5\ngini = 0.444\nsamples = 3\nvalue = [2, 1]\nclass = Acceptable"] ;
317 -> 319 ;
320 [label="gini = 0.0\nsamples = 2\nvalue = [2, 0]\nclass = Acceptable"] ;
319 -> 320 ;
321 [label="gini = 0.0\nsamples = 1\nvalue = [0, 1]\nclass = Non-acceptable"] ;
319 -> 321 ;
322 [label="gini = 0.0\nsamples = 9\nvalue = [9, 0]\nclass = Acceptable"] ;
312 -> 322 ;
323 [label="aq_strength <= 1.05\ngini = 0.444\nsamples = 24\nvalue = [8, 16]\nclass = Non-acceptable"] ;
305 -> 323 ;
324 [label="b_bias <= 17.0\ngini = 0.298\nsamples = 11\nvalue = [2, 9]\nclass = Non-acceptable"] ;
323 -> 324 ;
325 [label="gini = 0.0\nsamples = 6\nvalue = [0, 6]\nclass = Non-acceptable"] ;
324 -> 325 ;
326 [label="bframes <= 13.0\ngini = 0.48\nsamples = 5\nvalue = [2, 3]\nclass = Non-acceptable"] ;
324 -> 326 ;
327 [label="gini = 0.0\nsamples = 3\nvalue = [0, 3]\nclass = Non-acceptable"] ;
326 -> 327 ;
328 [label="gini = 0.0\nsamples = 2\nvalue = [2, 0]\nclass = Acceptable"] ;
326 -> 328 ;
329 [label="no_scenecut <= 0.5\ngini = 0.497\nsamples = 13\nvalue = [6, 7]\nclass = Non-acceptable"] ;
323 -> 329 ;
330 [label="bframes <= 13.0\ngini = 0.5\nsamples = 12\nvalue = [6, 6]\nclass = Acceptable"] ;
329 -> 330 ;
331 [label="rc_lookahead <= 125.5\ngini = 0.444\nsamples = 6\nvalue = [4, 2]\nclass = Acceptable"] ;
330 -> 331 ;
332 [label="b_bias <= 17.0\ngini = 0.444\nsamples = 3\nvalue = [1, 2]\nclass = Non-acceptable"] ;
331 -> 332 ;
333 [label="gini = 0.0\nsamples = 2\nvalue = [0, 2]\nclass = Non-acceptable"] ;
332 -> 333 ;
334 [label="gini = 0.0\nsamples = 1\nvalue = [1, 0]\nclass = Acceptable"] ;
332 -> 334 ;
335 [label="gini = 0.0\nsamples = 3\nvalue = [3, 0]\nclass = Acceptable"] ;
331 -> 335 ;
336 [label="no_cabac <= 0.5\ngini = 0.444\nsamples = 6\nvalue = [2, 4]\nclass = Non-acceptable"] ;
330 -> 336 ;
337 [label="qp <= 0.5\ngini = 0.5\nsamples = 4\nvalue = [2, 2]\nclass = Acceptable"] ;
336 -> 337 ;
338 [label="Threads <= 64.5\ngini = 0.444\nsamples = 3\nvalue = [1, 2]\nclass = Non-acceptable"] ;
337 -> 338 ;
339 [label="gini = 0.0\nsamples = 2\nvalue = [0, 2]\nclass = Non-acceptable"] ;
338 -> 339 ;
340 [label="gini = 0.0\nsamples = 1\nvalue = [1, 0]\nclass = Acceptable"] ;
338 -> 340 ;
341 [label="gini = 0.0\nsamples = 1\nvalue = [1, 0]\nclass = Acceptable"] ;
337 -> 341 ;
342 [label="gini = 0.0\nsamples = 2\nvalue = [0, 2]\nclass = Non-acceptable"] ;
336 -> 342 ;
343 [label="gini = 0.0\nsamples = 1\nvalue = [0, 1]\nclass = Non-acceptable"] ;
329 -> 343 ;
344 [label="rc_lookahead <= 125.5\ngini = 0.492\nsamples = 101\nvalue = [57, 44]\nclass = Acceptable"] ;
244 -> 344 ;
345 [label="scenecut <= 50.5\ngini = 0.492\nsamples = 39\nvalue = [17, 22]\nclass = Non-acceptable"] ;
344 -> 345 ;
346 [label="ManualThreads <= 0.5\ngini = 0.499\nsamples = 19\nvalue = [10, 9]\nclass = Acceptable"] ;
345 -> 346 ;
347 [label="crf <= 0.5\ngini = 0.48\nsamples = 15\nvalue = [9, 6]\nclass = Acceptable"] ;
346 -> 347 ;
348 [label="ipratio <= 1.05\ngini = 0.49\nsamples = 14\nvalue = [8, 6]\nclass = Acceptable"] ;
347 -> 348 ;
349 [label="Threads <= 64.5\ngini = 0.49\nsamples = 7\nvalue = [3, 4]\nclass = Non-acceptable"] ;
348 -> 349 ;
350 [label="no_scenecut <= 0.5\ngini = 0.444\nsamples = 3\nvalue = [2, 1]\nclass = Acceptable"] ;
349 -> 350 ;
351 [label="gini = 0.0\nsamples = 2\nvalue = [2, 0]\nclass = Acceptable"] ;
350 -> 351 ;
352 [label="gini = 0.0\nsamples = 1\nvalue = [0, 1]\nclass = Non-acceptable"] ;
350 -> 352 ;
353 [label="b_bias <= 17.0\ngini = 0.375\nsamples = 4\nvalue = [1, 3]\nclass = Non-acceptable"] ;
349 -> 353 ;
354 [label="gini = 0.0\nsamples = 2\nvalue = [0, 2]\nclass = Non-acceptable"] ;
353 -> 354 ;
355 [label="no_scenecut <= 0.5\ngini = 0.5\nsamples = 2\nvalue = [1, 1]\nclass = Acceptable"] ;
353 -> 355 ;
356 [label="gini = 0.0\nsamples = 1\nvalue = [0, 1]\nclass = Non-acceptable"] ;
355 -> 356 ;
357 [label="gini = 0.0\nsamples = 1\nvalue = [1, 0]\nclass = Acceptable"] ;
355 -> 357 ;
358 [label="bframes <= 13.0\ngini = 0.408\nsamples = 7\nvalue = [5, 2]\nclass = Acceptable"] ;
348 -> 358 ;
359 [label="gini = 0.0\nsamples = 3\nvalue = [3, 0]\nclass = Acceptable"] ;
358 -> 359 ;
360 [label="aq_strength <= 1.05\ngini = 0.5\nsamples = 4\nvalue = [2, 2]\nclass = Acceptable"] ;
358 -> 360 ;
361 [label="gini = 0.0\nsamples = 2\nvalue = [2, 0]\nclass = Acceptable"] ;
360 -> 361 ;
362 [label="gini = 0.0\nsamples = 2\nvalue = [0, 2]\nclass = Non-acceptable"] ;
360 -> 362 ;
363 [label="gini = 0.0\nsamples = 1\nvalue = [1, 0]\nclass = Acceptable"] ;
347 -> 363 ;
364 [label="aq_strength <= 1.05\ngini = 0.375\nsamples = 4\nvalue = [1, 3]\nclass = Non-acceptable"] ;
346 -> 364 ;
365 [label="gini = 0.0\nsamples = 3\nvalue = [0, 3]\nclass = Non-acceptable"] ;
364 -> 365 ;
366 [label="gini = 0.0\nsamples = 1\nvalue = [1, 0]\nclass = Acceptable"] ;
364 -> 366 ;
367 [label="aq_strength <= 1.05\ngini = 0.455\nsamples = 20\nvalue = [7, 13]\nclass = Non-acceptable"] ;
345 -> 367 ;
368 [label="ManualThreads <= 0.5\ngini = 0.32\nsamples = 10\nvalue = [2, 8]\nclass = Non-acceptable"] ;
367 -> 368 ;
369 [label="gini = 0.0\nsamples = 6\nvalue = [0, 6]\nclass = Non-acceptable"] ;
368 -> 369 ;
370 [label="Threads <= 64.5\ngini = 0.5\nsamples = 4\nvalue = [2, 2]\nclass = Acceptable"] ;
368 -> 370 ;
371 [label="gini = 0.0\nsamples = 2\nvalue = [0, 2]\nclass = Non-acceptable"] ;
370 -> 371 ;
372 [label="gini = 0.0\nsamples = 2\nvalue = [2, 0]\nclass = Acceptable"] ;
370 -> 372 ;
373 [label="qp <= 0.5\ngini = 0.5\nsamples = 10\nvalue = [5, 5]\nclass = Acceptable"] ;
367 -> 373 ;
374 [label="gini = 0.0\nsamples = 2\nvalue = [2, 0]\nclass = Acceptable"] ;
373 -> 374 ;
375 [label="bframes <= 13.0\ngini = 0.469\nsamples = 8\nvalue = [3, 5]\nclass = Non-acceptable"] ;
373 -> 375 ;
376 [label="Threads <= 64.5\ngini = 0.375\nsamples = 4\nvalue = [3, 1]\nclass = Acceptable"] ;
375 -> 376 ;
377 [label="ManualThreads <= 0.5\ngini = 0.5\nsamples = 2\nvalue = [1, 1]\nclass = Acceptable"] ;
376 -> 377 ;
378 [label="gini = 0.0\nsamples = 1\nvalue = [1, 0]\nclass = Acceptable"] ;
377 -> 378 ;
379 [label="gini = 0.0\nsamples = 1\nvalue = [0, 1]\nclass = Non-acceptable"] ;
377 -> 379 ;
380 [label="gini = 0.0\nsamples = 2\nvalue = [2, 0]\nclass = Acceptable"] ;
376 -> 380 ;
381 [label="gini = 0.0\nsamples = 4\nvalue = [0, 4]\nclass = Non-acceptable"] ;
375 -> 381 ;
382 [label="qp <= 0.5\ngini = 0.458\nsamples = 62\nvalue = [40, 22]\nclass = Acceptable"] ;
344 -> 382 ;
383 [label="b_bias <= 17.0\ngini = 0.375\nsamples = 12\nvalue = [9, 3]\nclass = Acceptable"] ;
382 -> 383 ;
384 [label="gini = 0.0\nsamples = 7\nvalue = [7, 0]\nclass = Acceptable"] ;
383 -> 384 ;
385 [label="ipratio <= 1.05\ngini = 0.48\nsamples = 5\nvalue = [2, 3]\nclass = Non-acceptable"] ;
383 -> 385 ;
386 [label="scenecut <= 50.5\ngini = 0.444\nsamples = 3\nvalue = [2, 1]\nclass = Acceptable"] ;
385 -> 386 ;
387 [label="gini = 0.0\nsamples = 2\nvalue = [2, 0]\nclass = Acceptable"] ;
386 -> 387 ;
388 [label="gini = 0.0\nsamples = 1\nvalue = [0, 1]\nclass = Non-acceptable"] ;
386 -> 388 ;
389 [label="gini = 0.0\nsamples = 2\nvalue = [0, 2]\nclass = Non-acceptable"] ;
385 -> 389 ;
390 [label="aq_strength <= 1.05\ngini = 0.471\nsamples = 50\nvalue = [31, 19]\nclass = Acceptable"] ;
382 -> 390 ;
391 [label="no_scenecut <= 0.5\ngini = 0.488\nsamples = 19\nvalue = [11, 8]\nclass = Acceptable"] ;
390 -> 391 ;
392 [label="bframes <= 13.0\ngini = 0.469\nsamples = 16\nvalue = [10, 6]\nclass = Acceptable"] ;
391 -> 392 ;
393 [label="scenecut <= 50.5\ngini = 0.49\nsamples = 7\nvalue = [4, 3]\nclass = Acceptable"] ;
392 -> 393 ;
394 [label="Threads <= 64.5\ngini = 0.444\nsamples = 6\nvalue = [4, 2]\nclass = Acceptable"] ;
393 -> 394 ;
395 [label="b_bias <= 17.0\ngini = 0.5\nsamples = 4\nvalue = [2, 2]\nclass = Acceptable"] ;
394 -> 395 ;
396 [label="ManualThreads <= 0.5\ngini = 0.444\nsamples = 3\nvalue = [2, 1]\nclass = Acceptable"] ;
395 -> 396 ;
397 [label="gini = 0.0\nsamples = 1\nvalue = [1, 0]\nclass = Acceptable"] ;
396 -> 397 ;
398 [label="ipratio <= 1.05\ngini = 0.5\nsamples = 2\nvalue = [1, 1]\nclass = Acceptable"] ;
396 -> 398 ;
399 [label="gini = 0.0\nsamples = 1\nvalue = [1, 0]\nclass = Acceptable"] ;
398 -> 399 ;
400 [label="gini = 0.0\nsamples = 1\nvalue = [0, 1]\nclass = Non-acceptable"] ;
398 -> 400 ;
401 [label="gini = 0.0\nsamples = 1\nvalue = [0, 1]\nclass = Non-acceptable"] ;
395 -> 401 ;
402 [label="gini = 0.0\nsamples = 2\nvalue = [2, 0]\nclass = Acceptable"] ;
394 -> 402 ;
403 [label="gini = 0.0\nsamples = 1\nvalue = [0, 1]\nclass = Non-acceptable"] ;
393 -> 403 ;
404 [label="scenecut <= 50.5\ngini = 0.444\nsamples = 9\nvalue = [6, 3]\nclass = Acceptable"] ;
392 -> 404 ;
405 [label="Threads <= 64.5\ngini = 0.49\nsamples = 7\nvalue = [4, 3]\nclass = Acceptable"] ;
404 -> 405 ;
406 [label="ManualThreads <= 0.5\ngini = 0.444\nsamples = 6\nvalue = [4, 2]\nclass = Acceptable"] ;
405 -> 406 ;
407 [label="b_bias <= 17.0\ngini = 0.5\nsamples = 4\nvalue = [2, 2]\nclass = Acceptable"] ;
406 -> 407 ;
408 [label="ipratio <= 1.05\ngini = 0.444\nsamples = 3\nvalue = [1, 2]\nclass = Non-acceptable"] ;
407 -> 408 ;
409 [label="gini = 0.0\nsamples = 1\nvalue = [0, 1]\nclass = Non-acceptable"] ;
408 -> 409 ;
410 [label="gini = 0.5\nsamples = 2\nvalue = [1, 1]\nclass = Acceptable"] ;
408 -> 410 ;
411 [label="gini = 0.0\nsamples = 1\nvalue = [1, 0]\nclass = Acceptable"] ;
407 -> 411 ;
412 [label="gini = 0.0\nsamples = 2\nvalue = [2, 0]\nclass = Acceptable"] ;
406 -> 412 ;
413 [label="gini = 0.0\nsamples = 1\nvalue = [0, 1]\nclass = Non-acceptable"] ;
405 -> 413 ;
414 [label="gini = 0.0\nsamples = 2\nvalue = [2, 0]\nclass = Acceptable"] ;
404 -> 414 ;
415 [label="ipratio <= 1.05\ngini = 0.444\nsamples = 3\nvalue = [1, 2]\nclass = Non-acceptable"] ;
391 -> 415 ;
416 [label="gini = 0.0\nsamples = 1\nvalue = [1, 0]\nclass = Acceptable"] ;
415 -> 416 ;
417 [label="gini = 0.0\nsamples = 2\nvalue = [0, 2]\nclass = Non-acceptable"] ;
415 -> 417 ;
418 [label="no_scenecut <= 0.5\ngini = 0.458\nsamples = 31\nvalue = [20, 11]\nclass = Acceptable"] ;
390 -> 418 ;
419 [label="scenecut <= 50.5\ngini = 0.471\nsamples = 29\nvalue = [18, 11]\nclass = Acceptable"] ;
418 -> 419 ;
420 [label="bframes <= 13.0\ngini = 0.408\nsamples = 14\nvalue = [10, 4]\nclass = Acceptable"] ;
419 -> 420 ;
421 [label="Threads <= 64.5\ngini = 0.278\nsamples = 6\nvalue = [5, 1]\nclass = Acceptable"] ;
420 -> 421 ;
422 [label="gini = 0.0\nsamples = 4\nvalue = [4, 0]\nclass = Acceptable"] ;
421 -> 422 ;
423 [label="ipratio <= 1.05\ngini = 0.5\nsamples = 2\nvalue = [1, 1]\nclass = Acceptable"] ;
421 -> 423 ;
424 [label="gini = 0.0\nsamples = 1\nvalue = [1, 0]\nclass = Acceptable"] ;
423 -> 424 ;
425 [label="gini = 0.0\nsamples = 1\nvalue = [0, 1]\nclass = Non-acceptable"] ;
423 -> 425 ;
426 [label="Threads <= 64.5\ngini = 0.469\nsamples = 8\nvalue = [5, 3]\nclass = Acceptable"] ;
420 -> 426 ;
427 [label="no_cabac <= 0.5\ngini = 0.5\nsamples = 4\nvalue = [2, 2]\nclass = Acceptable"] ;
426 -> 427 ;
428 [label="ipratio <= 1.05\ngini = 0.444\nsamples = 3\nvalue = [2, 1]\nclass = Acceptable"] ;
427 -> 428 ;
429 [label="gini = 0.0\nsamples = 1\nvalue = [0, 1]\nclass = Non-acceptable"] ;
428 -> 429 ;
430 [label="gini = 0.0\nsamples = 2\nvalue = [2, 0]\nclass = Acceptable"] ;
428 -> 430 ;
431 [label="gini = 0.0\nsamples = 1\nvalue = [0, 1]\nclass = Non-acceptable"] ;
427 -> 431 ;
432 [label="ManualThreads <= 0.5\ngini = 0.375\nsamples = 4\nvalue = [3, 1]\nclass = Acceptable"] ;
426 -> 432 ;
433 [label="gini = 0.0\nsamples = 3\nvalue = [3, 0]\nclass = Acceptable"] ;
432 -> 433 ;
434 [label="gini = 0.0\nsamples = 1\nvalue = [0, 1]\nclass = Non-acceptable"] ;
432 -> 434 ;
435 [label="ipratio <= 1.05\ngini = 0.498\nsamples = 15\nvalue = [8, 7]\nclass = Acceptable"] ;
419 -> 435 ;
436 [label="Threads <= 64.5\ngini = 0.48\nsamples = 5\nvalue = [2, 3]\nclass = Non-acceptable"] ;
435 -> 436 ;
437 [label="b_bias <= 17.0\ngini = 0.444\nsamples = 3\nvalue = [1, 2]\nclass = Non-acceptable"] ;
436 -> 437 ;
438 [label="gini = 0.0\nsamples = 1\nvalue = [0, 1]\nclass = Non-acceptable"] ;
437 -> 438 ;
439 [label="gini = 0.5\nsamples = 2\nvalue = [1, 1]\nclass = Acceptable"] ;
437 -> 439 ;
440 [label="gini = 0.5\nsamples = 2\nvalue = [1, 1]\nclass = Acceptable"] ;
436 -> 440 ;
441 [label="bframes <= 13.0\ngini = 0.48\nsamples = 10\nvalue = [6, 4]\nclass = Acceptable"] ;
435 -> 441 ;
442 [label="ManualThreads <= 0.5\ngini = 0.375\nsamples = 4\nvalue = [3, 1]\nclass = Acceptable"] ;
441 -> 442 ;
443 [label="gini = 0.5\nsamples = 2\nvalue = [1, 1]\nclass = Acceptable"] ;
442 -> 443 ;
444 [label="gini = 0.0\nsamples = 2\nvalue = [2, 0]\nclass = Acceptable"] ;
442 -> 444 ;
445 [label="ManualThreads <= 0.5\ngini = 0.5\nsamples = 6\nvalue = [3, 3]\nclass = Acceptable"] ;
441 -> 445 ;
446 [label="b_bias <= 17.0\ngini = 0.48\nsamples = 5\nvalue = [3, 2]\nclass = Acceptable"] ;
445 -> 446 ;
447 [label="gini = 0.0\nsamples = 2\nvalue = [2, 0]\nclass = Acceptable"] ;
446 -> 447 ;
448 [label="Threads <= 64.5\ngini = 0.444\nsamples = 3\nvalue = [1, 2]\nclass = Non-acceptable"] ;
446 -> 448 ;
449 [label="gini = 0.0\nsamples = 1\nvalue = [0, 1]\nclass = Non-acceptable"] ;
448 -> 449 ;
450 [label="no_cabac <= 0.5\ngini = 0.5\nsamples = 2\nvalue = [1, 1]\nclass = Acceptable"] ;
448 -> 450 ;
451 [label="gini = 0.0\nsamples = 1\nvalue = [1, 0]\nclass = Acceptable"] ;
450 -> 451 ;
452 [label="gini = 0.0\nsamples = 1\nvalue = [0, 1]\nclass = Non-acceptable"] ;
450 -> 452 ;
453 [label="gini = 0.0\nsamples = 1\nvalue = [0, 1]\nclass = Non-acceptable"] ;
445 -> 453 ;
454 [label="gini = 0.0\nsamples = 2\nvalue = [2, 0]\nclass = Acceptable"] ;
418 -> 454 ;
455 [label="ipratio <= 1.05\ngini = 0.426\nsamples = 39\nvalue = [27, 12]\nclass = Acceptable"] ;
243 -> 455 ;
456 [label="aq_strength <= 1.05\ngini = 0.5\nsamples = 16\nvalue = [8, 8]\nclass = Acceptable"] ;
455 -> 456 ;
457 [label="bframes <= 13.0\ngini = 0.346\nsamples = 9\nvalue = [2, 7]\nclass = Non-acceptable"] ;
456 -> 457 ;
458 [label="b_bias <= 17.0\ngini = 0.5\nsamples = 4\nvalue = [2, 2]\nclass = Acceptable"] ;
457 -> 458 ;
459 [label="rc_lookahead <= 125.5\ngini = 0.444\nsamples = 3\nvalue = [2, 1]\nclass = Acceptable"] ;
458 -> 459 ;
460 [label="gini = 0.0\nsamples = 1\nvalue = [1, 0]\nclass = Acceptable"] ;
459 -> 460 ;
461 [label="Threads <= 64.5\ngini = 0.5\nsamples = 2\nvalue = [1, 1]\nclass = Acceptable"] ;
459 -> 461 ;
462 [label="gini = 0.0\nsamples = 1\nvalue = [0, 1]\nclass = Non-acceptable"] ;
461 -> 462 ;
463 [label="gini = 0.0\nsamples = 1\nvalue = [1, 0]\nclass = Acceptable"] ;
461 -> 463 ;
464 [label="gini = 0.0\nsamples = 1\nvalue = [0, 1]\nclass = Non-acceptable"] ;
458 -> 464 ;
465 [label="gini = 0.0\nsamples = 5\nvalue = [0, 5]\nclass = Non-acceptable"] ;
457 -> 465 ;
466 [label="b_bias <= 17.0\ngini = 0.245\nsamples = 7\nvalue = [6, 1]\nclass = Acceptable"] ;
456 -> 466 ;
467 [label="gini = 0.0\nsamples = 4\nvalue = [4, 0]\nclass = Acceptable"] ;
466 -> 467 ;
468 [label="bframes <= 13.0\ngini = 0.444\nsamples = 3\nvalue = [2, 1]\nclass = Acceptable"] ;
466 -> 468 ;
469 [label="gini = 0.0\nsamples = 2\nvalue = [2, 0]\nclass = Acceptable"] ;
468 -> 469 ;
470 [label="gini = 0.0\nsamples = 1\nvalue = [0, 1]\nclass = Non-acceptable"] ;
468 -> 470 ;
471 [label="ref <= 4.5\ngini = 0.287\nsamples = 23\nvalue = [19, 4]\nclass = Acceptable"] ;
455 -> 471 ;
472 [label="scenecut <= 50.5\ngini = 0.42\nsamples = 10\nvalue = [7, 3]\nclass = Acceptable"] ;
471 -> 472 ;
473 [label="aq_strength <= 1.05\ngini = 0.245\nsamples = 7\nvalue = [6, 1]\nclass = Acceptable"] ;
472 -> 473 ;
474 [label="gini = 0.0\nsamples = 4\nvalue = [4, 0]\nclass = Acceptable"] ;
473 -> 474 ;
475 [label="b_bias <= 17.0\ngini = 0.444\nsamples = 3\nvalue = [2, 1]\nclass = Acceptable"] ;
473 -> 475 ;
476 [label="gini = 0.0\nsamples = 1\nvalue = [0, 1]\nclass = Non-acceptable"] ;
475 -> 476 ;
477 [label="gini = 0.0\nsamples = 2\nvalue = [2, 0]\nclass = Acceptable"] ;
475 -> 477 ;
478 [label="bframes <= 13.0\ngini = 0.444\nsamples = 3\nvalue = [1, 2]\nclass = Non-acceptable"] ;
472 -> 478 ;
479 [label="gini = 0.0\nsamples = 2\nvalue = [0, 2]\nclass = Non-acceptable"] ;
478 -> 479 ;
480 [label="gini = 0.0\nsamples = 1\nvalue = [1, 0]\nclass = Acceptable"] ;
478 -> 480 ;
481 [label="b_bias <= 17.0\ngini = 0.142\nsamples = 13\nvalue = [12, 1]\nclass = Acceptable"] ;
471 -> 481 ;
482 [label="gini = 0.0\nsamples = 7\nvalue = [7, 0]\nclass = Acceptable"] ;
481 -> 482 ;
483 [label="rc_lookahead <= 125.5\ngini = 0.278\nsamples = 6\nvalue = [5, 1]\nclass = Acceptable"] ;
481 -> 483 ;
484 [label="gini = 0.0\nsamples = 3\nvalue = [3, 0]\nclass = Acceptable"] ;
483 -> 484 ;
485 [label="scenecut <= 50.5\ngini = 0.444\nsamples = 3\nvalue = [2, 1]\nclass = Acceptable"] ;
483 -> 485 ;
486 [label="Threads <= 64.5\ngini = 0.5\nsamples = 2\nvalue = [1, 1]\nclass = Acceptable"] ;
485 -> 486 ;
487 [label="gini = 0.0\nsamples = 1\nvalue = [0, 1]\nclass = Non-acceptable"] ;
486 -> 487 ;
488 [label="gini = 0.0\nsamples = 1\nvalue = [1, 0]\nclass = Acceptable"] ;
486 -> 488 ;
489 [label="gini = 0.0\nsamples = 1\nvalue = [1, 0]\nclass = Acceptable"] ;
485 -> 489 ;
490 [label="ipratio <= 1.05\ngini = 0.496\nsamples = 214\nvalue = [98, 116]\nclass = Non-acceptable"] ;
242 -> 490 ;
491 [label="Threads <= 64.5\ngini = 0.499\nsamples = 88\nvalue = [46, 42]\nclass = Acceptable"] ;
490 -> 491 ;
492 [label="b_bias <= 17.0\ngini = 0.494\nsamples = 47\nvalue = [21, 26]\nclass = Non-acceptable"] ;
491 -> 492 ;
493 [label="no_scenecut <= 0.5\ngini = 0.455\nsamples = 20\nvalue = [7, 13]\nclass = Non-acceptable"] ;
492 -> 493 ;
494 [label="bframes <= 13.0\ngini = 0.401\nsamples = 18\nvalue = [5, 13]\nclass = Non-acceptable"] ;
493 -> 494 ;
495 [label="qp <= 0.5\ngini = 0.298\nsamples = 11\nvalue = [2, 9]\nclass = Non-acceptable"] ;
494 -> 495 ;
496 [label="ref <= 4.5\ngini = 0.5\nsamples = 2\nvalue = [1, 1]\nclass = Acceptable"] ;
495 -> 496 ;
497 [label="gini = 0.0\nsamples = 1\nvalue = [1, 0]\nclass = Acceptable"] ;
496 -> 497 ;
498 [label="gini = 0.0\nsamples = 1\nvalue = [0, 1]\nclass = Non-acceptable"] ;
496 -> 498 ;
499 [label="no_cabac <= 0.5\ngini = 0.198\nsamples = 9\nvalue = [1, 8]\nclass = Non-acceptable"] ;
495 -> 499 ;
500 [label="gini = 0.0\nsamples = 6\nvalue = [0, 6]\nclass = Non-acceptable"] ;
499 -> 500 ;
501 [label="ref <= 4.5\ngini = 0.444\nsamples = 3\nvalue = [1, 2]\nclass = Non-acceptable"] ;
499 -> 501 ;
502 [label="gini = 0.0\nsamples = 1\nvalue = [0, 1]\nclass = Non-acceptable"] ;
501 -> 502 ;
503 [label="aq_strength <= 1.05\ngini = 0.5\nsamples = 2\nvalue = [1, 1]\nclass = Acceptable"] ;
501 -> 503 ;
504 [label="gini = 0.0\nsamples = 1\nvalue = [1, 0]\nclass = Acceptable"] ;
503 -> 504 ;
505 [label="gini = 0.0\nsamples = 1\nvalue = [0, 1]\nclass = Non-acceptable"] ;
503 -> 505 ;
506 [label="aq_strength <= 1.05\ngini = 0.49\nsamples = 7\nvalue = [3, 4]\nclass = Non-acceptable"] ;
494 -> 506 ;
507 [label="scenecut <= 50.5\ngini = 0.375\nsamples = 4\nvalue = [1, 3]\nclass = Non-acceptable"] ;
506 -> 507 ;
508 [label="gini = 0.0\nsamples = 2\nvalue = [0, 2]\nclass = Non-acceptable"] ;
507 -> 508 ;
509 [label="ref <= 4.5\ngini = 0.5\nsamples = 2\nvalue = [1, 1]\nclass = Acceptable"] ;
507 -> 509 ;
510 [label="gini = 0.0\nsamples = 1\nvalue = [1, 0]\nclass = Acceptable"] ;
509 -> 510 ;
511 [label="gini = 0.0\nsamples = 1\nvalue = [0, 1]\nclass = Non-acceptable"] ;
509 -> 511 ;
512 [label="scenecut <= 50.5\ngini = 0.444\nsamples = 3\nvalue = [2, 1]\nclass = Acceptable"] ;
506 -> 512 ;
513 [label="gini = 0.0\nsamples = 2\nvalue = [2, 0]\nclass = Acceptable"] ;
512 -> 513 ;
514 [label="gini = 0.0\nsamples = 1\nvalue = [0, 1]\nclass = Non-acceptable"] ;
512 -> 514 ;
515 [label="gini = 0.0\nsamples = 2\nvalue = [2, 0]\nclass = Acceptable"] ;
493 -> 515 ;
516 [label="bframes <= 13.0\ngini = 0.499\nsamples = 27\nvalue = [14, 13]\nclass = Acceptable"] ;
492 -> 516 ;
517 [label="qp <= 0.5\ngini = 0.469\nsamples = 16\nvalue = [10, 6]\nclass = Acceptable"] ;
516 -> 517 ;
518 [label="gini = 0.0\nsamples = 2\nvalue = [0, 2]\nclass = Non-acceptable"] ;
517 -> 518 ;
519 [label="ManualThreads <= 0.5\ngini = 0.408\nsamples = 14\nvalue = [10, 4]\nclass = Acceptable"] ;
517 -> 519 ;
520 [label="no_cabac <= 0.5\ngini = 0.463\nsamples = 11\nvalue = [7, 4]\nclass = Acceptable"] ;
519 -> 520 ;
521 [label="ref <= 4.5\ngini = 0.494\nsamples = 9\nvalue = [5, 4]\nclass = Acceptable"] ;
520 -> 521 ;
522 [label="no_asm <= 0.5\ngini = 0.444\nsamples = 6\nvalue = [4, 2]\nclass = Acceptable"] ;
521 -> 522 ;
523 [label="aq_strength <= 1.05\ngini = 0.5\nsamples = 4\nvalue = [2, 2]\nclass = Acceptable"] ;
522 -> 523 ;
524 [label="gini = 0.0\nsamples = 2\nvalue = [2, 0]\nclass = Acceptable"] ;
523 -> 524 ;
525 [label="gini = 0.0\nsamples = 2\nvalue = [0, 2]\nclass = Non-acceptable"] ;
523 -> 525 ;
526 [label="gini = 0.0\nsamples = 2\nvalue = [2, 0]\nclass = Acceptable"] ;
522 -> 526 ;
527 [label="no_asm <= 0.5\ngini = 0.444\nsamples = 3\nvalue = [1, 2]\nclass = Non-acceptable"] ;
521 -> 527 ;
528 [label="gini = 0.0\nsamples = 1\nvalue = [1, 0]\nclass = Acceptable"] ;
527 -> 528 ;
529 [label="gini = 0.0\nsamples = 2\nvalue = [0, 2]\nclass = Non-acceptable"] ;
527 -> 529 ;
530 [label="gini = 0.0\nsamples = 2\nvalue = [2, 0]\nclass = Acceptable"] ;
520 -> 530 ;
531 [label="gini = 0.0\nsamples = 3\nvalue = [3, 0]\nclass = Acceptable"] ;
519 -> 531 ;
532 [label="crf <= 0.5\ngini = 0.463\nsamples = 11\nvalue = [4, 7]\nclass = Non-acceptable"] ;
516 -> 532 ;
533 [label="scenecut <= 50.5\ngini = 0.42\nsamples = 10\nvalue = [3, 7]\nclass = Non-acceptable"] ;
532 -> 533 ;
534 [label="gini = 0.0\nsamples = 2\nvalue = [0, 2]\nclass = Non-acceptable"] ;
533 -> 534 ;
535 [label="no_asm <= 0.5\ngini = 0.469\nsamples = 8\nvalue = [3, 5]\nclass = Non-acceptable"] ;
533 -> 535 ;
536 [label="no_cabac <= 0.5\ngini = 0.408\nsamples = 7\nvalue = [2, 5]\nclass = Non-acceptable"] ;
535 -> 536 ;
537 [label="ManualThreads <= 0.5\ngini = 0.444\nsamples = 6\nvalue = [2, 4]\nclass = Non-acceptable"] ;
536 -> 537 ;
538 [label="no_scenecut <= 0.5\ngini = 0.48\nsamples = 5\nvalue = [2, 3]\nclass = Non-acceptable"] ;
537 -> 538 ;
539 [label="ref <= 4.5\ngini = 0.5\nsamples = 2\nvalue = [1, 1]\nclass = Acceptable"] ;
538 -> 539 ;
540 [label="gini = 0.0\nsamples = 1\nvalue = [1, 0]\nclass = Acceptable"] ;
539 -> 540 ;
541 [label="gini = 0.0\nsamples = 1\nvalue = [0, 1]\nclass = Non-acceptable"] ;
539 -> 541 ;
542 [label="ref <= 4.5\ngini = 0.444\nsamples = 3\nvalue = [1, 2]\nclass = Non-acceptable"] ;
538 -> 542 ;
543 [label="gini = 0.0\nsamples = 2\nvalue = [0, 2]\nclass = Non-acceptable"] ;
542 -> 543 ;
544 [label="gini = 0.0\nsamples = 1\nvalue = [1, 0]\nclass = Acceptable"] ;
542 -> 544 ;
545 [label="gini = 0.0\nsamples = 1\nvalue = [0, 1]\nclass = Non-acceptable"] ;
537 -> 545 ;
546 [label="gini = 0.0\nsamples = 1\nvalue = [0, 1]\nclass = Non-acceptable"] ;
536 -> 546 ;
547 [label="gini = 0.0\nsamples = 1\nvalue = [1, 0]\nclass = Acceptable"] ;
535 -> 547 ;
548 [label="gini = 0.0\nsamples = 1\nvalue = [1, 0]\nclass = Acceptable"] ;
532 -> 548 ;
549 [label="no_asm <= 0.5\ngini = 0.476\nsamples = 41\nvalue = [25, 16]\nclass = Acceptable"] ;
491 -> 549 ;
550 [label="aq_strength <= 1.05\ngini = 0.456\nsamples = 37\nvalue = [24, 13]\nclass = Acceptable"] ;
549 -> 550 ;
551 [label="bframes <= 13.0\ngini = 0.486\nsamples = 24\nvalue = [14, 10]\nclass = Acceptable"] ;
550 -> 551 ;
552 [label="ManualThreads <= 0.5\ngini = 0.496\nsamples = 11\nvalue = [5, 6]\nclass = Non-acceptable"] ;
551 -> 552 ;
553 [label="ref <= 4.5\ngini = 0.408\nsamples = 7\nvalue = [2, 5]\nclass = Non-acceptable"] ;
552 -> 553 ;
554 [label="scenecut <= 50.5\ngini = 0.444\nsamples = 3\nvalue = [2, 1]\nclass = Acceptable"] ;
553 -> 554 ;
555 [label="gini = 0.0\nsamples = 1\nvalue = [0, 1]\nclass = Non-acceptable"] ;
554 -> 555 ;
556 [label="gini = 0.0\nsamples = 2\nvalue = [2, 0]\nclass = Acceptable"] ;
554 -> 556 ;
557 [label="gini = 0.0\nsamples = 4\nvalue = [0, 4]\nclass = Non-acceptable"] ;
553 -> 557 ;
558 [label="ref <= 4.5\ngini = 0.375\nsamples = 4\nvalue = [3, 1]\nclass = Acceptable"] ;
552 -> 558 ;
559 [label="gini = 0.5\nsamples = 2\nvalue = [1, 1]\nclass = Acceptable"] ;
558 -> 559 ;
560 [label="gini = 0.0\nsamples = 2\nvalue = [2, 0]\nclass = Acceptable"] ;
558 -> 560 ;
561 [label="ref <= 4.5\ngini = 0.426\nsamples = 13\nvalue = [9, 4]\nclass = Acceptable"] ;
551 -> 561 ;
562 [label="scenecut <= 50.5\ngini = 0.444\nsamples = 3\nvalue = [1, 2]\nclass = Non-acceptable"] ;
561 -> 562 ;
563 [label="gini = 0.0\nsamples = 2\nvalue = [0, 2]\nclass = Non-acceptable"] ;
562 -> 563 ;
564 [label="gini = 0.0\nsamples = 1\nvalue = [1, 0]\nclass = Acceptable"] ;
562 -> 564 ;
565 [label="scenecut <= 50.5\ngini = 0.32\nsamples = 10\nvalue = [8, 2]\nclass = Acceptable"] ;
561 -> 565 ;
566 [label="gini = 0.0\nsamples = 5\nvalue = [5, 0]\nclass = Acceptable"] ;
565 -> 566 ;
567 [label="crf <= 0.5\ngini = 0.48\nsamples = 5\nvalue = [3, 2]\nclass = Acceptable"] ;
565 -> 567 ;
568 [label="b_bias <= 17.0\ngini = 0.375\nsamples = 4\nvalue = [3, 1]\nclass = Acceptable"] ;
567 -> 568 ;
569 [label="gini = 0.5\nsamples = 2\nvalue = [1, 1]\nclass = Acceptable"] ;
568 -> 569 ;
570 [label="gini = 0.0\nsamples = 2\nvalue = [2, 0]\nclass = Acceptable"] ;
568 -> 570 ;
571 [label="gini = 0.0\nsamples = 1\nvalue = [0, 1]\nclass = Non-acceptable"] ;
567 -> 571 ;
572 [label="ManualThreads <= 0.5\ngini = 0.355\nsamples = 13\nvalue = [10, 3]\nclass = Acceptable"] ;
550 -> 572 ;
573 [label="scenecut <= 50.5\ngini = 0.278\nsamples = 12\nvalue = [10, 2]\nclass = Acceptable"] ;
572 -> 573 ;
574 [label="gini = 0.0\nsamples = 7\nvalue = [7, 0]\nclass = Acceptable"] ;
573 -> 574 ;
575 [label="no_cabac <= 0.5\ngini = 0.48\nsamples = 5\nvalue = [3, 2]\nclass = Acceptable"] ;
573 -> 575 ;
576 [label="ref <= 4.5\ngini = 0.444\nsamples = 3\nvalue = [1, 2]\nclass = Non-acceptable"] ;
575 -> 576 ;
577 [label="gini = 0.0\nsamples = 1\nvalue = [1, 0]\nclass = Acceptable"] ;
576 -> 577 ;
578 [label="gini = 0.0\nsamples = 2\nvalue = [0, 2]\nclass = Non-acceptable"] ;
576 -> 578 ;
579 [label="gini = 0.0\nsamples = 2\nvalue = [2, 0]\nclass = Acceptable"] ;
575 -> 579 ;
580 [label="gini = 0.0\nsamples = 1\nvalue = [0, 1]\nclass = Non-acceptable"] ;
572 -> 580 ;
581 [label="bframes <= 13.0\ngini = 0.375\nsamples = 4\nvalue = [1, 3]\nclass = Non-acceptable"] ;
549 -> 581 ;
582 [label="b_bias <= 17.0\ngini = 0.5\nsamples = 2\nvalue = [1, 1]\nclass = Acceptable"] ;
581 -> 582 ;
583 [label="gini = 0.0\nsamples = 1\nvalue = [0, 1]\nclass = Non-acceptable"] ;
582 -> 583 ;
584 [label="gini = 0.0\nsamples = 1\nvalue = [1, 0]\nclass = Acceptable"] ;
582 -> 584 ;
585 [label="gini = 0.0\nsamples = 2\nvalue = [0, 2]\nclass = Non-acceptable"] ;
581 -> 585 ;
586 [label="bframes <= 13.0\ngini = 0.485\nsamples = 126\nvalue = [52, 74]\nclass = Non-acceptable"] ;
490 -> 586 ;
587 [label="b_bias <= 17.0\ngini = 0.431\nsamples = 54\nvalue = [17, 37]\nclass = Non-acceptable"] ;
586 -> 587 ;
588 [label="scenecut <= 50.5\ngini = 0.493\nsamples = 25\nvalue = [11, 14]\nclass = Non-acceptable"] ;
587 -> 588 ;
589 [label="rc_lookahead <= 125.5\ngini = 0.492\nsamples = 16\nvalue = [9, 7]\nclass = Acceptable"] ;
588 -> 589 ;
590 [label="aq_strength <= 1.05\ngini = 0.49\nsamples = 7\nvalue = [3, 4]\nclass = Non-acceptable"] ;
589 -> 590 ;
591 [label="gini = 0.0\nsamples = 2\nvalue = [2, 0]\nclass = Acceptable"] ;
590 -> 591 ;
592 [label="Threads <= 64.5\ngini = 0.32\nsamples = 5\nvalue = [1, 4]\nclass = Non-acceptable"] ;
590 -> 592 ;
593 [label="gini = 0.0\nsamples = 3\nvalue = [0, 3]\nclass = Non-acceptable"] ;
592 -> 593 ;
594 [label="ref <= 4.5\ngini = 0.5\nsamples = 2\nvalue = [1, 1]\nclass = Acceptable"] ;
592 -> 594 ;
595 [label="gini = 0.0\nsamples = 1\nvalue = [1, 0]\nclass = Acceptable"] ;
594 -> 595 ;
596 [label="gini = 0.0\nsamples = 1\nvalue = [0, 1]\nclass = Non-acceptable"] ;
594 -> 596 ;
597 [label="aq_strength <= 1.05\ngini = 0.444\nsamples = 9\nvalue = [6, 3]\nclass = Acceptable"] ;
589 -> 597 ;
598 [label="ManualThreads <= 0.5\ngini = 0.375\nsamples = 4\nvalue = [1, 3]\nclass = Non-acceptable"] ;
597 -> 598 ;
599 [label="Threads <= 64.5\ngini = 0.5\nsamples = 2\nvalue = [1, 1]\nclass = Acceptable"] ;
598 -> 599 ;
600 [label="gini = 0.0\nsamples = 1\nvalue = [1, 0]\nclass = Acceptable"] ;
599 -> 600 ;
601 [label="gini = 0.0\nsamples = 1\nvalue = [0, 1]\nclass = Non-acceptable"] ;
599 -> 601 ;
602 [label="gini = 0.0\nsamples = 2\nvalue = [0, 2]\nclass = Non-acceptable"] ;
598 -> 602 ;
603 [label="gini = 0.0\nsamples = 5\nvalue = [5, 0]\nclass = Acceptable"] ;
597 -> 603 ;
604 [label="rc_lookahead <= 125.5\ngini = 0.346\nsamples = 9\nvalue = [2, 7]\nclass = Non-acceptable"] ;
588 -> 604 ;
605 [label="no_cabac <= 0.5\ngini = 0.5\nsamples = 4\nvalue = [2, 2]\nclass = Acceptable"] ;
604 -> 605 ;
606 [label="Threads <= 64.5\ngini = 0.444\nsamples = 3\nvalue = [2, 1]\nclass = Acceptable"] ;
605 -> 606 ;
607 [label="gini = 0.0\nsamples = 1\nvalue = [0, 1]\nclass = Non-acceptable"] ;
606 -> 607 ;
608 [label="gini = 0.0\nsamples = 2\nvalue = [2, 0]\nclass = Acceptable"] ;
606 -> 608 ;
609 [label="gini = 0.0\nsamples = 1\nvalue = [0, 1]\nclass = Non-acceptable"] ;
605 -> 609 ;
610 [label="gini = 0.0\nsamples = 5\nvalue = [0, 5]\nclass = Non-acceptable"] ;
604 -> 610 ;
611 [label="no_asm <= 0.5\ngini = 0.328\nsamples = 29\nvalue = [6, 23]\nclass = Non-acceptable"] ;
587 -> 611 ;
612 [label="ManualThreads <= 0.5\ngini = 0.278\nsamples = 24\nvalue = [4, 20]\nclass = Non-acceptable"] ;
611 -> 612 ;
613 [label="scenecut <= 50.5\ngini = 0.32\nsamples = 20\nvalue = [4, 16]\nclass = Non-acceptable"] ;
612 -> 613 ;
614 [label="ref <= 4.5\ngini = 0.26\nsamples = 13\nvalue = [2, 11]\nclass = Non-acceptable"] ;
613 -> 614 ;
615 [label="crf <= 0.5\ngini = 0.346\nsamples = 9\nvalue = [2, 7]\nclass = Non-acceptable"] ;
614 -> 615 ;
616 [label="no_cabac <= 0.5\ngini = 0.375\nsamples = 8\nvalue = [2, 6]\nclass = Non-acceptable"] ;
615 -> 616 ;
617 [label="Threads <= 64.5\ngini = 0.408\nsamples = 7\nvalue = [2, 5]\nclass = Non-acceptable"] ;
616 -> 617 ;
618 [label="aq_strength <= 1.05\ngini = 0.32\nsamples = 5\nvalue = [1, 4]\nclass = Non-acceptable"] ;
617 -> 618 ;
619 [label="rc_lookahead <= 125.5\ngini = 0.444\nsamples = 3\nvalue = [1, 2]\nclass = Non-acceptable"] ;
618 -> 619 ;
620 [label="gini = 0.0\nsamples = 1\nvalue = [0, 1]\nclass = Non-acceptable"] ;
619 -> 620 ;
621 [label="gini = 0.5\nsamples = 2\nvalue = [1, 1]\nclass = Acceptable"] ;
619 -> 621 ;
622 [label="gini = 0.0\nsamples = 2\nvalue = [0, 2]\nclass = Non-acceptable"] ;
618 -> 622 ;
623 [label="no_scenecut <= 0.5\ngini = 0.5\nsamples = 2\nvalue = [1, 1]\nclass = Acceptable"] ;
617 -> 623 ;
624 [label="gini = 0.0\nsamples = 1\nvalue = [1, 0]\nclass = Acceptable"] ;
623 -> 624 ;
625 [label="gini = 0.0\nsamples = 1\nvalue = [0, 1]\nclass = Non-acceptable"] ;
623 -> 625 ;
626 [label="gini = 0.0\nsamples = 1\nvalue = [0, 1]\nclass = Non-acceptable"] ;
616 -> 626 ;
627 [label="gini = 0.0\nsamples = 1\nvalue = [0, 1]\nclass = Non-acceptable"] ;
615 -> 627 ;
628 [label="gini = 0.0\nsamples = 4\nvalue = [0, 4]\nclass = Non-acceptable"] ;
614 -> 628 ;
629 [label="ref <= 4.5\ngini = 0.408\nsamples = 7\nvalue = [2, 5]\nclass = Non-acceptable"] ;
613 -> 629 ;
630 [label="gini = 0.0\nsamples = 3\nvalue = [0, 3]\nclass = Non-acceptable"] ;
629 -> 630 ;
631 [label="Threads <= 64.5\ngini = 0.5\nsamples = 4\nvalue = [2, 2]\nclass = Acceptable"] ;
629 -> 631 ;
632 [label="gini = 0.0\nsamples = 1\nvalue = [0, 1]\nclass = Non-acceptable"] ;
631 -> 632 ;
633 [label="aq_strength <= 1.05\ngini = 0.444\nsamples = 3\nvalue = [2, 1]\nclass = Acceptable"] ;
631 -> 633 ;
634 [label="gini = 0.0\nsamples = 1\nvalue = [0, 1]\nclass = Non-acceptable"] ;
633 -> 634 ;
635 [label="gini = 0.0\nsamples = 2\nvalue = [2, 0]\nclass = Acceptable"] ;
633 -> 635 ;
636 [label="gini = 0.0\nsamples = 4\nvalue = [0, 4]\nclass = Non-acceptable"] ;
612 -> 636 ;
637 [label="ref <= 4.5\ngini = 0.48\nsamples = 5\nvalue = [2, 3]\nclass = Non-acceptable"] ;
611 -> 637 ;
638 [label="Threads <= 64.5\ngini = 0.444\nsamples = 3\nvalue = [2, 1]\nclass = Acceptable"] ;
637 -> 638 ;
639 [label="gini = 0.0\nsamples = 1\nvalue = [1, 0]\nclass = Acceptable"] ;
638 -> 639 ;
640 [label="gini = 0.5\nsamples = 2\nvalue = [1, 1]\nclass = Acceptable"] ;
638 -> 640 ;
641 [label="gini = 0.0\nsamples = 2\nvalue = [0, 2]\nclass = Non-acceptable"] ;
637 -> 641 ;
642 [label="scenecut <= 50.5\ngini = 0.5\nsamples = 72\nvalue = [35, 37]\nclass = Non-acceptable"] ;
586 -> 642 ;
643 [label="no_cabac <= 0.5\ngini = 0.497\nsamples = 41\nvalue = [22, 19]\nclass = Acceptable"] ;
642 -> 643 ;
644 [label="Threads <= 64.5\ngini = 0.49\nsamples = 35\nvalue = [20, 15]\nclass = Acceptable"] ;
643 -> 644 ;
645 [label="aq_strength <= 1.05\ngini = 0.494\nsamples = 18\nvalue = [8, 10]\nclass = Non-acceptable"] ;
644 -> 645 ;
646 [label="rc_lookahead <= 125.5\ngini = 0.444\nsamples = 9\nvalue = [6, 3]\nclass = Acceptable"] ;
645 -> 646 ;
647 [label="no_asm <= 0.5\ngini = 0.32\nsamples = 5\nvalue = [4, 1]\nclass = Acceptable"] ;
646 -> 647 ;
648 [label="gini = 0.0\nsamples = 4\nvalue = [4, 0]\nclass = Acceptable"] ;
647 -> 648 ;
649 [label="gini = 0.0\nsamples = 1\nvalue = [0, 1]\nclass = Non-acceptable"] ;
647 -> 649 ;
650 [label="no_asm <= 0.5\ngini = 0.5\nsamples = 4\nvalue = [2, 2]\nclass = Acceptable"] ;
646 -> 650 ;
651 [label="ManualThreads <= 0.5\ngini = 0.444\nsamples = 3\nvalue = [1, 2]\nclass = Non-acceptable"] ;
650 -> 651 ;
652 [label="b_bias <= 17.0\ngini = 0.5\nsamples = 2\nvalue = [1, 1]\nclass = Acceptable"] ;
651 -> 652 ;
653 [label="gini = 0.0\nsamples = 1\nvalue = [0, 1]\nclass = Non-acceptable"] ;
652 -> 653 ;
654 [label="gini = 0.0\nsamples = 1\nvalue = [1, 0]\nclass = Acceptable"] ;
652 -> 654 ;
655 [label="gini = 0.0\nsamples = 1\nvalue = [0, 1]\nclass = Non-acceptable"] ;
651 -> 655 ;
656 [label="gini = 0.0\nsamples = 1\nvalue = [1, 0]\nclass = Acceptable"] ;
650 -> 656 ;
657 [label="b_bias <= 17.0\ngini = 0.346\nsamples = 9\nvalue = [2, 7]\nclass = Non-acceptable"] ;
645 -> 657 ;
658 [label="crf <= 0.5\ngini = 0.48\nsamples = 5\nvalue = [2, 3]\nclass = Non-acceptable"] ;
657 -> 658 ;
659 [label="ManualThreads <= 0.5\ngini = 0.375\nsamples = 4\nvalue = [1, 3]\nclass = Non-acceptable"] ;
658 -> 659 ;
660 [label="ref <= 4.5\ngini = 0.444\nsamples = 3\nvalue = [1, 2]\nclass = Non-acceptable"] ;
659 -> 660 ;
661 [label="no_asm <= 0.5\ngini = 0.5\nsamples = 2\nvalue = [1, 1]\nclass = Acceptable"] ;
660 -> 661 ;
662 [label="gini = 0.0\nsamples = 1\nvalue = [1, 0]\nclass = Acceptable"] ;
661 -> 662 ;
663 [label="gini = 0.0\nsamples = 1\nvalue = [0, 1]\nclass = Non-acceptable"] ;
661 -> 663 ;
664 [label="gini = 0.0\nsamples = 1\nvalue = [0, 1]\nclass = Non-acceptable"] ;
660 -> 664 ;
665 [label="gini = 0.0\nsamples = 1\nvalue = [0, 1]\nclass = Non-acceptable"] ;
659 -> 665 ;
666 [label="gini = 0.0\nsamples = 1\nvalue = [1, 0]\nclass = Acceptable"] ;
658 -> 666 ;
667 [label="gini = 0.0\nsamples = 4\nvalue = [0, 4]\nclass = Non-acceptable"] ;
657 -> 667 ;
668 [label="no_asm <= 0.5\ngini = 0.415\nsamples = 17\nvalue = [12, 5]\nclass = Acceptable"] ;
644 -> 668 ;
669 [label="b_bias <= 17.0\ngini = 0.444\nsamples = 15\nvalue = [10, 5]\nclass = Acceptable"] ;
668 -> 669 ;
670 [label="qp <= 0.5\ngini = 0.5\nsamples = 4\nvalue = [2, 2]\nclass = Acceptable"] ;
669 -> 670 ;
671 [label="gini = 0.0\nsamples = 1\nvalue = [1, 0]\nclass = Acceptable"] ;
670 -> 671 ;
672 [label="ManualThreads <= 0.5\ngini = 0.444\nsamples = 3\nvalue = [1, 2]\nclass = Non-acceptable"] ;
670 -> 672 ;
673 [label="gini = 0.0\nsamples = 1\nvalue = [0, 1]\nclass = Non-acceptable"] ;
672 -> 673 ;
674 [label="ref <= 4.5\ngini = 0.5\nsamples = 2\nvalue = [1, 1]\nclass = Acceptable"] ;
672 -> 674 ;
675 [label="gini = 0.0\nsamples = 1\nvalue = [0, 1]\nclass = Non-acceptable"] ;
674 -> 675 ;
676 [label="gini = 0.0\nsamples = 1\nvalue = [1, 0]\nclass = Acceptable"] ;
674 -> 676 ;
677 [label="rc_lookahead <= 125.5\ngini = 0.397\nsamples = 11\nvalue = [8, 3]\nclass = Acceptable"] ;
669 -> 677 ;
678 [label="aq_strength <= 1.05\ngini = 0.278\nsamples = 6\nvalue = [5, 1]\nclass = Acceptable"] ;
677 -> 678 ;
679 [label="gini = 0.0\nsamples = 4\nvalue = [4, 0]\nclass = Acceptable"] ;
678 -> 679 ;
680 [label="qp <= 0.5\ngini = 0.5\nsamples = 2\nvalue = [1, 1]\nclass = Acceptable"] ;
678 -> 680 ;
681 [label="gini = 0.0\nsamples = 1\nvalue = [0, 1]\nclass = Non-acceptable"] ;
680 -> 681 ;
682 [label="gini = 0.0\nsamples = 1\nvalue = [1, 0]\nclass = Acceptable"] ;
680 -> 682 ;
683 [label="ref <= 4.5\ngini = 0.48\nsamples = 5\nvalue = [3, 2]\nclass = Acceptable"] ;
677 -> 683 ;
684 [label="gini = 0.0\nsamples = 2\nvalue = [2, 0]\nclass = Acceptable"] ;
683 -> 684 ;
685 [label="ManualThreads <= 0.5\ngini = 0.444\nsamples = 3\nvalue = [1, 2]\nclass = Non-acceptable"] ;
683 -> 685 ;
686 [label="gini = 0.0\nsamples = 2\nvalue = [0, 2]\nclass = Non-acceptable"] ;
685 -> 686 ;
687 [label="gini = 0.0\nsamples = 1\nvalue = [1, 0]\nclass = Acceptable"] ;
685 -> 687 ;
688 [label="gini = 0.0\nsamples = 2\nvalue = [2, 0]\nclass = Acceptable"] ;
668 -> 688 ;
689 [label="ref <= 4.5\ngini = 0.444\nsamples = 6\nvalue = [2, 4]\nclass = Non-acceptable"] ;
643 -> 689 ;
690 [label="Threads <= 64.5\ngini = 0.444\nsamples = 3\nvalue = [2, 1]\nclass = Acceptable"] ;
689 -> 690 ;
691 [label="gini = 0.0\nsamples = 2\nvalue = [2, 0]\nclass = Acceptable"] ;
690 -> 691 ;
692 [label="gini = 0.0\nsamples = 1\nvalue = [0, 1]\nclass = Non-acceptable"] ;
690 -> 692 ;
693 [label="gini = 0.0\nsamples = 3\nvalue = [0, 3]\nclass = Non-acceptable"] ;
689 -> 693 ;
694 [label="aq_strength <= 1.05\ngini = 0.487\nsamples = 31\nvalue = [13, 18]\nclass = Non-acceptable"] ;
642 -> 694 ;
695 [label="no_cabac <= 0.5\ngini = 0.43\nsamples = 16\nvalue = [5, 11]\nclass = Non-acceptable"] ;
694 -> 695 ;
696 [label="no_asm <= 0.5\ngini = 0.337\nsamples = 14\nvalue = [3, 11]\nclass = Non-acceptable"] ;
695 -> 696 ;
697 [label="no_scenecut <= 0.5\ngini = 0.397\nsamples = 11\nvalue = [3, 8]\nclass = Non-acceptable"] ;
696 -> 697 ;
698 [label="ManualThreads <= 0.5\ngini = 0.444\nsamples = 9\nvalue = [3, 6]\nclass = Non-acceptable"] ;
697 -> 698 ;
699 [label="crf <= 0.5\ngini = 0.49\nsamples = 7\nvalue = [3, 4]\nclass = Non-acceptable"] ;
698 -> 699 ;
700 [label="rc_lookahead <= 125.5\ngini = 0.5\nsamples = 4\nvalue = [2, 2]\nclass = Acceptable"] ;
699 -> 700 ;
701 [label="Threads <= 64.5\ngini = 0.444\nsamples = 3\nvalue = [1, 2]\nclass = Non-acceptable"] ;
700 -> 701 ;
702 [label="gini = 0.0\nsamples = 1\nvalue = [0, 1]\nclass = Non-acceptable"] ;
701 -> 702 ;
703 [label="ref <= 4.5\ngini = 0.5\nsamples = 2\nvalue = [1, 1]\nclass = Acceptable"] ;
701 -> 703 ;
704 [label="gini = 0.0\nsamples = 1\nvalue = [0, 1]\nclass = Non-acceptable"] ;
703 -> 704 ;
705 [label="gini = 0.0\nsamples = 1\nvalue = [1, 0]\nclass = Acceptable"] ;
703 -> 705 ;
706 [label="gini = 0.0\nsamples = 1\nvalue = [1, 0]\nclass = Acceptable"] ;
700 -> 706 ;
707 [label="rc_lookahead <= 125.5\ngini = 0.444\nsamples = 3\nvalue = [1, 2]\nclass = Non-acceptable"] ;
699 -> 707 ;
708 [label="gini = 0.5\nsamples = 2\nvalue = [1, 1]\nclass = Acceptable"] ;
707 -> 708 ;
709 [label="gini = 0.0\nsamples = 1\nvalue = [0, 1]\nclass = Non-acceptable"] ;
707 -> 709 ;
710 [label="gini = 0.0\nsamples = 2\nvalue = [0, 2]\nclass = Non-acceptable"] ;
698 -> 710 ;
711 [label="gini = 0.0\nsamples = 2\nvalue = [0, 2]\nclass = Non-acceptable"] ;
697 -> 711 ;
712 [label="gini = 0.0\nsamples = 3\nvalue = [0, 3]\nclass = Non-acceptable"] ;
696 -> 712 ;
713 [label="gini = 0.0\nsamples = 2\nvalue = [2, 0]\nclass = Acceptable"] ;
695 -> 713 ;
714 [label="no_scenecut <= 0.5\ngini = 0.498\nsamples = 15\nvalue = [8, 7]\nclass = Acceptable"] ;
694 -> 714 ;
715 [label="Threads <= 64.5\ngini = 0.497\nsamples = 13\nvalue = [6, 7]\nclass = Non-acceptable"] ;
714 -> 715 ;
716 [label="no_asm <= 0.5\ngini = 0.278\nsamples = 6\nvalue = [1, 5]\nclass = Non-acceptable"] ;
715 -> 716 ;
717 [label="gini = 0.0\nsamples = 4\nvalue = [0, 4]\nclass = Non-acceptable"] ;
716 -> 717 ;
718 [label="ref <= 4.5\ngini = 0.5\nsamples = 2\nvalue = [1, 1]\nclass = Acceptable"] ;
716 -> 718 ;
719 [label="gini = 0.0\nsamples = 1\nvalue = [1, 0]\nclass = Acceptable"] ;
718 -> 719 ;
720 [label="gini = 0.0\nsamples = 1\nvalue = [0, 1]\nclass = Non-acceptable"] ;
718 -> 720 ;
721 [label="no_asm <= 0.5\ngini = 0.408\nsamples = 7\nvalue = [5, 2]\nclass = Acceptable"] ;
715 -> 721 ;
722 [label="gini = 0.0\nsamples = 3\nvalue = [3, 0]\nclass = Acceptable"] ;
721 -> 722 ;
723 [label="b_bias <= 17.0\ngini = 0.5\nsamples = 4\nvalue = [2, 2]\nclass = Acceptable"] ;
721 -> 723 ;
724 [label="ref <= 4.5\ngini = 0.444\nsamples = 3\nvalue = [1, 2]\nclass = Non-acceptable"] ;
723 -> 724 ;
725 [label="gini = 0.5\nsamples = 2\nvalue = [1, 1]\nclass = Acceptable"] ;
724 -> 725 ;
726 [label="gini = 0.0\nsamples = 1\nvalue = [0, 1]\nclass = Non-acceptable"] ;
724 -> 726 ;
727 [label="gini = 0.0\nsamples = 1\nvalue = [1, 0]\nclass = Acceptable"] ;
723 -> 727 ;
728 [label="gini = 0.0\nsamples = 2\nvalue = [2, 0]\nclass = Acceptable"] ;
714 -> 728 ;
729 [label="no_cabac <= 0.5\ngini = 0.493\nsamples = 405\nvalue = [226, 179]\nclass = Acceptable"] ;
241 -> 729 ;
730 [label="ManualThreads <= 0.5\ngini = 0.497\nsamples = 330\nvalue = [178, 152]\nclass = Acceptable"] ;
729 -> 730 ;
731 [label="bframes <= 13.0\ngini = 0.495\nsamples = 265\nvalue = [146, 119]\nclass = Acceptable"] ;
730 -> 731 ;
732 [label="rc_lookahead <= 125.5\ngini = 0.5\nsamples = 139\nvalue = [70, 69]\nclass = Acceptable"] ;
731 -> 732 ;
733 [label="ref <= 4.5\ngini = 0.484\nsamples = 61\nvalue = [25, 36]\nclass = Non-acceptable"] ;
732 -> 733 ;
734 [label="no_scenecut <= 0.5\ngini = 0.494\nsamples = 27\nvalue = [15, 12]\nclass = Acceptable"] ;
733 -> 734 ;
735 [label="scenecut <= 50.5\ngini = 0.43\nsamples = 16\nvalue = [11, 5]\nclass = Acceptable"] ;
734 -> 735 ;
736 [label="aq_strength <= 1.05\ngini = 0.375\nsamples = 4\nvalue = [1, 3]\nclass = Non-acceptable"] ;
735 -> 736 ;
737 [label="gini = 0.0\nsamples = 1\nvalue = [1, 0]\nclass = Acceptable"] ;
736 -> 737 ;
738 [label="gini = 0.0\nsamples = 3\nvalue = [0, 3]\nclass = Non-acceptable"] ;
736 -> 738 ;
739 [label="no_asm <= 0.5\ngini = 0.278\nsamples = 12\nvalue = [10, 2]\nclass = Acceptable"] ;
735 -> 739 ;
740 [label="gini = 0.0\nsamples = 7\nvalue = [7, 0]\nclass = Acceptable"] ;
739 -> 740 ;
741 [label="ipratio <= 1.05\ngini = 0.48\nsamples = 5\nvalue = [3, 2]\nclass = Acceptable"] ;
739 -> 741 ;
742 [label="b_bias <= 17.0\ngini = 0.444\nsamples = 3\nvalue = [1, 2]\nclass = Non-acceptable"] ;
741 -> 742 ;
743 [label="aq_strength <= 1.05\ngini = 0.5\nsamples = 2\nvalue = [1, 1]\nclass = Acceptable"] ;
742 -> 743 ;
744 [label="gini = 0.0\nsamples = 1\nvalue = [0, 1]\nclass = Non-acceptable"] ;
743 -> 744 ;
745 [label="gini = 0.0\nsamples = 1\nvalue = [1, 0]\nclass = Acceptable"] ;
743 -> 745 ;
746 [label="gini = 0.0\nsamples = 1\nvalue = [0, 1]\nclass = Non-acceptable"] ;
742 -> 746 ;
747 [label="gini = 0.0\nsamples = 2\nvalue = [2, 0]\nclass = Acceptable"] ;
741 -> 747 ;
748 [label="scenecut <= 50.5\ngini = 0.463\nsamples = 11\nvalue = [4, 7]\nclass = Non-acceptable"] ;
734 -> 748 ;
749 [label="keyint <= 500.5\ngini = 0.5\nsamples = 6\nvalue = [3, 3]\nclass = Acceptable"] ;
748 -> 749 ;
750 [label="gini = 0.0\nsamples = 2\nvalue = [2, 0]\nclass = Acceptable"] ;
749 -> 750 ;
751 [label="Threads <= 64.5\ngini = 0.375\nsamples = 4\nvalue = [1, 3]\nclass = Non-acceptable"] ;
749 -> 751 ;
752 [label="gini = 0.0\nsamples = 1\nvalue = [0, 1]\nclass = Non-acceptable"] ;
751 -> 752 ;
753 [label="aq_strength <= 1.05\ngini = 0.444\nsamples = 3\nvalue = [1, 2]\nclass = Non-acceptable"] ;
751 -> 753 ;
754 [label="b_bias <= 17.0\ngini = 0.5\nsamples = 2\nvalue = [1, 1]\nclass = Acceptable"] ;
753 -> 754 ;
755 [label="gini = 0.0\nsamples = 1\nvalue = [0, 1]\nclass = Non-acceptable"] ;
754 -> 755 ;
756 [label="gini = 0.0\nsamples = 1\nvalue = [1, 0]\nclass = Acceptable"] ;
754 -> 756 ;
757 [label="gini = 0.0\nsamples = 1\nvalue = [0, 1]\nclass = Non-acceptable"] ;
753 -> 757 ;
758 [label="keyint <= 500.5\ngini = 0.32\nsamples = 5\nvalue = [1, 4]\nclass = Non-acceptable"] ;
748 -> 758 ;
759 [label="gini = 0.0\nsamples = 4\nvalue = [0, 4]\nclass = Non-acceptable"] ;
758 -> 759 ;
760 [label="gini = 0.0\nsamples = 1\nvalue = [1, 0]\nclass = Acceptable"] ;
758 -> 760 ;
761 [label="Threads <= 64.5\ngini = 0.415\nsamples = 34\nvalue = [10, 24]\nclass = Non-acceptable"] ;
733 -> 761 ;
762 [label="aq_strength <= 1.05\ngini = 0.305\nsamples = 16\nvalue = [3, 13]\nclass = Non-acceptable"] ;
761 -> 762 ;
763 [label="ipratio <= 1.05\ngini = 0.42\nsamples = 10\nvalue = [3, 7]\nclass = Non-acceptable"] ;
762 -> 763 ;
764 [label="keyint <= 500.5\ngini = 0.5\nsamples = 4\nvalue = [2, 2]\nclass = Acceptable"] ;
763 -> 764 ;
765 [label="gini = 0.0\nsamples = 2\nvalue = [0, 2]\nclass = Non-acceptable"] ;
764 -> 765 ;
766 [label="gini = 0.0\nsamples = 2\nvalue = [2, 0]\nclass = Acceptable"] ;
764 -> 766 ;
767 [label="keyint <= 500.5\ngini = 0.278\nsamples = 6\nvalue = [1, 5]\nclass = Non-acceptable"] ;
763 -> 767 ;
768 [label="b_bias <= 17.0\ngini = 0.444\nsamples = 3\nvalue = [1, 2]\nclass = Non-acceptable"] ;
767 -> 768 ;
769 [label="gini = 0.5\nsamples = 2\nvalue = [1, 1]\nclass = Acceptable"] ;
768 -> 769 ;
770 [label="gini = 0.0\nsamples = 1\nvalue = [0, 1]\nclass = Non-acceptable"] ;
768 -> 770 ;
771 [label="gini = 0.0\nsamples = 3\nvalue = [0, 3]\nclass = Non-acceptable"] ;
767 -> 771 ;
772 [label="gini = 0.0\nsamples = 6\nvalue = [0, 6]\nclass = Non-acceptable"] ;
762 -> 772 ;
773 [label="no_asm <= 0.5\ngini = 0.475\nsamples = 18\nvalue = [7, 11]\nclass = Non-acceptable"] ;
761 -> 773 ;
774 [label="scenecut <= 50.5\ngini = 0.408\nsamples = 14\nvalue = [4, 10]\nclass = Non-acceptable"] ;
773 -> 774 ;
775 [label="gini = 0.0\nsamples = 5\nvalue = [0, 5]\nclass = Non-acceptable"] ;
774 -> 775 ;
776 [label="ipratio <= 1.05\ngini = 0.494\nsamples = 9\nvalue = [4, 5]\nclass = Non-acceptable"] ;
774 -> 776 ;
777 [label="keyint <= 500.5\ngini = 0.375\nsamples = 4\nvalue = [3, 1]\nclass = Acceptable"] ;
776 -> 777 ;
778 [label="no_scenecut <= 0.5\ngini = 0.5\nsamples = 2\nvalue = [1, 1]\nclass = Acceptable"] ;
777 -> 778 ;
779 [label="gini = 0.0\nsamples = 1\nvalue = [0, 1]\nclass = Non-acceptable"] ;
778 -> 779 ;
780 [label="gini = 0.0\nsamples = 1\nvalue = [1, 0]\nclass = Acceptable"] ;
778 -> 780 ;
781 [label="gini = 0.0\nsamples = 2\nvalue = [2, 0]\nclass = Acceptable"] ;
777 -> 781 ;
782 [label="keyint <= 500.5\ngini = 0.32\nsamples = 5\nvalue = [1, 4]\nclass = Non-acceptable"] ;
776 -> 782 ;
783 [label="gini = 0.0\nsamples = 2\nvalue = [0, 2]\nclass = Non-acceptable"] ;
782 -> 783 ;
784 [label="aq_strength <= 1.05\ngini = 0.444\nsamples = 3\nvalue = [1, 2]\nclass = Non-acceptable"] ;
782 -> 784 ;
785 [label="gini = 0.0\nsamples = 1\nvalue = [0, 1]\nclass = Non-acceptable"] ;
784 -> 785 ;
786 [label="no_scenecut <= 0.5\ngini = 0.5\nsamples = 2\nvalue = [1, 1]\nclass = Acceptable"] ;
784 -> 786 ;
787 [label="gini = 0.0\nsamples = 1\nvalue = [1, 0]\nclass = Acceptable"] ;
786 -> 787 ;
788 [label="gini = 0.0\nsamples = 1\nvalue = [0, 1]\nclass = Non-acceptable"] ;
786 -> 788 ;
789 [label="ipratio <= 1.05\ngini = 0.375\nsamples = 4\nvalue = [3, 1]\nclass = Acceptable"] ;
773 -> 789 ;
790 [label="b_bias <= 17.0\ngini = 0.5\nsamples = 2\nvalue = [1, 1]\nclass = Acceptable"] ;
789 -> 790 ;
791 [label="gini = 0.0\nsamples = 1\nvalue = [0, 1]\nclass = Non-acceptable"] ;
790 -> 791 ;
792 [label="gini = 0.0\nsamples = 1\nvalue = [1, 0]\nclass = Acceptable"] ;
790 -> 792 ;
793 [label="gini = 0.0\nsamples = 2\nvalue = [2, 0]\nclass = Acceptable"] ;
789 -> 793 ;
794 [label="ref <= 4.5\ngini = 0.488\nsamples = 78\nvalue = [45, 33]\nclass = Acceptable"] ;
732 -> 794 ;
795 [label="Threads <= 64.5\ngini = 0.5\nsamples = 43\nvalue = [22, 21]\nclass = Acceptable"] ;
794 -> 795 ;
796 [label="ipratio <= 1.05\ngini = 0.483\nsamples = 22\nvalue = [9, 13]\nclass = Non-acceptable"] ;
795 -> 796 ;
797 [label="no_asm <= 0.5\ngini = 0.496\nsamples = 11\nvalue = [6, 5]\nclass = Acceptable"] ;
796 -> 797 ;
798 [label="no_scenecut <= 0.5\ngini = 0.469\nsamples = 8\nvalue = [3, 5]\nclass = Non-acceptable"] ;
797 -> 798 ;
799 [label="scenecut <= 50.5\ngini = 0.32\nsamples = 5\nvalue = [1, 4]\nclass = Non-acceptable"] ;
798 -> 799 ;
800 [label="gini = 0.0\nsamples = 2\nvalue = [0, 2]\nclass = Non-acceptable"] ;
799 -> 800 ;
801 [label="keyint <= 500.5\ngini = 0.444\nsamples = 3\nvalue = [1, 2]\nclass = Non-acceptable"] ;
799 -> 801 ;
802 [label="gini = 0.0\nsamples = 1\nvalue = [1, 0]\nclass = Acceptable"] ;
801 -> 802 ;
803 [label="gini = 0.0\nsamples = 2\nvalue = [0, 2]\nclass = Non-acceptable"] ;
801 -> 803 ;
804 [label="aq_strength <= 1.05\ngini = 0.444\nsamples = 3\nvalue = [2, 1]\nclass = Acceptable"] ;
798 -> 804 ;
805 [label="gini = 0.0\nsamples = 2\nvalue = [2, 0]\nclass = Acceptable"] ;
804 -> 805 ;
806 [label="gini = 0.0\nsamples = 1\nvalue = [0, 1]\nclass = Non-acceptable"] ;
804 -> 806 ;
807 [label="gini = 0.0\nsamples = 3\nvalue = [3, 0]\nclass = Acceptable"] ;
797 -> 807 ;
808 [label="aq_strength <= 1.05\ngini = 0.397\nsamples = 11\nvalue = [3, 8]\nclass = Non-acceptable"] ;
796 -> 808 ;
809 [label="qp <= 0.5\ngini = 0.245\nsamples = 7\nvalue = [1, 6]\nclass = Non-acceptable"] ;
808 -> 809 ;
810 [label="keyint <= 500.5\ngini = 0.5\nsamples = 2\nvalue = [1, 1]\nclass = Acceptable"] ;
809 -> 810 ;
811 [label="gini = 0.0\nsamples = 1\nvalue = [0, 1]\nclass = Non-acceptable"] ;
810 -> 811 ;
812 [label="gini = 0.0\nsamples = 1\nvalue = [1, 0]\nclass = Acceptable"] ;
810 -> 812 ;
813 [label="gini = 0.0\nsamples = 5\nvalue = [0, 5]\nclass = Non-acceptable"] ;
809 -> 813 ;
814 [label="scenecut <= 50.5\ngini = 0.5\nsamples = 4\nvalue = [2, 2]\nclass = Acceptable"] ;
808 -> 814 ;
815 [label="gini = 0.0\nsamples = 2\nvalue = [2, 0]\nclass = Acceptable"] ;
814 -> 815 ;
816 [label="gini = 0.0\nsamples = 2\nvalue = [0, 2]\nclass = Non-acceptable"] ;
814 -> 816 ;
817 [label="scenecut <= 50.5\ngini = 0.472\nsamples = 21\nvalue = [13, 8]\nclass = Acceptable"] ;
795 -> 817 ;
818 [label="b_bias <= 17.0\ngini = 0.496\nsamples = 11\nvalue = [5, 6]\nclass = Non-acceptable"] ;
817 -> 818 ;
819 [label="aq_strength <= 1.05\ngini = 0.444\nsamples = 3\nvalue = [1, 2]\nclass = Non-acceptable"] ;
818 -> 819 ;
820 [label="gini = 0.0\nsamples = 1\nvalue = [0, 1]\nclass = Non-acceptable"] ;
819 -> 820 ;
821 [label="no_scenecut <= 0.5\ngini = 0.5\nsamples = 2\nvalue = [1, 1]\nclass = Acceptable"] ;
819 -> 821 ;
822 [label="gini = 0.0\nsamples = 1\nvalue = [1, 0]\nclass = Acceptable"] ;
821 -> 822 ;
823 [label="gini = 0.0\nsamples = 1\nvalue = [0, 1]\nclass = Non-acceptable"] ;
821 -> 823 ;
824 [label="no_scenecut <= 0.5\ngini = 0.5\nsamples = 8\nvalue = [4, 4]\nclass = Acceptable"] ;
818 -> 824 ;
825 [label="aq_strength <= 1.05\ngini = 0.48\nsamples = 5\nvalue = [2, 3]\nclass = Non-acceptable"] ;
824 -> 825 ;
826 [label="ipratio <= 1.05\ngini = 0.5\nsamples = 4\nvalue = [2, 2]\nclass = Acceptable"] ;
825 -> 826 ;
827 [label="gini = 0.0\nsamples = 1\nvalue = [0, 1]\nclass = Non-acceptable"] ;
826 -> 827 ;
828 [label="crf <= 0.5\ngini = 0.444\nsamples = 3\nvalue = [2, 1]\nclass = Acceptable"] ;
826 -> 828 ;
829 [label="gini = 0.0\nsamples = 1\nvalue = [1, 0]\nclass = Acceptable"] ;
828 -> 829 ;
830 [label="gini = 0.5\nsamples = 2\nvalue = [1, 1]\nclass = Acceptable"] ;
828 -> 830 ;
831 [label="gini = 0.0\nsamples = 1\nvalue = [0, 1]\nclass = Non-acceptable"] ;
825 -> 831 ;
832 [label="ipratio <= 1.05\ngini = 0.444\nsamples = 3\nvalue = [2, 1]\nclass = Acceptable"] ;
824 -> 832 ;
833 [label="gini = 0.0\nsamples = 2\nvalue = [2, 0]\nclass = Acceptable"] ;
832 -> 833 ;
834 [label="gini = 0.0\nsamples = 1\nvalue = [0, 1]\nclass = Non-acceptable"] ;
832 -> 834 ;
835 [label="b_bias <= 17.0\ngini = 0.32\nsamples = 10\nvalue = [8, 2]\nclass = Acceptable"] ;
817 -> 835 ;
836 [label="qp <= 0.5\ngini = 0.5\nsamples = 4\nvalue = [2, 2]\nclass = Acceptable"] ;
835 -> 836 ;
837 [label="gini = 0.0\nsamples = 1\nvalue = [1, 0]\nclass = Acceptable"] ;
836 -> 837 ;
838 [label="keyint <= 500.5\ngini = 0.444\nsamples = 3\nvalue = [1, 2]\nclass = Non-acceptable"] ;
836 -> 838 ;
839 [label="gini = 0.0\nsamples = 2\nvalue = [0, 2]\nclass = Non-acceptable"] ;
838 -> 839 ;
840 [label="gini = 0.0\nsamples = 1\nvalue = [1, 0]\nclass = Acceptable"] ;
838 -> 840 ;
841 [label="gini = 0.0\nsamples = 6\nvalue = [6, 0]\nclass = Acceptable"] ;
835 -> 841 ;
842 [label="aq_strength <= 1.05\ngini = 0.451\nsamples = 35\nvalue = [23, 12]\nclass = Acceptable"] ;
794 -> 842 ;
843 [label="keyint <= 500.5\ngini = 0.278\nsamples = 18\nvalue = [15, 3]\nclass = Acceptable"] ;
842 -> 843 ;
844 [label="gini = 0.0\nsamples = 8\nvalue = [8, 0]\nclass = Acceptable"] ;
843 -> 844 ;
845 [label="scenecut <= 50.5\ngini = 0.42\nsamples = 10\nvalue = [7, 3]\nclass = Acceptable"] ;
843 -> 845 ;
846 [label="crf <= 0.5\ngini = 0.5\nsamples = 6\nvalue = [3, 3]\nclass = Acceptable"] ;
845 -> 846 ;
847 [label="Threads <= 64.5\ngini = 0.375\nsamples = 4\nvalue = [3, 1]\nclass = Acceptable"] ;
846 -> 847 ;
848 [label="gini = 0.0\nsamples = 2\nvalue = [2, 0]\nclass = Acceptable"] ;
847 -> 848 ;
849 [label="no_scenecut <= 0.5\ngini = 0.5\nsamples = 2\nvalue = [1, 1]\nclass = Acceptable"] ;
847 -> 849 ;
850 [label="gini = 0.0\nsamples = 1\nvalue = [1, 0]\nclass = Acceptable"] ;
849 -> 850 ;
851 [label="gini = 0.0\nsamples = 1\nvalue = [0, 1]\nclass = Non-acceptable"] ;
849 -> 851 ;
852 [label="gini = 0.0\nsamples = 2\nvalue = [0, 2]\nclass = Non-acceptable"] ;
846 -> 852 ;
853 [label="gini = 0.0\nsamples = 4\nvalue = [4, 0]\nclass = Acceptable"] ;
845 -> 853 ;
854 [label="b_bias <= 17.0\ngini = 0.498\nsamples = 17\nvalue = [8, 9]\nclass = Non-acceptable"] ;
842 -> 854 ;
855 [label="no_scenecut <= 0.5\ngini = 0.375\nsamples = 8\nvalue = [6, 2]\nclass = Acceptable"] ;
854 -> 855 ;
856 [label="gini = 0.0\nsamples = 5\nvalue = [5, 0]\nclass = Acceptable"] ;
855 -> 856 ;
857 [label="ipratio <= 1.05\ngini = 0.444\nsamples = 3\nvalue = [1, 2]\nclass = Non-acceptable"] ;
855 -> 857 ;
858 [label="gini = 0.0\nsamples = 1\nvalue = [0, 1]\nclass = Non-acceptable"] ;
857 -> 858 ;
859 [label="gini = 0.5\nsamples = 2\nvalue = [1, 1]\nclass = Acceptable"] ;
857 -> 859 ;
860 [label="no_asm <= 0.5\ngini = 0.346\nsamples = 9\nvalue = [2, 7]\nclass = Non-acceptable"] ;
854 -> 860 ;
861 [label="keyint <= 500.5\ngini = 0.444\nsamples = 6\nvalue = [2, 4]\nclass = Non-acceptable"] ;
860 -> 861 ;
862 [label="ipratio <= 1.05\ngini = 0.32\nsamples = 5\nvalue = [1, 4]\nclass = Non-acceptable"] ;
861 -> 862 ;
863 [label="scenecut <= 50.5\ngini = 0.444\nsamples = 3\nvalue = [1, 2]\nclass = Non-acceptable"] ;
862 -> 863 ;
864 [label="no_scenecut <= 0.5\ngini = 0.5\nsamples = 2\nvalue = [1, 1]\nclass = Acceptable"] ;
863 -> 864 ;
865 [label="gini = 0.0\nsamples = 1\nvalue = [1, 0]\nclass = Acceptable"] ;
864 -> 865 ;
866 [label="gini = 0.0\nsamples = 1\nvalue = [0, 1]\nclass = Non-acceptable"] ;
864 -> 866 ;
867 [label="gini = 0.0\nsamples = 1\nvalue = [0, 1]\nclass = Non-acceptable"] ;
863 -> 867 ;
868 [label="gini = 0.0\nsamples = 2\nvalue = [0, 2]\nclass = Non-acceptable"] ;
862 -> 868 ;
869 [label="gini = 0.0\nsamples = 1\nvalue = [1, 0]\nclass = Acceptable"] ;
861 -> 869 ;
870 [label="gini = 0.0\nsamples = 3\nvalue = [0, 3]\nclass = Non-acceptable"] ;
860 -> 870 ;
871 [label="qp <= 0.5\ngini = 0.479\nsamples = 126\nvalue = [76, 50]\nclass = Acceptable"] ;
731 -> 871 ;
872 [label="keyint <= 500.5\ngini = 0.5\nsamples = 35\nvalue = [17, 18]\nclass = Non-acceptable"] ;
871 -> 872 ;
873 [label="ipratio <= 1.05\ngini = 0.475\nsamples = 18\nvalue = [7, 11]\nclass = Non-acceptable"] ;
872 -> 873 ;
874 [label="ref <= 4.5\ngini = 0.346\nsamples = 9\nvalue = [2, 7]\nclass = Non-acceptable"] ;
873 -> 874 ;
875 [label="b_bias <= 17.0\ngini = 0.48\nsamples = 5\nvalue = [2, 3]\nclass = Non-acceptable"] ;
874 -> 875 ;
876 [label="gini = 0.0\nsamples = 2\nvalue = [0, 2]\nclass = Non-acceptable"] ;
875 -> 876 ;
877 [label="Threads <= 64.5\ngini = 0.444\nsamples = 3\nvalue = [2, 1]\nclass = Acceptable"] ;
875 -> 877 ;
878 [label="gini = 0.0\nsamples = 2\nvalue = [2, 0]\nclass = Acceptable"] ;
877 -> 878 ;
879 [label="gini = 0.0\nsamples = 1\nvalue = [0, 1]\nclass = Non-acceptable"] ;
877 -> 879 ;
880 [label="gini = 0.0\nsamples = 4\nvalue = [0, 4]\nclass = Non-acceptable"] ;
874 -> 880 ;
881 [label="rc_lookahead <= 125.5\ngini = 0.494\nsamples = 9\nvalue = [5, 4]\nclass = Acceptable"] ;
873 -> 881 ;
882 [label="scenecut <= 50.5\ngini = 0.444\nsamples = 6\nvalue = [2, 4]\nclass = Non-acceptable"] ;
881 -> 882 ;
883 [label="b_bias <= 17.0\ngini = 0.444\nsamples = 3\nvalue = [2, 1]\nclass = Acceptable"] ;
882 -> 883 ;
884 [label="gini = 0.0\nsamples = 1\nvalue = [0, 1]\nclass = Non-acceptable"] ;
883 -> 884 ;
885 [label="gini = 0.0\nsamples = 2\nvalue = [2, 0]\nclass = Acceptable"] ;
883 -> 885 ;
886 [label="gini = 0.0\nsamples = 3\nvalue = [0, 3]\nclass = Non-acceptable"] ;
882 -> 886 ;
887 [label="gini = 0.0\nsamples = 3\nvalue = [3, 0]\nclass = Acceptable"] ;
881 -> 887 ;
888 [label="aq_strength <= 1.05\ngini = 0.484\nsamples = 17\nvalue = [10, 7]\nclass = Acceptable"] ;
872 -> 888 ;
889 [label="b_bias <= 17.0\ngini = 0.444\nsamples = 6\nvalue = [2, 4]\nclass = Non-acceptable"] ;
888 -> 889 ;
890 [label="ref <= 4.5\ngini = 0.444\nsamples = 3\nvalue = [2, 1]\nclass = Acceptable"] ;
889 -> 890 ;
891 [label="gini = 0.0\nsamples = 1\nvalue = [1, 0]\nclass = Acceptable"] ;
890 -> 891 ;
892 [label="scenecut <= 50.5\ngini = 0.5\nsamples = 2\nvalue = [1, 1]\nclass = Acceptable"] ;
890 -> 892 ;
893 [label="gini = 0.0\nsamples = 1\nvalue = [0, 1]\nclass = Non-acceptable"] ;
892 -> 893 ;
894 [label="gini = 0.0\nsamples = 1\nvalue = [1, 0]\nclass = Acceptable"] ;
892 -> 894 ;
895 [label="gini = 0.0\nsamples = 3\nvalue = [0, 3]\nclass = Non-acceptable"] ;
889 -> 895 ;
896 [label="Threads <= 64.5\ngini = 0.397\nsamples = 11\nvalue = [8, 3]\nclass = Acceptable"] ;
888 -> 896 ;
897 [label="gini = 0.0\nsamples = 3\nvalue = [3, 0]\nclass = Acceptable"] ;
896 -> 897 ;
898 [label="b_bias <= 17.0\ngini = 0.469\nsamples = 8\nvalue = [5, 3]\nclass = Acceptable"] ;
896 -> 898 ;
899 [label="scenecut <= 50.5\ngini = 0.444\nsamples = 3\nvalue = [1, 2]\nclass = Non-acceptable"] ;
898 -> 899 ;
900 [label="gini = 0.0\nsamples = 2\nvalue = [0, 2]\nclass = Non-acceptable"] ;
899 -> 900 ;
901 [label="gini = 0.0\nsamples = 1\nvalue = [1, 0]\nclass = Acceptable"] ;
899 -> 901 ;
902 [label="rc_lookahead <= 125.5\ngini = 0.32\nsamples = 5\nvalue = [4, 1]\nclass = Acceptable"] ;
898 -> 902 ;
903 [label="ipratio <= 1.05\ngini = 0.444\nsamples = 3\nvalue = [2, 1]\nclass = Acceptable"] ;
902 -> 903 ;
904 [label="gini = 0.0\nsamples = 1\nvalue = [1, 0]\nclass = Acceptable"] ;
903 -> 904 ;
905 [label="ref <= 4.5\ngini = 0.5\nsamples = 2\nvalue = [1, 1]\nclass = Acceptable"] ;
903 -> 905 ;
906 [label="gini = 0.0\nsamples = 1\nvalue = [1, 0]\nclass = Acceptable"] ;
905 -> 906 ;
907 [label="gini = 0.0\nsamples = 1\nvalue = [0, 1]\nclass = Non-acceptable"] ;
905 -> 907 ;
908 [label="gini = 0.0\nsamples = 2\nvalue = [2, 0]\nclass = Acceptable"] ;
902 -> 908 ;
909 [label="Threads <= 64.5\ngini = 0.456\nsamples = 91\nvalue = [59, 32]\nclass = Acceptable"] ;
871 -> 909 ;
910 [label="aq_strength <= 1.05\ngini = 0.408\nsamples = 42\nvalue = [30, 12]\nclass = Acceptable"] ;
909 -> 910 ;
911 [label="ipratio <= 1.05\ngini = 0.298\nsamples = 22\nvalue = [18, 4]\nclass = Acceptable"] ;
910 -> 911 ;
912 [label="no_scenecut <= 0.5\ngini = 0.444\nsamples = 9\nvalue = [6, 3]\nclass = Acceptable"] ;
911 -> 912 ;
913 [label="ref <= 4.5\ngini = 0.5\nsamples = 6\nvalue = [3, 3]\nclass = Acceptable"] ;
912 -> 913 ;
914 [label="gini = 0.0\nsamples = 2\nvalue = [0, 2]\nclass = Non-acceptable"] ;
913 -> 914 ;
915 [label="rc_lookahead <= 125.5\ngini = 0.375\nsamples = 4\nvalue = [3, 1]\nclass = Acceptable"] ;
913 -> 915 ;
916 [label="gini = 0.0\nsamples = 2\nvalue = [2, 0]\nclass = Acceptable"] ;
915 -> 916 ;
917 [label="gini = 0.5\nsamples = 2\nvalue = [1, 1]\nclass = Acceptable"] ;
915 -> 917 ;
918 [label="gini = 0.0\nsamples = 3\nvalue = [3, 0]\nclass = Acceptable"] ;
912 -> 918 ;
919 [label="keyint <= 500.5\ngini = 0.142\nsamples = 13\nvalue = [12, 1]\nclass = Acceptable"] ;
911 -> 919 ;
920 [label="gini = 0.0\nsamples = 11\nvalue = [11, 0]\nclass = Acceptable"] ;
919 -> 920 ;
921 [label="b_bias <= 17.0\ngini = 0.5\nsamples = 2\nvalue = [1, 1]\nclass = Acceptable"] ;
919 -> 921 ;
922 [label="gini = 0.0\nsamples = 1\nvalue = [0, 1]\nclass = Non-acceptable"] ;
921 -> 922 ;
923 [label="gini = 0.0\nsamples = 1\nvalue = [1, 0]\nclass = Acceptable"] ;
921 -> 923 ;
924 [label="ipratio <= 1.05\ngini = 0.48\nsamples = 20\nvalue = [12, 8]\nclass = Acceptable"] ;
910 -> 924 ;
925 [label="no_asm <= 0.5\ngini = 0.245\nsamples = 7\nvalue = [6, 1]\nclass = Acceptable"] ;
924 -> 925 ;
926 [label="gini = 0.0\nsamples = 5\nvalue = [5, 0]\nclass = Acceptable"] ;
925 -> 926 ;
927 [label="ref <= 4.5\ngini = 0.5\nsamples = 2\nvalue = [1, 1]\nclass = Acceptable"] ;
925 -> 927 ;
928 [label="gini = 0.0\nsamples = 1\nvalue = [1, 0]\nclass = Acceptable"] ;
927 -> 928 ;
929 [label="gini = 0.0\nsamples = 1\nvalue = [0, 1]\nclass = Non-acceptable"] ;
927 -> 929 ;
930 [label="no_asm <= 0.5\ngini = 0.497\nsamples = 13\nvalue = [6, 7]\nclass = Non-acceptable"] ;
924 -> 930 ;
931 [label="no_scenecut <= 0.5\ngini = 0.496\nsamples = 11\nvalue = [6, 5]\nclass = Acceptable"] ;
930 -> 931 ;
932 [label="scenecut <= 50.5\ngini = 0.32\nsamples = 5\nvalue = [4, 1]\nclass = Acceptable"] ;
931 -> 932 ;
933 [label="gini = 0.0\nsamples = 1\nvalue = [0, 1]\nclass = Non-acceptable"] ;
932 -> 933 ;
934 [label="gini = 0.0\nsamples = 4\nvalue = [4, 0]\nclass = Acceptable"] ;
932 -> 934 ;
935 [label="b_bias <= 17.0\ngini = 0.444\nsamples = 6\nvalue = [2, 4]\nclass = Non-acceptable"] ;
931 -> 935 ;
936 [label="gini = 0.0\nsamples = 2\nvalue = [0, 2]\nclass = Non-acceptable"] ;
935 -> 936 ;
937 [label="ref <= 4.5\ngini = 0.5\nsamples = 4\nvalue = [2, 2]\nclass = Acceptable"] ;
935 -> 937 ;
938 [label="gini = 0.0\nsamples = 1\nvalue = [1, 0]\nclass = Acceptable"] ;
937 -> 938 ;
939 [label="rc_lookahead <= 125.5\ngini = 0.444\nsamples = 3\nvalue = [1, 2]\nclass = Non-acceptable"] ;
937 -> 939 ;
940 [label="gini = 0.0\nsamples = 1\nvalue = [0, 1]\nclass = Non-acceptable"] ;
939 -> 940 ;
941 [label="keyint <= 500.5\ngini = 0.5\nsamples = 2\nvalue = [1, 1]\nclass = Acceptable"] ;
939 -> 941 ;
942 [label="gini = 0.0\nsamples = 1\nvalue = [1, 0]\nclass = Acceptable"] ;
941 -> 942 ;
943 [label="gini = 0.0\nsamples = 1\nvalue = [0, 1]\nclass = Non-acceptable"] ;
941 -> 943 ;
944 [label="gini = 0.0\nsamples = 2\nvalue = [0, 2]\nclass = Non-acceptable"] ;
930 -> 944 ;
945 [label="b_bias <= 17.0\ngini = 0.483\nsamples = 49\nvalue = [29, 20]\nclass = Acceptable"] ;
909 -> 945 ;
946 [label="ipratio <= 1.05\ngini = 0.435\nsamples = 25\nvalue = [17, 8]\nclass = Acceptable"] ;
945 -> 946 ;
947 [label="ref <= 4.5\ngini = 0.298\nsamples = 11\nvalue = [9, 2]\nclass = Acceptable"] ;
946 -> 947 ;
948 [label="gini = 0.0\nsamples = 5\nvalue = [5, 0]\nclass = Acceptable"] ;
947 -> 948 ;
949 [label="scenecut <= 50.5\ngini = 0.444\nsamples = 6\nvalue = [4, 2]\nclass = Acceptable"] ;
947 -> 949 ;
950 [label="gini = 0.0\nsamples = 4\nvalue = [4, 0]\nclass = Acceptable"] ;
949 -> 950 ;
951 [label="gini = 0.0\nsamples = 2\nvalue = [0, 2]\nclass = Non-acceptable"] ;
949 -> 951 ;
952 [label="aq_strength <= 1.05\ngini = 0.49\nsamples = 14\nvalue = [8, 6]\nclass = Acceptable"] ;
946 -> 952 ;
953 [label="ref <= 4.5\ngini = 0.49\nsamples = 7\nvalue = [3, 4]\nclass = Non-acceptable"] ;
952 -> 953 ;
954 [label="gini = 0.0\nsamples = 2\nvalue = [0, 2]\nclass = Non-acceptable"] ;
953 -> 954 ;
955 [label="no_scenecut <= 0.5\ngini = 0.48\nsamples = 5\nvalue = [3, 2]\nclass = Acceptable"] ;
953 -> 955 ;
956 [label="gini = 0.0\nsamples = 2\nvalue = [0, 2]\nclass = Non-acceptable"] ;
955 -> 956 ;
957 [label="gini = 0.0\nsamples = 3\nvalue = [3, 0]\nclass = Acceptable"] ;
955 -> 957 ;
958 [label="scenecut <= 50.5\ngini = 0.408\nsamples = 7\nvalue = [5, 2]\nclass = Acceptable"] ;
952 -> 958 ;
959 [label="gini = 0.0\nsamples = 3\nvalue = [3, 0]\nclass = Acceptable"] ;
958 -> 959 ;
960 [label="no_scenecut <= 0.5\ngini = 0.5\nsamples = 4\nvalue = [2, 2]\nclass = Acceptable"] ;
958 -> 960 ;
961 [label="gini = 0.0\nsamples = 1\nvalue = [0, 1]\nclass = Non-acceptable"] ;
960 -> 961 ;
962 [label="rc_lookahead <= 125.5\ngini = 0.444\nsamples = 3\nvalue = [2, 1]\nclass = Acceptable"] ;
960 -> 962 ;
963 [label="keyint <= 500.5\ngini = 0.5\nsamples = 2\nvalue = [1, 1]\nclass = Acceptable"] ;
962 -> 963 ;
964 [label="gini = 0.0\nsamples = 1\nvalue = [1, 0]\nclass = Acceptable"] ;
963 -> 964 ;
965 [label="gini = 0.0\nsamples = 1\nvalue = [0, 1]\nclass = Non-acceptable"] ;
963 -> 965 ;
966 [label="gini = 0.0\nsamples = 1\nvalue = [1, 0]\nclass = Acceptable"] ;
962 -> 966 ;
967 [label="no_asm <= 0.5\ngini = 0.5\nsamples = 24\nvalue = [12, 12]\nclass = Acceptable"] ;
945 -> 967 ;
968 [label="no_scenecut <= 0.5\ngini = 0.475\nsamples = 18\nvalue = [7, 11]\nclass = Non-acceptable"] ;
967 -> 968 ;
969 [label="ipratio <= 1.05\ngini = 0.496\nsamples = 11\nvalue = [5, 6]\nclass = Non-acceptable"] ;
968 -> 969 ;
970 [label="aq_strength <= 1.05\ngini = 0.444\nsamples = 6\nvalue = [2, 4]\nclass = Non-acceptable"] ;
969 -> 970 ;
971 [label="gini = 0.0\nsamples = 3\nvalue = [0, 3]\nclass = Non-acceptable"] ;
970 -> 971 ;
972 [label="keyint <= 500.5\ngini = 0.444\nsamples = 3\nvalue = [2, 1]\nclass = Acceptable"] ;
970 -> 972 ;
973 [label="gini = 0.5\nsamples = 2\nvalue = [1, 1]\nclass = Acceptable"] ;
972 -> 973 ;
974 [label="gini = 0.0\nsamples = 1\nvalue = [1, 0]\nclass = Acceptable"] ;
972 -> 974 ;
975 [label="keyint <= 500.5\ngini = 0.48\nsamples = 5\nvalue = [3, 2]\nclass = Acceptable"] ;
969 -> 975 ;
976 [label="aq_strength <= 1.05\ngini = 0.5\nsamples = 4\nvalue = [2, 2]\nclass = Acceptable"] ;
975 -> 976 ;
977 [label="scenecut <= 50.5\ngini = 0.444\nsamples = 3\nvalue = [2, 1]\nclass = Acceptable"] ;
976 -> 977 ;
978 [label="gini = 0.0\nsamples = 1\nvalue = [1, 0]\nclass = Acceptable"] ;
977 -> 978 ;
979 [label="ref <= 4.5\ngini = 0.5\nsamples = 2\nvalue = [1, 1]\nclass = Acceptable"] ;
977 -> 979 ;
980 [label="gini = 0.0\nsamples = 1\nvalue = [1, 0]\nclass = Acceptable"] ;
979 -> 980 ;
981 [label="gini = 0.0\nsamples = 1\nvalue = [0, 1]\nclass = Non-acceptable"] ;
979 -> 981 ;
982 [label="gini = 0.0\nsamples = 1\nvalue = [0, 1]\nclass = Non-acceptable"] ;
976 -> 982 ;
983 [label="gini = 0.0\nsamples = 1\nvalue = [1, 0]\nclass = Acceptable"] ;
975 -> 983 ;
984 [label="rc_lookahead <= 125.5\ngini = 0.408\nsamples = 7\nvalue = [2, 5]\nclass = Non-acceptable"] ;
968 -> 984 ;
985 [label="gini = 0.0\nsamples = 3\nvalue = [0, 3]\nclass = Non-acceptable"] ;
984 -> 985 ;
986 [label="ipratio <= 1.05\ngini = 0.5\nsamples = 4\nvalue = [2, 2]\nclass = Acceptable"] ;
984 -> 986 ;
987 [label="scenecut <= 50.5\ngini = 0.444\nsamples = 3\nvalue = [2, 1]\nclass = Acceptable"] ;
986 -> 987 ;
988 [label="gini = 0.0\nsamples = 2\nvalue = [2, 0]\nclass = Acceptable"] ;
987 -> 988 ;
989 [label="gini = 0.0\nsamples = 1\nvalue = [0, 1]\nclass = Non-acceptable"] ;
987 -> 989 ;
990 [label="gini = 0.0\nsamples = 1\nvalue = [0, 1]\nclass = Non-acceptable"] ;
986 -> 990 ;
991 [label="scenecut <= 50.5\ngini = 0.278\nsamples = 6\nvalue = [5, 1]\nclass = Acceptable"] ;
967 -> 991 ;
992 [label="gini = 0.0\nsamples = 5\nvalue = [5, 0]\nclass = Acceptable"] ;
991 -> 992 ;
993 [label="gini = 0.0\nsamples = 1\nvalue = [0, 1]\nclass = Non-acceptable"] ;
991 -> 993 ;
994 [label="bframes <= 13.0\ngini = 0.5\nsamples = 65\nvalue = [32, 33]\nclass = Non-acceptable"] ;
730 -> 994 ;
