digraph Tree {
node [shape=box] ;
0 [label="crfRatio <= 27.55\ngini = 0.472\nsamples = 5000\nvalue = [3093, 1907]\nclass = Acceptable"] ;
1 [label="crfRatio <= 23.2\ngini = 0.446\nsamples = 2872\nvalue = [965, 1907]\nclass = Non-acceptable"] ;
0 -> 1 [labeldistance=2.5, labelangle=45, headlabel="True"] ;
2 [label="qcomp <= 1.05\ngini = 0.025\nsamples = 706\nvalue = [9, 697]\nclass = Non-acceptable"] ;
1 -> 2 ;
3 [label="crfRatio <= 22.1\ngini = 0.02\nsamples = 702\nvalue = [7, 695]\nclass = Non-acceptable"] ;
2 -> 3 ;
4 [label="crfRatio <= 19.05\ngini = 0.171\nsamples = 53\nvalue = [5, 48]\nclass = Non-acceptable"] ;
3 -> 4 ;
5 [label="qpSetting <= 35.5\ngini = 0.111\nsamples = 51\nvalue = [3, 48]\nclass = Non-acceptable"] ;
4 -> 5 ;
6 [label="gini = 0.0\nsamples = 39\nvalue = [0, 39]\nclass = Non-acceptable"] ;
5 -> 6 ;
7 [label="qpSetting <= 42.5\ngini = 0.375\nsamples = 12\nvalue = [3, 9]\nclass = Non-acceptable"] ;
5 -> 7 ;
8 [label="no_mbtree <= 0.5\ngini = 0.48\nsamples = 5\nvalue = [3, 2]\nclass = Acceptable"] ;
7 -> 8 ;
9 [label="gini = 0.0\nsamples = 3\nvalue = [3, 0]\nclass = Acceptable"] ;
8 -> 9 ;
10 [label="gini = 0.0\nsamples = 2\nvalue = [0, 2]\nclass = Non-acceptable"] ;
8 -> 10 ;
11 [label="gini = 0.0\nsamples = 7\nvalue = [0, 7]\nclass = Non-acceptable"] ;
7 -> 11 ;
12 [label="gini = 0.0\nsamples = 2\nvalue = [2, 0]\nclass = Acceptable"] ;
4 -> 12 ;
13 [label="rc_lookahead <= 20.5\ngini = 0.006\nsamples = 649\nvalue = [2, 647]\nclass = Non-acceptable"] ;
3 -> 13 ;
14 [label="qcomp <= 0.3\ngini = 0.073\nsamples = 53\nvalue = [2, 51]\nclass = Non-acceptable"] ;
13 -> 14 ;
15 [label="gini = 0.0\nsamples = 2\nvalue = [2, 0]\nclass = Acceptable"] ;
14 -> 15 ;
16 [label="gini = 0.0\nsamples = 51\nvalue = [0, 51]\nclass = Non-acceptable"] ;
14 -> 16 ;
17 [label="gini = 0.0\nsamples = 596\nvalue = [0, 596]\nclass = Non-acceptable"] ;
13 -> 17 ;
18 [label="rc_lookahead <= 150.5\ngini = 0.5\nsamples = 4\nvalue = [2, 2]\nclass = Acceptable"] ;
2 -> 18 ;
19 [label="gini = 0.0\nsamples = 2\nvalue = [2, 0]\nclass = Acceptable"] ;
18 -> 19 ;
20 [label="gini = 0.0\nsamples = 2\nvalue = [0, 2]\nclass = Non-acceptable"] ;
18 -> 20 ;
21 [label="no_mbtree <= 0.5\ngini = 0.493\nsamples = 2166\nvalue = [956, 1210]\nclass = Non-acceptable"] ;
1 -> 21 ;
22 [label="no_asm <= 0.5\ngini = 0.5\nsamples = 1853\nvalue = [917, 936]\nclass = Non-acceptable"] ;
21 -> 22 ;
23 [label="crfRatio <= 25.0\ngini = 0.5\nsamples = 1541\nvalue = [750, 791]\nclass = Non-acceptable"] ;
22 -> 23 ;
24 [label="ManualThreads <= 0.5\ngini = 0.5\nsamples = 1505\nvalue = [740, 765]\nclass = Non-acceptable"] ;
23 -> 24 ;
25 [label="ref <= 3.5\ngini = 0.499\nsamples = 1192\nvalue = [576, 616]\nclass = Non-acceptable"] ;
24 -> 25 ;
26 [label="ipratio <= 1.05\ngini = 0.498\nsamples = 617\nvalue = [289, 328]\nclass = Non-acceptable"] ;
25 -> 26 ;
27 [label="qpSetting <= 25.5\ngini = 0.493\nsamples = 317\nvalue = [140, 177]\nclass = Non-acceptable"] ;
26 -> 27 ;
28 [label="scenecut <= 50.5\ngini = 0.479\nsamples = 164\nvalue = [65, 99]\nclass = Non-acceptable"] ;
27 -> 28 ;
29 [label="keyint <= 500.5\ngini = 0.494\nsamples = 83\nvalue = [37, 46]\nclass = Non-acceptable"] ;
28 -> 29 ;
30 [label="Threads <= 64.5\ngini = 0.494\nsamples = 47\nvalue = [26, 21]\nclass = Acceptable"] ;
29 -> 30 ;
31 [label="bframes <= 13.0\ngini = 0.423\nsamples = 23\nvalue = [16, 7]\nclass = Acceptable"] ;
30 -> 31 ;
32 [label="qcomp <= 0.6\ngini = 0.486\nsamples = 12\nvalue = [7, 5]\nclass = Acceptable"] ;
31 -> 32 ;
33 [label="no_cabac <= 0.5\ngini = 0.245\nsamples = 7\nvalue = [6, 1]\nclass = Acceptable"] ;
32 -> 33 ;
34 [label="gini = 0.0\nsamples = 5\nvalue = [5, 0]\nclass = Acceptable"] ;
33 -> 34 ;
35 [label="b_bias <= 17.0\ngini = 0.5\nsamples = 2\nvalue = [1, 1]\nclass = Acceptable"] ;
33 -> 35 ;
36 [label="gini = 0.0\nsamples = 1\nvalue = [0, 1]\nclass = Non-acceptable"] ;
35 -> 36 ;
37 [label="gini = 0.0\nsamples = 1\nvalue = [1, 0]\nclass = Acceptable"] ;
35 -> 37 ;
38 [label="no_scenecut <= 0.5\ngini = 0.32\nsamples = 5\nvalue = [1, 4]\nclass = Non-acceptable"] ;
32 -> 38 ;
39 [label="gini = 0.0\nsamples = 3\nvalue = [0, 3]\nclass = Non-acceptable"] ;
38 -> 39 ;
40 [label="b_bias <= 17.0\ngini = 0.5\nsamples = 2\nvalue = [1, 1]\nclass = Acceptable"] ;
38 -> 40 ;
41 [label="gini = 0.0\nsamples = 1\nvalue = [1, 0]\nclass = Acceptable"] ;
40 -> 41 ;
42 [label="gini = 0.0\nsamples = 1\nvalue = [0, 1]\nclass = Non-acceptable"] ;
40 -> 42 ;
43 [label="crf <= 0.5\ngini = 0.298\nsamples = 11\nvalue = [9, 2]\nclass = Acceptable"] ;
31 -> 43 ;
44 [label="rc_lookahead <= 125.5\ngini = 0.198\nsamples = 9\nvalue = [8, 1]\nclass = Acceptable"] ;
43 -> 44 ;
45 [label="no_scenecut <= 0.5\ngini = 0.444\nsamples = 3\nvalue = [2, 1]\nclass = Acceptable"] ;
44 -> 45 ;
46 [label="gini = 0.0\nsamples = 2\nvalue = [2, 0]\nclass = Acceptable"] ;
45 -> 46 ;
47 [label="gini = 0.0\nsamples = 1\nvalue = [0, 1]\nclass = Non-acceptable"] ;
45 -> 47 ;
48 [label="gini = 0.0\nsamples = 6\nvalue = [6, 0]\nclass = Acceptable"] ;
44 -> 48 ;
49 [label="aq_strength <= 1.05\ngini = 0.5\nsamples = 2\nvalue = [1, 1]\nclass = Acceptable"] ;
43 -> 49 ;
50 [label="gini = 0.0\nsamples = 1\nvalue = [0, 1]\nclass = Non-acceptable"] ;
49 -> 50 ;
51 [label="gini = 0.0\nsamples = 1\nvalue = [1, 0]\nclass = Acceptable"] ;
49 -> 51 ;
52 [label="no_scenecut <= 0.5\ngini = 0.486\nsamples = 24\nvalue = [10, 14]\nclass = Non-acceptable"] ;
30 -> 52 ;
53 [label="aq_strength <= 1.05\ngini = 0.432\nsamples = 19\nvalue = [6, 13]\nclass = Non-acceptable"] ;
52 -> 53 ;
54 [label="rc_lookahead <= 125.5\ngini = 0.5\nsamples = 10\nvalue = [5, 5]\nclass = Acceptable"] ;
53 -> 54 ;
55 [label="qcomp <= 0.6\ngini = 0.278\nsamples = 6\nvalue = [1, 5]\nclass = Non-acceptable"] ;
54 -> 55 ;
56 [label="gini = 0.0\nsamples = 3\nvalue = [0, 3]\nclass = Non-acceptable"] ;
55 -> 56 ;
57 [label="crf <= 0.5\ngini = 0.444\nsamples = 3\nvalue = [1, 2]\nclass = Non-acceptable"] ;
55 -> 57 ;
58 [label="no_cabac <= 0.5\ngini = 0.5\nsamples = 2\nvalue = [1, 1]\nclass = Acceptable"] ;
57 -> 58 ;
59 [label="gini = 0.0\nsamples = 1\nvalue = [1, 0]\nclass = Acceptable"] ;
58 -> 59 ;
60 [label="gini = 0.0\nsamples = 1\nvalue = [0, 1]\nclass = Non-acceptable"] ;
58 -> 60 ;
61 [label="gini = 0.0\nsamples = 1\nvalue = [0, 1]\nclass = Non-acceptable"] ;
57 -> 61 ;
62 [label="gini = 0.0\nsamples = 4\nvalue = [4, 0]\nclass = Acceptable"] ;
54 -> 62 ;
63 [label="b_bias <= 17.0\ngini = 0.198\nsamples = 9\nvalue = [1, 8]\nclass = Non-acceptable"] ;
53 -> 63 ;
64 [label="gini = 0.0\nsamples = 6\nvalue = [0, 6]\nclass = Non-acceptable"] ;
63 -> 64 ;
65 [label="qcomp <= 0.6\ngini = 0.444\nsamples = 3\nvalue = [1, 2]\nclass = Non-acceptable"] ;
63 -> 65 ;
66 [label="gini = 0.0\nsamples = 2\nvalue = [0, 2]\nclass = Non-acceptable"] ;
65 -> 66 ;
67 [label="gini = 0.0\nsamples = 1\nvalue = [1, 0]\nclass = Acceptable"] ;
65 -> 67 ;
68 [label="aq_strength <= 1.05\ngini = 0.32\nsamples = 5\nvalue = [4, 1]\nclass = Acceptable"] ;
52 -> 68 ;
69 [label="b_bias <= 17.0\ngini = 0.5\nsamples = 2\nvalue = [1, 1]\nclass = Acceptable"] ;
68 -> 69 ;
70 [label="gini = 0.0\nsamples = 1\nvalue = [1, 0]\nclass = Acceptable"] ;
69 -> 70 ;
71 [label="gini = 0.0\nsamples = 1\nvalue = [0, 1]\nclass = Non-acceptable"] ;
69 -> 71 ;
72 [label="gini = 0.0\nsamples = 3\nvalue = [3, 0]\nclass = Acceptable"] ;
68 -> 72 ;
73 [label="b_bias <= 17.0\ngini = 0.424\nsamples = 36\nvalue = [11, 25]\nclass = Non-acceptable"] ;
29 -> 73 ;
74 [label="no_cabac <= 0.5\ngini = 0.488\nsamples = 19\nvalue = [8, 11]\nclass = Non-acceptable"] ;
73 -> 74 ;
75 [label="rc_lookahead <= 125.5\ngini = 0.426\nsamples = 13\nvalue = [4, 9]\nclass = Non-acceptable"] ;
74 -> 75 ;
76 [label="bframes <= 13.0\ngini = 0.278\nsamples = 6\nvalue = [1, 5]\nclass = Non-acceptable"] ;
75 -> 76 ;
77 [label="qp <= 0.5\ngini = 0.5\nsamples = 2\nvalue = [1, 1]\nclass = Acceptable"] ;
76 -> 77 ;
78 [label="gini = 0.0\nsamples = 1\nvalue = [1, 0]\nclass = Acceptable"] ;
77 -> 78 ;
79 [label="gini = 0.0\nsamples = 1\nvalue = [0, 1]\nclass = Non-acceptable"] ;
77 -> 79 ;
80 [label="gini = 0.0\nsamples = 4\nvalue = [0, 4]\nclass = Non-acceptable"] ;
76 -> 80 ;
81 [label="qcomp <= 0.6\ngini = 0.49\nsamples = 7\nvalue = [3, 4]\nclass = Non-acceptable"] ;
75 -> 81 ;
82 [label="no_scenecut <= 0.5\ngini = 0.444\nsamples = 3\nvalue = [1, 2]\nclass = Non-acceptable"] ;
81 -> 82 ;
83 [label="bframes <= 13.0\ngini = 0.5\nsamples = 2\nvalue = [1, 1]\nclass = Acceptable"] ;
82 -> 83 ;
84 [label="gini = 0.0\nsamples = 1\nvalue = [0, 1]\nclass = Non-acceptable"] ;
83 -> 84 ;
85 [label="gini = 0.0\nsamples = 1\nvalue = [1, 0]\nclass = Acceptable"] ;
83 -> 85 ;
86 [label="gini = 0.0\nsamples = 1\nvalue = [0, 1]\nclass = Non-acceptable"] ;
82 -> 86 ;
87 [label="no_scenecut <= 0.5\ngini = 0.5\nsamples = 4\nvalue = [2, 2]\nclass = Acceptable"] ;
81 -> 87 ;
88 [label="aq_strength <= 1.05\ngini = 0.444\nsamples = 3\nvalue = [1, 2]\nclass = Non-acceptable"] ;
87 -> 88 ;
89 [label="gini = 0.5\nsamples = 2\nvalue = [1, 1]\nclass = Acceptable"] ;
88 -> 89 ;
90 [label="gini = 0.0\nsamples = 1\nvalue = [0, 1]\nclass = Non-acceptable"] ;
88 -> 90 ;
91 [label="gini = 0.0\nsamples = 1\nvalue = [1, 0]\nclass = Acceptable"] ;
87 -> 91 ;
92 [label="Threads <= 64.5\ngini = 0.444\nsamples = 6\nvalue = [4, 2]\nclass = Acceptable"] ;
74 -> 92 ;
93 [label="aq_strength <= 1.05\ngini = 0.32\nsamples = 5\nvalue = [4, 1]\nclass = Acceptable"] ;
92 -> 93 ;
94 [label="gini = 0.0\nsamples = 2\nvalue = [2, 0]\nclass = Acceptable"] ;
93 -> 94 ;
95 [label="rc_lookahead <= 125.5\ngini = 0.444\nsamples = 3\nvalue = [2, 1]\nclass = Acceptable"] ;
93 -> 95 ;
96 [label="gini = 0.0\nsamples = 2\nvalue = [2, 0]\nclass = Acceptable"] ;
95 -> 96 ;
97 [label="gini = 0.0\nsamples = 1\nvalue = [0, 1]\nclass = Non-acceptable"] ;
95 -> 97 ;
98 [label="gini = 0.0\nsamples = 1\nvalue = [0, 1]\nclass = Non-acceptable"] ;
92 -> 98 ;
99 [label="rc_lookahead <= 125.5\ngini = 0.291\nsamples = 17\nvalue = [3, 14]\nclass = Non-acceptable"] ;
73 -> 99 ;
100 [label="no_cabac <= 0.5\ngini = 0.219\nsamples = 8\nvalue = [1, 7]\nclass = Non-acceptable"] ;
99 -> 100 ;
101 [label="gini = 0.0\nsamples = 5\nvalue = [0, 5]\nclass = Non-acceptable"] ;
100 -> 101 ;
102 [label="bframes <= 13.0\ngini = 0.444\nsamples = 3\nvalue = [1, 2]\nclass = Non-acceptable"] ;
100 -> 102 ;
103 [label="gini = 0.0\nsamples = 1\nvalue = [1, 0]\nclass = Acceptable"] ;
102 -> 103 ;
104 [label="gini = 0.0\nsamples = 2\nvalue = [0, 2]\nclass = Non-acceptable"] ;
102 -> 104 ;
105 [label="qcomp <= 0.6\ngini = 0.346\nsamples = 9\nvalue = [2, 7]\nclass = Non-acceptable"] ;
99 -> 105 ;
106 [label="no_scenecut <= 0.5\ngini = 0.48\nsamples = 5\nvalue = [2, 3]\nclass = Non-acceptable"] ;
105 -> 106 ;
107 [label="qp <= 0.5\ngini = 0.375\nsamples = 4\nvalue = [1, 3]\nclass = Non-acceptable"] ;
106 -> 107 ;
108 [label="gini = 0.0\nsamples = 1\nvalue = [1, 0]\nclass = Acceptable"] ;
107 -> 108 ;
109 [label="gini = 0.0\nsamples = 3\nvalue = [0, 3]\nclass = Non-acceptable"] ;
107 -> 109 ;
110 [label="gini = 0.0\nsamples = 1\nvalue = [1, 0]\nclass = Acceptable"] ;
106 -> 110 ;
111 [label="gini = 0.0\nsamples = 4\nvalue = [0, 4]\nclass = Non-acceptable"] ;
105 -> 111 ;
112 [label="bframes <= 13.0\ngini = 0.452\nsamples = 81\nvalue = [28, 53]\nclass = Non-acceptable"] ;
28 -> 112 ;
113 [label="qcomp <= 0.6\ngini = 0.497\nsamples = 37\nvalue = [17, 20]\nclass = Non-acceptable"] ;
112 -> 113 ;
114 [label="qp <= 0.5\ngini = 0.48\nsamples = 20\nvalue = [8, 12]\nclass = Non-acceptable"] ;
113 -> 114 ;
115 [label="keyint <= 500.5\ngini = 0.48\nsamples = 5\nvalue = [3, 2]\nclass = Acceptable"] ;
114 -> 115 ;
116 [label="rc_lookahead <= 125.5\ngini = 0.444\nsamples = 3\nvalue = [1, 2]\nclass = Non-acceptable"] ;
115 -> 116 ;
117 [label="gini = 0.0\nsamples = 1\nvalue = [0, 1]\nclass = Non-acceptable"] ;
116 -> 117 ;
118 [label="gini = 0.5\nsamples = 2\nvalue = [1, 1]\nclass = Acceptable"] ;
116 -> 118 ;
119 [label="gini = 0.0\nsamples = 2\nvalue = [2, 0]\nclass = Acceptable"] ;
115 -> 119 ;
120 [label="Threads <= 64.5\ngini = 0.444\nsamples = 15\nvalue = [5, 10]\nclass = Non-acceptable"] ;
114 -> 120 ;
121 [label="no_scenecut <= 0.5\ngini = 0.245\nsamples = 7\nvalue = [1, 6]\nclass = Non-acceptable"] ;
120 -> 121 ;
122 [label="gini = 0.0\nsamples = 4\nvalue = [0, 4]\nclass = Non-acceptable"] ;
121 -> 122 ;
123 [label="b_bias <= 17.0\ngini = 0.444\nsamples = 3\nvalue = [1, 2]\nclass = Non-acceptable"] ;
121 -> 123 ;
124 [label="gini = 0.5\nsamples = 2\nvalue = [1, 1]\nclass = Acceptable"] ;
123 -> 124 ;
125 [label="gini = 0.0\nsamples = 1\nvalue = [0, 1]\nclass = Non-acceptable"] ;
123 -> 125 ;
126 [label="no_cabac <= 0.5\ngini = 0.5\nsamples = 8\nvalue = [4, 4]\nclass = Acceptable"] ;
120 -> 126 ;
127 [label="b_bias <= 17.0\ngini = 0.444\nsamples = 6\nvalue = [2, 4]\nclass = Non-acceptable"] ;
126 -> 127 ;
128 [label="gini = 0.0\nsamples = 2\nvalue = [0, 2]\nclass = Non-acceptable"] ;
127 -> 128 ;
129 [label="aq_strength <= 1.05\ngini = 0.5\nsamples = 4\nvalue = [2, 2]\nclass = Acceptable"] ;
127 -> 129 ;
130 [label="gini = 0.0\nsamples = 1\nvalue = [1, 0]\nclass = Acceptable"] ;
129 -> 130 ;
131 [label="no_scenecut <= 0.5\ngini = 0.444\nsamples = 3\nvalue = [1, 2]\nclass = Non-acceptable"] ;
129 -> 131 ;
132 [label="gini = 0.0\nsamples = 1\nvalue = [1, 0]\nclass = Acceptable"] ;
131 -> 132 ;
133 [label="gini = 0.0\nsamples = 2\nvalue = [0, 2]\nclass = Non-acceptable"] ;
131 -> 133 ;
134 [label="gini = 0.0\nsamples = 2\nvalue = [2, 0]\nclass = Acceptable"] ;
126 -> 134 ;
135 [label="aq_strength <= 1.05\ngini = 0.498\nsamples = 17\nvalue = [9, 8]\nclass = Acceptable"] ;
113 -> 135 ;
136 [label="Threads <= 64.5\ngini = 0.444\nsamples = 6\nvalue = [4, 2]\nclass = Acceptable"] ;
135 -> 136 ;
137 [label="gini = 0.0\nsamples = 3\nvalue = [3, 0]\nclass = Acceptable"] ;
136 -> 137 ;
138 [label="no_cabac <= 0.5\ngini = 0.444\nsamples = 3\nvalue = [1, 2]\nclass = Non-acceptable"] ;
136 -> 138 ;
139 [label="gini = 0.0\nsamples = 2\nvalue = [0, 2]\nclass = Non-acceptable"] ;
138 -> 139 ;
140 [label="gini = 0.0\nsamples = 1\nvalue = [1, 0]\nclass = Acceptable"] ;
138 -> 140 ;
141 [label="no_scenecut <= 0.5\ngini = 0.496\nsamples = 11\nvalue = [5, 6]\nclass = Non-acceptable"] ;
135 -> 141 ;
142 [label="no_cabac <= 0.5\ngini = 0.48\nsamples = 10\nvalue = [4, 6]\nclass = Non-acceptable"] ;
141 -> 142 ;
143 [label="Threads <= 64.5\ngini = 0.494\nsamples = 9\nvalue = [4, 5]\nclass = Non-acceptable"] ;
142 -> 143 ;
144 [label="rc_lookahead <= 125.5\ngini = 0.375\nsamples = 4\nvalue = [1, 3]\nclass = Non-acceptable"] ;
143 -> 144 ;
145 [label="gini = 0.0\nsamples = 2\nvalue = [0, 2]\nclass = Non-acceptable"] ;
144 -> 145 ;
146 [label="keyint <= 500.5\ngini = 0.5\nsamples = 2\nvalue = [1, 1]\nclass = Acceptable"] ;
144 -> 146 ;
147 [label="gini = 0.0\nsamples = 1\nvalue = [0, 1]\nclass = Non-acceptable"] ;
146 -> 147 ;
148 [label="gini = 0.0\nsamples = 1\nvalue = [1, 0]\nclass = Acceptable"] ;
146 -> 148 ;
149 [label="rc_lookahead <= 125.5\ngini = 0.48\nsamples = 5\nvalue = [3, 2]\nclass = Acceptable"] ;
143 -> 149 ;
150 [label="b_bias <= 17.0\ngini = 0.375\nsamples = 4\nvalue = [3, 1]\nclass = Acceptable"] ;
149 -> 150 ;
151 [label="gini = 0.5\nsamples = 2\nvalue = [1, 1]\nclass = Acceptable"] ;
150 -> 151 ;
152 [label="gini = 0.0\nsamples = 2\nvalue = [2, 0]\nclass = Acceptable"] ;
150 -> 152 ;
153 [label="gini = 0.0\nsamples = 1\nvalue = [0, 1]\nclass = Non-acceptable"] ;
149 -> 153 ;
154 [label="gini = 0.0\nsamples = 1\nvalue = [0, 1]\nclass = Non-acceptable"] ;
142 -> 154 ;
155 [label="gini = 0.0\nsamples = 1\nvalue = [1, 0]\nclass = Acceptable"] ;
141 -> 155 ;
156 [label="keyint <= 500.5\ngini = 0.375\nsamples = 44\nvalue = [11, 33]\nclass = Non-acceptable"] ;
112 -> 156 ;
157 [label="Threads <= 64.5\ngini = 0.302\nsamples = 27\nvalue = [5, 22]\nclass = Non-acceptable"] ;
156 -> 157 ;
158 [label="gini = 0.0\nsamples = 15\nvalue = [0, 15]\nclass = Non-acceptable"] ;
157 -> 158 ;
159 [label="rc_lookahead <= 125.5\ngini = 0.486\nsamples = 12\nvalue = [5, 7]\nclass = Non-acceptable"] ;
157 -> 159 ;
160 [label="aq_strength <= 1.05\ngini = 0.444\nsamples = 6\nvalue = [4, 2]\nclass = Acceptable"] ;
159 -> 160 ;
161 [label="qcomp <= 0.6\ngini = 0.48\nsamples = 5\nvalue = [3, 2]\nclass = Acceptable"] ;
160 -> 161 ;
162 [label="no_scenecut <= 0.5\ngini = 0.375\nsamples = 4\nvalue = [3, 1]\nclass = Acceptable"] ;
161 -> 162 ;
163 [label="crf <= 0.5\ngini = 0.5\nsamples = 2\nvalue = [1, 1]\nclass = Acceptable"] ;
162 -> 163 ;
164 [label="gini = 0.0\nsamples = 1\nvalue = [0, 1]\nclass = Non-acceptable"] ;
163 -> 164 ;
165 [label="gini = 0.0\nsamples = 1\nvalue = [1, 0]\nclass = Acceptable"] ;
163 -> 165 ;
166 [label="gini = 0.0\nsamples = 2\nvalue = [2, 0]\nclass = Acceptable"] ;
162 -> 166 ;
167 [label="gini = 0.0\nsamples = 1\nvalue = [0, 1]\nclass = Non-acceptable"] ;
161 -> 167 ;
168 [label="gini = 0.0\nsamples = 1\nvalue = [1, 0]\nclass = Acceptable"] ;
160 -> 168 ;
169 [label="no_cabac <= 0.5\ngini = 0.278\nsamples = 6\nvalue = [1, 5]\nclass = Non-acceptable"] ;
159 -> 169 ;
170 [label="gini = 0.0\nsamples = 5\nvalue = [0, 5]\nclass = Non-acceptable"] ;
169 -> 170 ;
171 [label="gini = 0.0\nsamples = 1\nvalue = [1, 0]\nclass = Acceptable"] ;
169 -> 171 ;
172 [label="Threads <= 64.5\ngini = 0.457\nsamples = 17\nvalue = [6, 11]\nclass = Non-acceptable"] ;
156 -> 172 ;
173 [label="aq_strength <= 1.05\ngini = 0.494\nsamples = 9\nvalue = [5, 4]\nclass = Acceptable"] ;
172 -> 173 ;
174 [label="no_scenecut <= 0.5\ngini = 0.444\nsamples = 6\nvalue = [2, 4]\nclass = Non-acceptable"] ;
173 -> 174 ;
175 [label="qcomp <= 0.6\ngini = 0.32\nsamples = 5\nvalue = [1, 4]\nclass = Non-acceptable"] ;
174 -> 175 ;
176 [label="gini = 0.0\nsamples = 2\nvalue = [0, 2]\nclass = Non-acceptable"] ;
175 -> 176 ;
177 [label="rc_lookahead <= 125.5\ngini = 0.444\nsamples = 3\nvalue = [1, 2]\nclass = Non-acceptable"] ;
175 -> 177 ;
178 [label="gini = 0.5\nsamples = 2\nvalue = [1, 1]\nclass = Acceptable"] ;
177 -> 178 ;
179 [label="gini = 0.0\nsamples = 1\nvalue = [0, 1]\nclass = Non-acceptable"] ;
177 -> 179 ;
180 [label="gini = 0.0\nsamples = 1\nvalue = [1, 0]\nclass = Acceptable"] ;
174 -> 180 ;
181 [label="gini = 0.0\nsamples = 3\nvalue = [3, 0]\nclass = Acceptable"] ;
173 -> 181 ;
182 [label="no_scenecut <= 0.5\ngini = 0.219\nsamples = 8\nvalue = [1, 7]\nclass = Non-acceptable"] ;
172 -> 182 ;
183 [label="gini = 0.0\nsamples = 6\nvalue = [0, 6]\nclass = Non-acceptable"] ;
182 -> 183 ;
184 [label="qcomp <= 0.6\ngini = 0.5\nsamples = 2\nvalue = [1, 1]\nclass = Acceptable"] ;
182 -> 184 ;
185 [label="gini = 0.0\nsamples = 1\nvalue = [1, 0]\nclass = Acceptable"] ;
184 -> 185 ;
186 [label="gini = 0.0\nsamples = 1\nvalue = [0, 1]\nclass = Non-acceptable"] ;
184 -> 186 ;
187 [label="no_scenecut <= 0.5\ngini = 0.5\nsamples = 153\nvalue = [75, 78]\nclass = Non-acceptable"] ;
27 -> 187 ;
188 [label="qp <= 0.5\ngini = 0.5\nsamples = 121\nvalue = [62, 59]\nclass = Acceptable"] ;
187 -> 188 ;
189 [label="b_bias <= 17.0\ngini = 0.491\nsamples = 37\nvalue = [16, 21]\nclass = Non-acceptable"] ;
188 -> 189 ;
190 [label="keyint <= 500.5\ngini = 0.415\nsamples = 17\nvalue = [5, 12]\nclass = Non-acceptable"] ;
189 -> 190 ;
191 [label="scenecut <= 50.5\ngini = 0.5\nsamples = 6\nvalue = [3, 3]\nclass = Acceptable"] ;
190 -> 191 ;
192 [label="bframes <= 13.0\ngini = 0.375\nsamples = 4\nvalue = [1, 3]\nclass = Non-acceptable"] ;
191 -> 192 ;
193 [label="gini = 0.0\nsamples = 2\nvalue = [0, 2]\nclass = Non-acceptable"] ;
192 -> 193 ;
194 [label="Threads <= 64.5\ngini = 0.5\nsamples = 2\nvalue = [1, 1]\nclass = Acceptable"] ;
192 -> 194 ;
195 [label="gini = 0.0\nsamples = 1\nvalue = [0, 1]\nclass = Non-acceptable"] ;
194 -> 195 ;
196 [label="gini = 0.0\nsamples = 1\nvalue = [1, 0]\nclass = Acceptable"] ;
194 -> 196 ;
197 [label="gini = 0.0\nsamples = 2\nvalue = [2, 0]\nclass = Acceptable"] ;
191 -> 197 ;
198 [label="Threads <= 64.5\ngini = 0.298\nsamples = 11\nvalue = [2, 9]\nclass = Non-acceptable"] ;
190 -> 198 ;
199 [label="gini = 0.0\nsamples = 6\nvalue = [0, 6]\nclass = Non-acceptable"] ;
198 -> 199 ;
200 [label="qcomp <= 0.6\ngini = 0.48\nsamples = 5\nvalue = [2, 3]\nclass = Non-acceptable"] ;
198 -> 200 ;
201 [label="gini = 0.0\nsamples = 2\nvalue = [0, 2]\nclass = Non-acceptable"] ;
200 -> 201 ;
202 [label="bframes <= 13.0\ngini = 0.444\nsamples = 3\nvalue = [2, 1]\nclass = Acceptable"] ;
200 -> 202 ;
203 [label="scenecut <= 50.5\ngini = 0.5\nsamples = 2\nvalue = [1, 1]\nclass = Acceptable"] ;
202 -> 203 ;
204 [label="gini = 0.0\nsamples = 1\nvalue = [0, 1]\nclass = Non-acceptable"] ;
203 -> 204 ;
205 [label="gini = 0.0\nsamples = 1\nvalue = [1, 0]\nclass = Acceptable"] ;
203 -> 205 ;
206 [label="gini = 0.0\nsamples = 1\nvalue = [1, 0]\nclass = Acceptable"] ;
202 -> 206 ;
207 [label="Threads <= 64.5\ngini = 0.495\nsamples = 20\nvalue = [11, 9]\nclass = Acceptable"] ;
189 -> 207 ;
208 [label="aq_strength <= 1.05\ngini = 0.245\nsamples = 7\nvalue = [6, 1]\nclass = Acceptable"] ;
207 -> 208 ;
209 [label="gini = 0.0\nsamples = 5\nvalue = [5, 0]\nclass = Acceptable"] ;
208 -> 209 ;
210 [label="keyint <= 500.5\ngini = 0.5\nsamples = 2\nvalue = [1, 1]\nclass = Acceptable"] ;
208 -> 210 ;
211 [label="gini = 0.0\nsamples = 1\nvalue = [0, 1]\nclass = Non-acceptable"] ;
210 -> 211 ;
212 [label="gini = 0.0\nsamples = 1\nvalue = [1, 0]\nclass = Acceptable"] ;
210 -> 212 ;
213 [label="scenecut <= 50.5\ngini = 0.473\nsamples = 13\nvalue = [5, 8]\nclass = Non-acceptable"] ;
207 -> 213 ;
214 [label="qcomp <= 0.6\ngini = 0.375\nsamples = 4\nvalue = [3, 1]\nclass = Acceptable"] ;
213 -> 214 ;
215 [label="aq_strength <= 1.05\ngini = 0.5\nsamples = 2\nvalue = [1, 1]\nclass = Acceptable"] ;
214 -> 215 ;
216 [label="gini = 0.0\nsamples = 1\nvalue = [0, 1]\nclass = Non-acceptable"] ;
215 -> 216 ;
217 [label="gini = 0.0\nsamples = 1\nvalue = [1, 0]\nclass = Acceptable"] ;
215 -> 217 ;
218 [label="gini = 0.0\nsamples = 2\nvalue = [2, 0]\nclass = Acceptable"] ;
214 -> 218 ;
219 [label="qcomp <= 0.6\ngini = 0.346\nsamples = 9\nvalue = [2, 7]\nclass = Non-acceptable"] ;
213 -> 219 ;
220 [label="gini = 0.0\nsamples = 4\nvalue = [0, 4]\nclass = Non-acceptable"] ;
219 -> 220 ;
221 [label="aq_strength <= 1.05\ngini = 0.48\nsamples = 5\nvalue = [2, 3]\nclass = Non-acceptable"] ;
219 -> 221 ;
222 [label="gini = 0.0\nsamples = 2\nvalue = [0, 2]\nclass = Non-acceptable"] ;
221 -> 222 ;
223 [label="rc_lookahead <= 125.5\ngini = 0.444\nsamples = 3\nvalue = [2, 1]\nclass = Acceptable"] ;
221 -> 223 ;
224 [label="gini = 0.0\nsamples = 1\nvalue = [1, 0]\nclass = Acceptable"] ;
223 -> 224 ;
225 [label="gini = 0.5\nsamples = 2\nvalue = [1, 1]\nclass = Acceptable"] ;
223 -> 225 ;
226 [label="b_bias <= 17.0\ngini = 0.495\nsamples = 84\nvalue = [46, 38]\nclass = Acceptable"] ;
188 -> 226 ;
227 [label="scenecut <= 50.5\ngini = 0.474\nsamples = 44\nvalue = [27, 17]\nclass = Acceptable"] ;
226 -> 227 ;
228 [label="no_cabac <= 0.5\ngini = 0.497\nsamples = 24\nvalue = [13, 11]\nclass = Acceptable"] ;
227 -> 228 ;
229 [label="aq_strength <= 1.05\ngini = 0.459\nsamples = 14\nvalue = [9, 5]\nclass = Acceptable"] ;
228 -> 229 ;
230 [label="qcomp <= 0.6\ngini = 0.278\nsamples = 6\nvalue = [5, 1]\nclass = Acceptable"] ;
229 -> 230 ;
231 [label="gini = 0.0\nsamples = 4\nvalue = [4, 0]\nclass = Acceptable"] ;
230 -> 231 ;
232 [label="bframes <= 13.0\ngini = 0.5\nsamples = 2\nvalue = [1, 1]\nclass = Acceptable"] ;
230 -> 232 ;
233 [label="gini = 0.0\nsamples = 1\nvalue = [1, 0]\nclass = Acceptable"] ;
232 -> 233 ;
234 [label="gini = 0.0\nsamples = 1\nvalue = [0, 1]\nclass = Non-acceptable"] ;
232 -> 234 ;
235 [label="keyint <= 500.5\ngini = 0.5\nsamples = 8\nvalue = [4, 4]\nclass = Acceptable"] ;
229 -> 235 ;
236 [label="bframes <= 13.0\ngini = 0.375\nsamples = 4\nvalue = [1, 3]\nclass = Non-acceptable"] ;
235 -> 236 ;
237 [label="gini = 0.0\nsamples = 2\nvalue = [0, 2]\nclass = Non-acceptable"] ;
236 -> 237 ;
238 [label="gini = 0.5\nsamples = 2\nvalue = [1, 1]\nclass = Acceptable"] ;
236 -> 238 ;
239 [label="qcomp <= 0.6\ngini = 0.375\nsamples = 4\nvalue = [3, 1]\nclass = Acceptable"] ;
235 -> 239 ;
240 [label="rc_lookahead <= 125.5\ngini = 0.444\nsamples = 3\nvalue = [2, 1]\nclass = Acceptable"] ;
239 -> 240 ;
241 [label="gini = 0.0\nsamples = 1\nvalue = [1, 0]\nclass = Acceptable"] ;
240 -> 241 ;
242 [label="gini = 0.5\nsamples = 2\nvalue = [1, 1]\nclass = Acceptable"] ;
240 -> 242 ;
243 [label="gini = 0.0\nsamples = 1\nvalue = [1, 0]\nclass = Acceptable"] ;
239 -> 243 ;
244 [label="bframes <= 13.0\ngini = 0.48\nsamples = 10\nvalue = [4, 6]\nclass = Non-acceptable"] ;
228 -> 244 ;
245 [label="gini = 0.0\nsamples = 3\nvalue = [0, 3]\nclass = Non-acceptable"] ;
244 -> 245 ;
246 [label="rc_lookahead <= 125.5\ngini = 0.49\nsamples = 7\nvalue = [4, 3]\nclass = Acceptable"] ;
244 -> 246 ;
247 [label="qcomp <= 0.6\ngini = 0.444\nsamples = 3\nvalue = [2, 1]\nclass = Acceptable"] ;
246 -> 247 ;
248 [label="gini = 0.0\nsamples = 1\nvalue = [0, 1]\nclass = Non-acceptable"] ;
247 -> 248 ;
249 [label="gini = 0.0\nsamples = 2\nvalue = [2, 0]\nclass = Acceptable"] ;
247 -> 249 ;
250 [label="qcomp <= 0.6\ngini = 0.5\nsamples = 4\nvalue = [2, 2]\nclass = Acceptable"] ;
246 -> 250 ;
251 [label="Threads <= 64.5\ngini = 0.444\nsamples = 3\nvalue = [2, 1]\nclass = Acceptable"] ;
250 -> 251 ;
252 [label="gini = 0.0\nsamples = 1\nvalue = [0, 1]\nclass = Non-acceptable"] ;
251 -> 252 ;
253 [label="gini = 0.0\nsamples = 2\nvalue = [2, 0]\nclass = Acceptable"] ;
251 -> 253 ;
254 [label="gini = 0.0\nsamples = 1\nvalue = [0, 1]\nclass = Non-acceptable"] ;
250 -> 254 ;
255 [label="qcomp <= 0.6\ngini = 0.42\nsamples = 20\nvalue = [14, 6]\nclass = Acceptable"] ;
227 -> 255 ;
256 [label="bframes <= 13.0\ngini = 0.32\nsamples = 10\nvalue = [8, 2]\nclass = Acceptable"] ;
255 -> 256 ;
257 [label="gini = 0.0\nsamples = 4\nvalue = [4, 0]\nclass = Acceptable"] ;
256 -> 257 ;
258 [label="Threads <= 64.5\ngini = 0.444\nsamples = 6\nvalue = [4, 2]\nclass = Acceptable"] ;
256 -> 258 ;
259 [label="gini = 0.0\nsamples = 2\nvalue = [2, 0]\nclass = Acceptable"] ;
258 -> 259 ;
260 [label="rc_lookahead <= 125.5\ngini = 0.5\nsamples = 4\nvalue = [2, 2]\nclass = Acceptable"] ;
258 -> 260 ;
261 [label="no_cabac <= 0.5\ngini = 0.444\nsamples = 3\nvalue = [2, 1]\nclass = Acceptable"] ;
260 -> 261 ;
262 [label="gini = 0.0\nsamples = 1\nvalue = [0, 1]\nclass = Non-acceptable"] ;
261 -> 262 ;
263 [label="gini = 0.0\nsamples = 2\nvalue = [2, 0]\nclass = Acceptable"] ;
261 -> 263 ;
264 [label="gini = 0.0\nsamples = 1\nvalue = [0, 1]\nclass = Non-acceptable"] ;
260 -> 264 ;
265 [label="aq_strength <= 1.05\ngini = 0.48\nsamples = 10\nvalue = [6, 4]\nclass = Acceptable"] ;
255 -> 265 ;
266 [label="Threads <= 64.5\ngini = 0.32\nsamples = 5\nvalue = [4, 1]\nclass = Acceptable"] ;
265 -> 266 ;
267 [label="bframes <= 13.0\ngini = 0.444\nsamples = 3\nvalue = [2, 1]\nclass = Acceptable"] ;
266 -> 267 ;
268 [label="gini = 0.5\nsamples = 2\nvalue = [1, 1]\nclass = Acceptable"] ;
267 -> 268 ;
269 [label="gini = 0.0\nsamples = 1\nvalue = [1, 0]\nclass = Acceptable"] ;
267 -> 269 ;
270 [label="gini = 0.0\nsamples = 2\nvalue = [2, 0]\nclass = Acceptable"] ;
266 -> 270 ;
271 [label="bframes <= 13.0\ngini = 0.48\nsamples = 5\nvalue = [2, 3]\nclass = Non-acceptable"] ;
265 -> 271 ;
272 [label="gini = 0.0\nsamples = 2\nvalue = [0, 2]\nclass = Non-acceptable"] ;
271 -> 272 ;
273 [label="Threads <= 64.5\ngini = 0.444\nsamples = 3\nvalue = [2, 1]\nclass = Acceptable"] ;
271 -> 273 ;
274 [label="gini = 0.0\nsamples = 2\nvalue = [2, 0]\nclass = Acceptable"] ;
273 -> 274 ;
275 [label="gini = 0.0\nsamples = 1\nvalue = [0, 1]\nclass = Non-acceptable"] ;
273 -> 275 ;
276 [label="qcomp <= 0.6\ngini = 0.499\nsamples = 40\nvalue = [19, 21]\nclass = Non-acceptable"] ;
226 -> 276 ;
277 [label="no_cabac <= 0.5\ngini = 0.465\nsamples = 19\nvalue = [7, 12]\nclass = Non-acceptable"] ;
276 -> 277 ;
278 [label="rc_lookahead <= 125.5\ngini = 0.496\nsamples = 11\nvalue = [5, 6]\nclass = Non-acceptable"] ;
277 -> 278 ;
279 [label="aq_strength <= 1.05\ngini = 0.375\nsamples = 4\nvalue = [3, 1]\nclass = Acceptable"] ;
278 -> 279 ;
280 [label="gini = 0.0\nsamples = 2\nvalue = [2, 0]\nclass = Acceptable"] ;
279 -> 280 ;
281 [label="bframes <= 13.0\ngini = 0.5\nsamples = 2\nvalue = [1, 1]\nclass = Acceptable"] ;
279 -> 281 ;
282 [label="gini = 0.0\nsamples = 1\nvalue = [0, 1]\nclass = Non-acceptable"] ;
281 -> 282 ;
283 [label="gini = 0.0\nsamples = 1\nvalue = [1, 0]\nclass = Acceptable"] ;
281 -> 283 ;
284 [label="keyint <= 500.5\ngini = 0.408\nsamples = 7\nvalue = [2, 5]\nclass = Non-acceptable"] ;
278 -> 284 ;
285 [label="bframes <= 13.0\ngini = 0.5\nsamples = 4\nvalue = [2, 2]\nclass = Acceptable"] ;
284 -> 285 ;
286 [label="scenecut <= 50.5\ngini = 0.444\nsamples = 3\nvalue = [2, 1]\nclass = Acceptable"] ;
285 -> 286 ;
287 [label="gini = 0.0\nsamples = 1\nvalue = [1, 0]\nclass = Acceptable"] ;
286 -> 287 ;
288 [label="gini = 0.5\nsamples = 2\nvalue = [1, 1]\nclass = Acceptable"] ;
286 -> 288 ;
289 [label="gini = 0.0\nsamples = 1\nvalue = [0, 1]\nclass = Non-acceptable"] ;
285 -> 289 ;
290 [label="gini = 0.0\nsamples = 3\nvalue = [0, 3]\nclass = Non-acceptable"] ;
284 -> 290 ;
291 [label="scenecut <= 50.5\ngini = 0.375\nsamples = 8\nvalue = [2, 6]\nclass = Non-acceptable"] ;
277 -> 291 ;
292 [label="gini = 0.0\nsamples = 5\nvalue = [0, 5]\nclass = Non-acceptable"] ;
291 -> 292 ;
293 [label="aq_strength <= 1.05\ngini = 0.444\nsamples = 3\nvalue = [2, 1]\nclass = Acceptable"] ;
291 -> 293 ;
294 [label="gini = 0.0\nsamples = 1\nvalue = [1, 0]\nclass = Acceptable"] ;
293 -> 294 ;
295 [label="rc_lookahead <= 125.5\ngini = 0.5\nsamples = 2\nvalue = [1, 1]\nclass = Acceptable"] ;
293 -> 295 ;
296 [label="gini = 0.0\nsamples = 1\nvalue = [0, 1]\nclass = Non-acceptable"] ;
295 -> 296 ;
297 [label="gini = 0.0\nsamples = 1\nvalue = [1, 0]\nclass = Acceptable"] ;
295 -> 297 ;
298 [label="Threads <= 64.5\ngini = 0.49\nsamples = 21\nvalue = [12, 9]\nclass = Acceptable"] ;
276 -> 298 ;
299 [label="bframes <= 13.0\ngini = 0.459\nsamples = 14\nvalue = [9, 5]\nclass = Acceptable"] ;
298 -> 299 ;
300 [label="rc_lookahead <= 125.5\ngini = 0.5\nsamples = 8\nvalue = [4, 4]\nclass = Acceptable"] ;
299 -> 300 ;
301 [label="gini = 0.0\nsamples = 2\nvalue = [2, 0]\nclass = Acceptable"] ;
300 -> 301 ;
302 [label="aq_strength <= 1.05\ngini = 0.444\nsamples = 6\nvalue = [2, 4]\nclass = Non-acceptable"] ;
300 -> 302 ;
303 [label="gini = 0.0\nsamples = 2\nvalue = [0, 2]\nclass = Non-acceptable"] ;
302 -> 303 ;
304 [label="scenecut <= 50.5\ngini = 0.5\nsamples = 4\nvalue = [2, 2]\nclass = Acceptable"] ;
302 -> 304 ;
305 [label="keyint <= 500.5\ngini = 0.444\nsamples = 3\nvalue = [2, 1]\nclass = Acceptable"] ;
304 -> 305 ;
306 [label="gini = 0.0\nsamples = 1\nvalue = [1, 0]\nclass = Acceptable"] ;
305 -> 306 ;
307 [label="gini = 0.5\nsamples = 2\nvalue = [1, 1]\nclass = Acceptable"] ;
305 -> 307 ;
308 [label="gini = 0.0\nsamples = 1\nvalue = [0, 1]\nclass = Non-acceptable"] ;
304 -> 308 ;
309 [label="rc_lookahead <= 125.5\ngini = 0.278\nsamples = 6\nvalue = [5, 1]\nclass = Acceptable"] ;
299 -> 309 ;
310 [label="scenecut <= 50.5\ngini = 0.5\nsamples = 2\nvalue = [1, 1]\nclass = Acceptable"] ;
309 -> 310 ;
311 [label="gini = 0.0\nsamples = 1\nvalue = [0, 1]\nclass = Non-acceptable"] ;
310 -> 311 ;
312 [label="gini = 0.0\nsamples = 1\nvalue = [1, 0]\nclass = Acceptable"] ;
310 -> 312 ;
313 [label="gini = 0.0\nsamples = 4\nvalue = [4, 0]\nclass = Acceptable"] ;
309 -> 313 ;
314 [label="keyint <= 500.5\ngini = 0.49\nsamples = 7\nvalue = [3, 4]\nclass = Non-acceptable"] ;
298 -> 314 ;
315 [label="gini = 0.0\nsamples = 3\nvalue = [3, 0]\nclass = Acceptable"] ;
314 -> 315 ;
316 [label="gini = 0.0\nsamples = 4\nvalue = [0, 4]\nclass = Non-acceptable"] ;
314 -> 316 ;
317 [label="b_bias <= 17.0\ngini = 0.482\nsamples = 32\nvalue = [13, 19]\nclass = Non-acceptable"] ;
187 -> 317 ;
318 [label="rc_lookahead <= 125.5\ngini = 0.498\nsamples = 15\nvalue = [8, 7]\nclass = Acceptable"] ;
317 -> 318 ;
319 [label="aq_strength <= 1.05\ngini = 0.32\nsamples = 5\nvalue = [4, 1]\nclass = Acceptable"] ;
318 -> 319 ;
320 [label="gini = 0.0\nsamples = 3\nvalue = [3, 0]\nclass = Acceptable"] ;
319 -> 320 ;
321 [label="bframes <= 13.0\ngini = 0.5\nsamples = 2\nvalue = [1, 1]\nclass = Acceptable"] ;
319 -> 321 ;
322 [label="gini = 0.0\nsamples = 1\nvalue = [1, 0]\nclass = Acceptable"] ;
321 -> 322 ;
323 [label="gini = 0.0\nsamples = 1\nvalue = [0, 1]\nclass = Non-acceptable"] ;
321 -> 323 ;
324 [label="Threads <= 64.5\ngini = 0.48\nsamples = 10\nvalue = [4, 6]\nclass = Non-acceptable"] ;
318 -> 324 ;
325 [label="gini = 0.0\nsamples = 3\nvalue = [0, 3]\nclass = Non-acceptable"] ;
324 -> 325 ;
326 [label="scenecut <= 50.5\ngini = 0.49\nsamples = 7\nvalue = [4, 3]\nclass = Acceptable"] ;
324 -> 326 ;
327 [label="qcomp <= 0.6\ngini = 0.375\nsamples = 4\nvalue = [1, 3]\nclass = Non-acceptable"] ;
326 -> 327 ;
328 [label="gini = 0.0\nsamples = 2\nvalue = [0, 2]\nclass = Non-acceptable"] ;
327 -> 328 ;
329 [label="bframes <= 13.0\ngini = 0.5\nsamples = 2\nvalue = [1, 1]\nclass = Acceptable"] ;
327 -> 329 ;
330 [label="gini = 0.0\nsamples = 1\nvalue = [0, 1]\nclass = Non-acceptable"] ;
329 -> 330 ;
331 [label="gini = 0.0\nsamples = 1\nvalue = [1, 0]\nclass = Acceptable"] ;
329 -> 331 ;
332 [label="gini = 0.0\nsamples = 3\nvalue = [3, 0]\nclass = Acceptable"] ;
326 -> 332 ;
333 [label="scenecut <= 50.5\ngini = 0.415\nsamples = 17\nvalue = [5, 12]\nclass = Non-acceptable"] ;
317 -> 333 ;
334 [label="keyint <= 500.5\ngini = 0.49\nsamples = 7\nvalue = [4, 3]\nclass = Acceptable"] ;
333 -> 334 ;
335 [label="gini = 0.0\nsamples = 2\nvalue = [2, 0]\nclass = Acceptable"] ;
334 -> 335 ;
336 [label="qcomp <= 0.6\ngini = 0.48\nsamples = 5\nvalue = [2, 3]\nclass = Non-acceptable"] ;
334 -> 336 ;
337 [label="aq_strength <= 1.05\ngini = 0.5\nsamples = 4\nvalue = [2, 2]\nclass = Acceptable"] ;
336 -> 337 ;
338 [label="rc_lookahead <= 125.5\ngini = 0.5\nsamples = 2\nvalue = [1, 1]\nclass = Acceptable"] ;
337 -> 338 ;
339 [label="gini = 0.0\nsamples = 1\nvalue = [1, 0]\nclass = Acceptable"] ;
338 -> 339 ;
340 [label="gini = 0.0\nsamples = 1\nvalue = [0, 1]\nclass = Non-acceptable"] ;
338 -> 340 ;
341 [label="rc_lookahead <= 125.5\ngini = 0.5\nsamples = 2\nvalue = [1, 1]\nclass = Acceptable"] ;
337 -> 341 ;
342 [label="gini = 0.0\nsamples = 1\nvalue = [0, 1]\nclass = Non-acceptable"] ;
341 -> 342 ;
343 [label="gini = 0.0\nsamples = 1\nvalue = [1, 0]\nclass = Acceptable"] ;
341 -> 343 ;
344 [label="gini = 0.0\nsamples = 1\nvalue = [0, 1]\nclass = Non-acceptable"] ;
336 -> 344 ;
345 [label="aq_strength <= 1.05\ngini = 0.18\nsamples = 10\nvalue = [1, 9]\nclass = Non-acceptable"] ;
333 -> 345 ;
346 [label="gini = 0.0\nsamples = 7\nvalue = [0, 7]\nclass = Non-acceptable"] ;
345 -> 346 ;
347 [label="qcomp <= 0.6\ngini = 0.444\nsamples = 3\nvalue = [1, 2]\nclass = Non-acceptable"] ;
345 -> 347 ;
348 [label="gini = 0.0\nsamples = 2\nvalue = [0, 2]\nclass = Non-acceptable"] ;
347 -> 348 ;
349 [label="gini = 0.0\nsamples = 1\nvalue = [1, 0]\nclass = Acceptable"] ;
347 -> 349 ;
350 [label="no_cabac <= 0.5\ngini = 0.5\nsamples = 300\nvalue = [149, 151]\nclass = Non-acceptable"] ;
26 -> 350 ;
351 [label="no_scenecut <= 0.5\ngini = 0.499\nsamples = 229\nvalue = [119, 110]\nclass = Acceptable"] ;
350 -> 351 ;
352 [label="qcomp <= 0.6\ngini = 0.5\nsamples = 153\nvalue = [76, 77]\nclass = Non-acceptable"] ;
351 -> 352 ;
353 [label="aq_strength <= 1.05\ngini = 0.493\nsamples = 75\nvalue = [42, 33]\nclass = Acceptable"] ;
352 -> 353 ;
354 [label="Threads <= 64.5\ngini = 0.47\nsamples = 45\nvalue = [28, 17]\nclass = Acceptable"] ;
353 -> 354 ;
355 [label="keyint <= 500.5\ngini = 0.499\nsamples = 19\nvalue = [10, 9]\nclass = Acceptable"] ;
354 -> 355 ;
356 [label="b_bias <= 17.0\ngini = 0.444\nsamples = 9\nvalue = [6, 3]\nclass = Acceptable"] ;
355 -> 356 ;
357 [label="scenecut <= 50.5\ngini = 0.32\nsamples = 5\nvalue = [4, 1]\nclass = Acceptable"] ;
356 -> 357 ;
358 [label="gini = 0.0\nsamples = 3\nvalue = [3, 0]\nclass = Acceptable"] ;
357 -> 358 ;
359 [label="qp <= 0.5\ngini = 0.5\nsamples = 2\nvalue = [1, 1]\nclass = Acceptable"] ;
357 -> 359 ;
360 [label="gini = 0.0\nsamples = 1\nvalue = [1, 0]\nclass = Acceptable"] ;
359 -> 360 ;
361 [label="gini = 0.0\nsamples = 1\nvalue = [0, 1]\nclass = Non-acceptable"] ;
359 -> 361 ;
362 [label="scenecut <= 50.5\ngini = 0.5\nsamples = 4\nvalue = [2, 2]\nclass = Acceptable"] ;
356 -> 362 ;
363 [label="crf <= 0.5\ngini = 0.444\nsamples = 3\nvalue = [1, 2]\nclass = Non-acceptable"] ;
362 -> 363 ;
364 [label="bframes <= 13.0\ngini = 0.5\nsamples = 2\nvalue = [1, 1]\nclass = Acceptable"] ;
363 -> 364 ;
365 [label="gini = 0.0\nsamples = 1\nvalue = [1, 0]\nclass = Acceptable"] ;
364 -> 365 ;
366 [label="gini = 0.0\nsamples = 1\nvalue = [0, 1]\nclass = Non-acceptable"] ;
364 -> 366 ;
367 [label="gini = 0.0\nsamples = 1\nvalue = [0, 1]\nclass = Non-acceptable"] ;
363 -> 367 ;
368 [label="gini = 0.0\nsamples = 1\nvalue = [1, 0]\nclass = Acceptable"] ;
362 -> 368 ;
369 [label="qpSetting <= 25.5\ngini = 0.48\nsamples = 10\nvalue = [4, 6]\nclass = Non-acceptable"] ;
355 -> 369 ;
370 [label="scenecut <= 50.5\ngini = 0.444\nsamples = 6\nvalue = [4, 2]\nclass = Acceptable"] ;
369 -> 370 ;
371 [label="crf <= 0.5\ngini = 0.48\nsamples = 5\nvalue = [3, 2]\nclass = Acceptable"] ;
370 -> 371 ;
372 [label="rc_lookahead <= 125.5\ngini = 0.5\nsamples = 2\nvalue = [1, 1]\nclass = Acceptable"] ;
371 -> 372 ;
373 [label="gini = 0.0\nsamples = 1\nvalue = [0, 1]\nclass = Non-acceptable"] ;
372 -> 373 ;
374 [label="gini = 0.0\nsamples = 1\nvalue = [1, 0]\nclass = Acceptable"] ;
372 -> 374 ;
375 [label="rc_lookahead <= 125.5\ngini = 0.444\nsamples = 3\nvalue = [2, 1]\nclass = Acceptable"] ;
371 -> 375 ;
376 [label="gini = 0.0\nsamples = 2\nvalue = [2, 0]\nclass = Acceptable"] ;
375 -> 376 ;
377 [label="gini = 0.0\nsamples = 1\nvalue = [0, 1]\nclass = Non-acceptable"] ;
375 -> 377 ;
378 [label="gini = 0.0\nsamples = 1\nvalue = [1, 0]\nclass = Acceptable"] ;
370 -> 378 ;
379 [label="gini = 0.0\nsamples = 4\nvalue = [0, 4]\nclass = Non-acceptable"] ;
369 -> 379 ;
380 [label="scenecut <= 50.5\ngini = 0.426\nsamples = 26\nvalue = [18, 8]\nclass = Acceptable"] ;
354 -> 380 ;
381 [label="keyint <= 500.5\ngini = 0.484\nsamples = 17\nvalue = [10, 7]\nclass = Acceptable"] ;
380 -> 381 ;
382 [label="b_bias <= 17.0\ngini = 0.408\nsamples = 7\nvalue = [5, 2]\nclass = Acceptable"] ;
381 -> 382 ;
383 [label="crf <= 0.5\ngini = 0.444\nsamples = 3\nvalue = [1, 2]\nclass = Non-acceptable"] ;
382 -> 383 ;
384 [label="gini = 0.5\nsamples = 2\nvalue = [1, 1]\nclass = Acceptable"] ;
383 -> 384 ;
385 [label="gini = 0.0\nsamples = 1\nvalue = [0, 1]\nclass = Non-acceptable"] ;
383 -> 385 ;
386 [label="gini = 0.0\nsamples = 4\nvalue = [4, 0]\nclass = Acceptable"] ;
382 -> 386 ;
387 [label="qp <= 0.5\ngini = 0.5\nsamples = 10\nvalue = [5, 5]\nclass = Acceptable"] ;
381 -> 387 ;
388 [label="bframes <= 13.0\ngini = 0.494\nsamples = 9\nvalue = [5, 4]\nclass = Acceptable"] ;
387 -> 388 ;
389 [label="rc_lookahead <= 125.5\ngini = 0.444\nsamples = 3\nvalue = [1, 2]\nclass = Non-acceptable"] ;
388 -> 389 ;
390 [label="b_bias <= 17.0\ngini = 0.5\nsamples = 2\nvalue = [1, 1]\nclass = Acceptable"] ;
389 -> 390 ;
391 [label="gini = 0.0\nsamples = 1\nvalue = [1, 0]\nclass = Acceptable"] ;
390 -> 391 ;
392 [label="gini = 0.0\nsamples = 1\nvalue = [0, 1]\nclass = Non-acceptable"] ;
390 -> 392 ;
393 [label="gini = 0.0\nsamples = 1\nvalue = [0, 1]\nclass = Non-acceptable"] ;
389 -> 393 ;
394 [label="rc_lookahead <= 125.5\ngini = 0.444\nsamples = 6\nvalue = [4, 2]\nclass = Acceptable"] ;
388 -> 394 ;
395 [label="qpSetting <= 25.5\ngini = 0.5\nsamples = 4\nvalue = [2, 2]\nclass = Acceptable"] ;
394 -> 395 ;
396 [label="gini = 0.5\nsamples = 2\nvalue = [1, 1]\nclass = Acceptable"] ;
395 -> 396 ;
397 [label="gini = 0.5\nsamples = 2\nvalue = [1, 1]\nclass = Acceptable"] ;
395 -> 397 ;
398 [label="gini = 0.0\nsamples = 2\nvalue = [2, 0]\nclass = Acceptable"] ;
394 -> 398 ;
399 [label="gini = 0.0\nsamples = 1\nvalue = [0, 1]\nclass = Non-acceptable"] ;
387 -> 399 ;
400 [label="crf <= 0.5\ngini = 0.198\nsamples = 9\nvalue = [8, 1]\nclass = Acceptable"] ;
380 -> 400 ;
401 [label="gini = 0.0\nsamples = 6\nvalue = [6, 0]\nclass = Acceptable"] ;
400 -> 401 ;
402 [label="b_bias <= 17.0\ngini = 0.444\nsamples = 3\nvalue = [2, 1]\nclass = Acceptable"] ;
400 -> 402 ;
403 [label="gini = 0.0\nsamples = 1\nvalue = [0, 1]\nclass = Non-acceptable"] ;
402 -> 403 ;
404 [label="gini = 0.0\nsamples = 2\nvalue = [2, 0]\nclass = Acceptable"] ;
402 -> 404 ;
405 [label="scenecut <= 50.5\ngini = 0.498\nsamples = 30\nvalue = [14, 16]\nclass = Non-acceptable"] ;
353 -> 405 ;
406 [label="qpSetting <= 25.5\ngini = 0.475\nsamples = 18\nvalue = [11, 7]\nclass = Acceptable"] ;
405 -> 406 ;
407 [label="Threads <= 64.5\ngini = 0.278\nsamples = 6\nvalue = [5, 1]\nclass = Acceptable"] ;
406 -> 407 ;
408 [label="qp <= 0.5\ngini = 0.5\nsamples = 2\nvalue = [1, 1]\nclass = Acceptable"] ;
407 -> 408 ;
409 [label="gini = 0.0\nsamples = 1\nvalue = [0, 1]\nclass = Non-acceptable"] ;
408 -> 409 ;
410 [label="gini = 0.0\nsamples = 1\nvalue = [1, 0]\nclass = Acceptable"] ;
408 -> 410 ;
411 [label="gini = 0.0\nsamples = 4\nvalue = [4, 0]\nclass = Acceptable"] ;
407 -> 411 ;
412 [label="bframes <= 13.0\ngini = 0.5\nsamples = 12\nvalue = [6, 6]\nclass = Acceptable"] ;
406 -> 412 ;
413 [label="qp <= 0.5\ngini = 0.444\nsamples = 3\nvalue = [2, 1]\nclass = Acceptable"] ;
412 -> 413 ;
414 [label="Threads <= 64.5\ngini = 0.5\nsamples = 2\nvalue = [1, 1]\nclass = Acceptable"] ;
413 -> 414 ;
415 [label="gini = 0.0\nsamples = 1\nvalue = [0, 1]\nclass = Non-acceptable"] ;
414 -> 415 ;
416 [label="gini = 0.0\nsamples = 1\nvalue = [1, 0]\nclass = Acceptable"] ;
414 -> 416 ;
417 [label="gini = 0.0\nsamples = 1\nvalue = [1, 0]\nclass = Acceptable"] ;
413 -> 417 ;
418 [label="rc_lookahead <= 125.5\ngini = 0.494\nsamples = 9\nvalue = [4, 5]\nclass = Non-acceptable"] ;
412 -> 418 ;
419 [label="gini = 0.0\nsamples = 2\nvalue = [0, 2]\nclass = Non-acceptable"] ;
418 -> 419 ;
420 [label="Threads <= 64.5\ngini = 0.49\nsamples = 7\nvalue = [4, 3]\nclass = Acceptable"] ;
418 -> 420 ;
421 [label="qp <= 0.5\ngini = 0.375\nsamples = 4\nvalue = [3, 1]\nclass = Acceptable"] ;
420 -> 421 ;
422 [label="b_bias <= 17.0\ngini = 0.5\nsamples = 2\nvalue = [1, 1]\nclass = Acceptable"] ;
421 -> 422 ;
423 [label="gini = 0.0\nsamples = 1\nvalue = [0, 1]\nclass = Non-acceptable"] ;
422 -> 423 ;
424 [label="gini = 0.0\nsamples = 1\nvalue = [1, 0]\nclass = Acceptable"] ;
422 -> 424 ;
425 [label="gini = 0.0\nsamples = 2\nvalue = [2, 0]\nclass = Acceptable"] ;
421 -> 425 ;
426 [label="crf <= 0.5\ngini = 0.444\nsamples = 3\nvalue = [1, 2]\nclass = Non-acceptable"] ;
420 -> 426 ;
427 [label="gini = 0.0\nsamples = 2\nvalue = [0, 2]\nclass = Non-acceptable"] ;
426 -> 427 ;
428 [label="gini = 0.0\nsamples = 1\nvalue = [1, 0]\nclass = Acceptable"] ;
426 -> 428 ;
429 [label="qp <= 0.5\ngini = 0.375\nsamples = 12\nvalue = [3, 9]\nclass = Non-acceptable"] ;
405 -> 429 ;
430 [label="qpSetting <= 25.5\ngini = 0.48\nsamples = 5\nvalue = [3, 2]\nclass = Acceptable"] ;
429 -> 430 ;
431 [label="gini = 0.0\nsamples = 3\nvalue = [3, 0]\nclass = Acceptable"] ;
430 -> 431 ;
432 [label="gini = 0.0\nsamples = 2\nvalue = [0, 2]\nclass = Non-acceptable"] ;
430 -> 432 ;
433 [label="gini = 0.0\nsamples = 7\nvalue = [0, 7]\nclass = Non-acceptable"] ;
429 -> 433 ;
434 [label="b_bias <= 17.0\ngini = 0.492\nsamples = 78\nvalue = [34, 44]\nclass = Non-acceptable"] ;
352 -> 434 ;
435 [label="keyint <= 500.5\ngini = 0.5\nsamples = 37\nvalue = [19, 18]\nclass = Acceptable"] ;
434 -> 435 ;
436 [label="rc_lookahead <= 125.5\ngini = 0.457\nsamples = 17\nvalue = [11, 6]\nclass = Acceptable"] ;
435 -> 436 ;
437 [label="qp <= 0.5\ngini = 0.32\nsamples = 10\nvalue = [8, 2]\nclass = Acceptable"] ;
436 -> 437 ;
438 [label="gini = 0.0\nsamples = 4\nvalue = [4, 0]\nclass = Acceptable"] ;
437 -> 438 ;
439 [label="scenecut <= 50.5\ngini = 0.444\nsamples = 6\nvalue = [4, 2]\nclass = Acceptable"] ;
437 -> 439 ;
440 [label="gini = 0.0\nsamples = 1\nvalue = [1, 0]\nclass = Acceptable"] ;
439 -> 440 ;
441 [label="qpSetting <= 25.5\ngini = 0.48\nsamples = 5\nvalue = [3, 2]\nclass = Acceptable"] ;
439 -> 441 ;
442 [label="aq_strength <= 1.05\ngini = 0.5\nsamples = 4\nvalue = [2, 2]\nclass = Acceptable"] ;
441 -> 442 ;
443 [label="gini = 0.5\nsamples = 2\nvalue = [1, 1]\nclass = Acceptable"] ;
442 -> 443 ;
444 [label="gini = 0.5\nsamples = 2\nvalue = [1, 1]\nclass = Acceptable"] ;
442 -> 444 ;
445 [label="gini = 0.0\nsamples = 1\nvalue = [1, 0]\nclass = Acceptable"] ;
441 -> 445 ;
446 [label="crf <= 0.5\ngini = 0.49\nsamples = 7\nvalue = [3, 4]\nclass = Non-acceptable"] ;
436 -> 446 ;
447 [label="scenecut <= 50.5\ngini = 0.375\nsamples = 4\nvalue = [3, 1]\nclass = Acceptable"] ;
446 -> 447 ;
448 [label="gini = 0.0\nsamples = 2\nvalue = [2, 0]\nclass = Acceptable"] ;
447 -> 448 ;
449 [label="gini = 0.5\nsamples = 2\nvalue = [1, 1]\nclass = Acceptable"] ;
447 -> 449 ;
450 [label="gini = 0.0\nsamples = 3\nvalue = [0, 3]\nclass = Non-acceptable"] ;
446 -> 450 ;
451 [label="scenecut <= 50.5\ngini = 0.48\nsamples = 20\nvalue = [8, 12]\nclass = Non-acceptable"] ;
435 -> 451 ;
452 [label="qpSetting <= 25.5\ngini = 0.494\nsamples = 9\nvalue = [5, 4]\nclass = Acceptable"] ;
451 -> 452 ;
453 [label="bframes <= 13.0\ngini = 0.32\nsamples = 5\nvalue = [4, 1]\nclass = Acceptable"] ;
452 -> 453 ;
454 [label="gini = 0.0\nsamples = 2\nvalue = [2, 0]\nclass = Acceptable"] ;
453 -> 454 ;
455 [label="Threads <= 64.5\ngini = 0.444\nsamples = 3\nvalue = [2, 1]\nclass = Acceptable"] ;
453 -> 455 ;
456 [label="gini = 0.0\nsamples = 1\nvalue = [1, 0]\nclass = Acceptable"] ;
455 -> 456 ;
457 [label="rc_lookahead <= 125.5\ngini = 0.5\nsamples = 2\nvalue = [1, 1]\nclass = Acceptable"] ;
455 -> 457 ;
458 [label="gini = 0.0\nsamples = 1\nvalue = [1, 0]\nclass = Acceptable"] ;
457 -> 458 ;
459 [label="gini = 0.0\nsamples = 1\nvalue = [0, 1]\nclass = Non-acceptable"] ;
457 -> 459 ;
460 [label="bframes <= 13.0\ngini = 0.375\nsamples = 4\nvalue = [1, 3]\nclass = Non-acceptable"] ;
452 -> 460 ;
461 [label="aq_strength <= 1.05\ngini = 0.5\nsamples = 2\nvalue = [1, 1]\nclass = Acceptable"] ;
460 -> 461 ;
462 [label="gini = 0.0\nsamples = 1\nvalue = [1, 0]\nclass = Acceptable"] ;
461 -> 462 ;
463 [label="gini = 0.0\nsamples = 1\nvalue = [0, 1]\nclass = Non-acceptable"] ;
461 -> 463 ;
464 [label="gini = 0.0\nsamples = 2\nvalue = [0, 2]\nclass = Non-acceptable"] ;
460 -> 464 ;
465 [label="qpSetting <= 25.5\ngini = 0.397\nsamples = 11\nvalue = [3, 8]\nclass = Non-acceptable"] ;
451 -> 465 ;
466 [label="Threads <= 64.5\ngini = 0.278\nsamples = 6\nvalue = [1, 5]\nclass = Non-acceptable"] ;
465 -> 466 ;
467 [label="gini = 0.0\nsamples = 3\nvalue = [0, 3]\nclass = Non-acceptable"] ;
466 -> 467 ;
468 [label="crf <= 0.5\ngini = 0.444\nsamples = 3\nvalue = [1, 2]\nclass = Non-acceptable"] ;
466 -> 468 ;
469 [label="gini = 0.0\nsamples = 1\nvalue = [1, 0]\nclass = Acceptable"] ;
468 -> 469 ;
470 [label="gini = 0.0\nsamples = 2\nvalue = [0, 2]\nclass = Non-acceptable"] ;
468 -> 470 ;
471 [label="qp <= 0.5\ngini = 0.48\nsamples = 5\nvalue = [2, 3]\nclass = Non-acceptable"] ;
465 -> 471 ;
472 [label="gini = 0.0\nsamples = 2\nvalue = [2, 0]\nclass = Acceptable"] ;
471 -> 472 ;
473 [label="gini = 0.0\nsamples = 3\nvalue = [0, 3]\nclass = Non-acceptable"] ;
471 -> 473 ;
474 [label="qpSetting <= 25.5\ngini = 0.464\nsamples = 41\nvalue = [15, 26]\nclass = Non-acceptable"] ;
434 -> 474 ;
475 [label="rc_lookahead <= 125.5\ngini = 0.291\nsamples = 17\nvalue = [3, 14]\nclass = Non-acceptable"] ;
474 -> 475 ;
476 [label="gini = 0.0\nsamples = 8\nvalue = [0, 8]\nclass = Non-acceptable"] ;
475 -> 476 ;
477 [label="scenecut <= 50.5\ngini = 0.444\nsamples = 9\nvalue = [3, 6]\nclass = Non-acceptable"] ;
475 -> 477 ;
478 [label="gini = 0.0\nsamples = 3\nvalue = [0, 3]\nclass = Non-acceptable"] ;
477 -> 478 ;
479 [label="bframes <= 13.0\ngini = 0.5\nsamples = 6\nvalue = [3, 3]\nclass = Acceptable"] ;
477 -> 479 ;
480 [label="crf <= 0.5\ngini = 0.375\nsamples = 4\nvalue = [1, 3]\nclass = Non-acceptable"] ;
479 -> 480 ;
481 [label="gini = 0.0\nsamples = 1\nvalue = [1, 0]\nclass = Acceptable"] ;
480 -> 481 ;
482 [label="gini = 0.0\nsamples = 3\nvalue = [0, 3]\nclass = Non-acceptable"] ;
480 -> 482 ;
483 [label="gini = 0.0\nsamples = 2\nvalue = [2, 0]\nclass = Acceptable"] ;
479 -> 483 ;
484 [label="bframes <= 13.0\ngini = 0.5\nsamples = 24\nvalue = [12, 12]\nclass = Acceptable"] ;
474 -> 484 ;
485 [label="Threads <= 64.5\ngini = 0.444\nsamples = 12\nvalue = [8, 4]\nclass = Acceptable"] ;
484 -> 485 ;
486 [label="gini = 0.0\nsamples = 4\nvalue = [4, 0]\nclass = Acceptable"] ;
485 -> 486 ;
487 [label="crf <= 0.5\ngini = 0.5\nsamples = 8\nvalue = [4, 4]\nclass = Acceptable"] ;
485 -> 487 ;
488 [label="aq_strength <= 1.05\ngini = 0.48\nsamples = 5\nvalue = [3, 2]\nclass = Acceptable"] ;
487 -> 488 ;
489 [label="gini = 0.0\nsamples = 3\nvalue = [3, 0]\nclass = Acceptable"] ;
488 -> 489 ;
490 [label="gini = 0.0\nsamples = 2\nvalue = [0, 2]\nclass = Non-acceptable"] ;
488 -> 490 ;
491 [label="aq_strength <= 1.05\ngini = 0.444\nsamples = 3\nvalue = [1, 2]\nclass = Non-acceptable"] ;
487 -> 491 ;
492 [label="gini = 0.0\nsamples = 2\nvalue = [0, 2]\nclass = Non-acceptable"] ;
491 -> 492 ;
493 [label="gini = 0.0\nsamples = 1\nvalue = [1, 0]\nclass = Acceptable"] ;
491 -> 493 ;
494 [label="scenecut <= 50.5\ngini = 0.444\nsamples = 12\nvalue = [4, 8]\nclass = Non-acceptable"] ;
484 -> 494 ;
495 [label="qp <= 0.5\ngini = 0.245\nsamples = 7\nvalue = [1, 6]\nclass = Non-acceptable"] ;
494 -> 495 ;
496 [label="Threads <= 64.5\ngini = 0.5\nsamples = 2\nvalue = [1, 1]\nclass = Acceptable"] ;
495 -> 496 ;
497 [label="gini = 0.0\nsamples = 1\nvalue = [1, 0]\nclass = Acceptable"] ;
496 -> 497 ;
498 [label="gini = 0.0\nsamples = 1\nvalue = [0, 1]\nclass = Non-acceptable"] ;
496 -> 498 ;
499 [label="gini = 0.0\nsamples = 5\nvalue = [0, 5]\nclass = Non-acceptable"] ;
495 -> 499 ;
500 [label="keyint <= 500.5\ngini = 0.48\nsamples = 5\nvalue = [3, 2]\nclass = Acceptable"] ;
494 -> 500 ;
501 [label="rc_lookahead <= 125.5\ngini = 0.444\nsamples = 3\nvalue = [1, 2]\nclass = Non-acceptable"] ;
500 -> 501 ;
502 [label="gini = 0.5\nsamples = 2\nvalue = [1, 1]\nclass = Acceptable"] ;
501 -> 502 ;
503 [label="gini = 0.0\nsamples = 1\nvalue = [0, 1]\nclass = Non-acceptable"] ;
501 -> 503 ;
504 [label="gini = 0.0\nsamples = 2\nvalue = [2, 0]\nclass = Acceptable"] ;
500 -> 504 ;
505 [label="qpSetting <= 25.5\ngini = 0.491\nsamples = 76\nvalue = [43, 33]\nclass = Acceptable"] ;
351 -> 505 ;
506 [label="qcomp <= 0.6\ngini = 0.5\nsamples = 40\nvalue = [20, 20]\nclass = Acceptable"] ;
505 -> 506 ;
507 [label="scenecut <= 50.5\ngini = 0.465\nsamples = 19\nvalue = [7, 12]\nclass = Non-acceptable"] ;
506 -> 507 ;
508 [label="b_bias <= 17.0\ngini = 0.198\nsamples = 9\nvalue = [1, 8]\nclass = Non-acceptable"] ;
507 -> 508 ;
509 [label="gini = 0.0\nsamples = 4\nvalue = [0, 4]\nclass = Non-acceptable"] ;
508 -> 509 ;
510 [label="aq_strength <= 1.05\ngini = 0.32\nsamples = 5\nvalue = [1, 4]\nclass = Non-acceptable"] ;
508 -> 510 ;
511 [label="gini = 0.0\nsamples = 2\nvalue = [0, 2]\nclass = Non-acceptable"] ;
510 -> 511 ;
512 [label="bframes <= 13.0\ngini = 0.444\nsamples = 3\nvalue = [1, 2]\nclass = Non-acceptable"] ;
510 -> 512 ;
513 [label="gini = 0.5\nsamples = 2\nvalue = [1, 1]\nclass = Acceptable"] ;
512 -> 513 ;
514 [label="gini = 0.0\nsamples = 1\nvalue = [0, 1]\nclass = Non-acceptable"] ;
512 -> 514 ;
515 [label="aq_strength <= 1.05\ngini = 0.48\nsamples = 10\nvalue = [6, 4]\nclass = Acceptable"] ;
507 -> 515 ;
516 [label="b_bias <= 17.0\ngini = 0.5\nsamples = 6\nvalue = [3, 3]\nclass = Acceptable"] ;
515 -> 516 ;
517 [label="rc_lookahead <= 125.5\ngini = 0.444\nsamples = 3\nvalue = [2, 1]\nclass = Acceptable"] ;
516 -> 517 ;
518 [label="gini = 0.0\nsamples = 1\nvalue = [1, 0]\nclass = Acceptable"] ;
517 -> 518 ;
519 [label="gini = 0.5\nsamples = 2\nvalue = [1, 1]\nclass = Acceptable"] ;
517 -> 519 ;
520 [label="bframes <= 13.0\ngini = 0.444\nsamples = 3\nvalue = [1, 2]\nclass = Non-acceptable"] ;
516 -> 520 ;
521 [label="gini = 0.0\nsamples = 2\nvalue = [0, 2]\nclass = Non-acceptable"] ;
520 -> 521 ;
522 [label="gini = 0.0\nsamples = 1\nvalue = [1, 0]\nclass = Acceptable"] ;
520 -> 522 ;
523 [label="keyint <= 500.5\ngini = 0.375\nsamples = 4\nvalue = [3, 1]\nclass = Acceptable"] ;
515 -> 523 ;
524 [label="gini = 0.0\nsamples = 1\nvalue = [0, 1]\nclass = Non-acceptable"] ;
523 -> 524 ;
525 [label="gini = 0.0\nsamples = 3\nvalue = [3, 0]\nclass = Acceptable"] ;
523 -> 525 ;
526 [label="b_bias <= 17.0\ngini = 0.472\nsamples = 21\nvalue = [13, 8]\nclass = Acceptable"] ;
506 -> 526 ;
527 [label="keyint <= 500.5\ngini = 0.408\nsamples = 14\nvalue = [10, 4]\nclass = Acceptable"] ;
526 -> 527 ;
528 [label="Threads <= 64.5\ngini = 0.463\nsamples = 11\nvalue = [7, 4]\nclass = Acceptable"] ;
527 -> 528 ;
529 [label="rc_lookahead <= 125.5\ngini = 0.48\nsamples = 5\nvalue = [2, 3]\nclass = Non-acceptable"] ;
528 -> 529 ;
530 [label="aq_strength <= 1.05\ngini = 0.444\nsamples = 3\nvalue = [1, 2]\nclass = Non-acceptable"] ;
529 -> 530 ;
531 [label="gini = 0.5\nsamples = 2\nvalue = [1, 1]\nclass = Acceptable"] ;
530 -> 531 ;
532 [label="gini = 0.0\nsamples = 1\nvalue = [0, 1]\nclass = Non-acceptable"] ;
530 -> 532 ;
533 [label="aq_strength <= 1.05\ngini = 0.5\nsamples = 2\nvalue = [1, 1]\nclass = Acceptable"] ;
529 -> 533 ;
534 [label="gini = 0.0\nsamples = 1\nvalue = [0, 1]\nclass = Non-acceptable"] ;
533 -> 534 ;
535 [label="gini = 0.0\nsamples = 1\nvalue = [1, 0]\nclass = Acceptable"] ;
533 -> 535 ;
536 [label="rc_lookahead <= 125.5\ngini = 0.278\nsamples = 6\nvalue = [5, 1]\nclass = Acceptable"] ;
528 -> 536 ;
537 [label="scenecut <= 50.5\ngini = 0.444\nsamples = 3\nvalue = [2, 1]\nclass = Acceptable"] ;
536 -> 537 ;
538 [label="gini = 0.0\nsamples = 1\nvalue = [1, 0]\nclass = Acceptable"] ;
537 -> 538 ;
539 [label="gini = 0.5\nsamples = 2\nvalue = [1, 1]\nclass = Acceptable"] ;
537 -> 539 ;
540 [label="gini = 0.0\nsamples = 3\nvalue = [3, 0]\nclass = Acceptable"] ;
536 -> 540 ;
541 [label="gini = 0.0\nsamples = 3\nvalue = [3, 0]\nclass = Acceptable"] ;
527 -> 541 ;
542 [label="bframes <= 13.0\ngini = 0.49\nsamples = 7\nvalue = [3, 4]\nclass = Non-acceptable"] ;
526 -> 542 ;
543 [label="scenecut <= 50.5\ngini = 0.444\nsamples = 3\nvalue = [1, 2]\nclass = Non-acceptable"] ;
542 -> 543 ;
544 [label="gini = 0.5\nsamples = 2\nvalue = [1, 1]\nclass = Acceptable"] ;
543 -> 544 ;
545 [label="gini = 0.0\nsamples = 1\nvalue = [0, 1]\nclass = Non-acceptable"] ;
543 -> 545 ;
546 [label="keyint <= 500.5\ngini = 0.5\nsamples = 4\nvalue = [2, 2]\nclass = Acceptable"] ;
542 -> 546 ;
547 [label="rc_lookahead <= 125.5\ngini = 0.444\nsamples = 3\nvalue = [2, 1]\nclass = Acceptable"] ;
546 -> 547 ;
548 [label="gini = 0.0\nsamples = 2\nvalue = [2, 0]\nclass = Acceptable"] ;
547 -> 548 ;
549 [label="gini = 0.0\nsamples = 1\nvalue = [0, 1]\nclass = Non-acceptable"] ;
547 -> 549 ;
550 [label="gini = 0.0\nsamples = 1\nvalue = [0, 1]\nclass = Non-acceptable"] ;
546 -> 550 ;
551 [label="rc_lookahead <= 125.5\ngini = 0.461\nsamples = 36\nvalue = [23, 13]\nclass = Acceptable"] ;
505 -> 551 ;
552 [label="scenecut <= 50.5\ngini = 0.375\nsamples = 16\nvalue = [12, 4]\nclass = Acceptable"] ;
551 -> 552 ;
553 [label="keyint <= 500.5\ngini = 0.198\nsamples = 9\nvalue = [8, 1]\nclass = Acceptable"] ;
552 -> 553 ;
554 [label="gini = 0.0\nsamples = 5\nvalue = [5, 0]\nclass = Acceptable"] ;
553 -> 554 ;
555 [label="bframes <= 13.0\ngini = 0.375\nsamples = 4\nvalue = [3, 1]\nclass = Acceptable"] ;
553 -> 555 ;
556 [label="gini = 0.0\nsamples = 2\nvalue = [2, 0]\nclass = Acceptable"] ;
555 -> 556 ;
557 [label="Threads <= 64.5\ngini = 0.5\nsamples = 2\nvalue = [1, 1]\nclass = Acceptable"] ;
555 -> 557 ;
558 [label="gini = 0.0\nsamples = 1\nvalue = [0, 1]\nclass = Non-acceptable"] ;
557 -> 558 ;
559 [label="gini = 0.0\nsamples = 1\nvalue = [1, 0]\nclass = Acceptable"] ;
557 -> 559 ;
560 [label="bframes <= 13.0\ngini = 0.49\nsamples = 7\nvalue = [4, 3]\nclass = Acceptable"] ;
552 -> 560 ;
561 [label="Threads <= 64.5\ngini = 0.375\nsamples = 4\nvalue = [1, 3]\nclass = Non-acceptable"] ;
560 -> 561 ;
562 [label="qcomp <= 0.6\ngini = 0.5\nsamples = 2\nvalue = [1, 1]\nclass = Acceptable"] ;
561 -> 562 ;
563 [label="gini = 0.0\nsamples = 1\nvalue = [0, 1]\nclass = Non-acceptable"] ;
562 -> 563 ;
564 [label="gini = 0.0\nsamples = 1\nvalue = [1, 0]\nclass = Acceptable"] ;
562 -> 564 ;
565 [label="gini = 0.0\nsamples = 2\nvalue = [0, 2]\nclass = Non-acceptable"] ;
561 -> 565 ;
566 [label="gini = 0.0\nsamples = 3\nvalue = [3, 0]\nclass = Acceptable"] ;
560 -> 566 ;
567 [label="aq_strength <= 1.05\ngini = 0.495\nsamples = 20\nvalue = [11, 9]\nclass = Acceptable"] ;
551 -> 567 ;
568 [label="bframes <= 13.0\ngini = 0.444\nsamples = 9\nvalue = [3, 6]\nclass = Non-acceptable"] ;
567 -> 568 ;
569 [label="Threads <= 64.5\ngini = 0.5\nsamples = 6\nvalue = [3, 3]\nclass = Acceptable"] ;
568 -> 569 ;
570 [label="gini = 0.0\nsamples = 2\nvalue = [0, 2]\nclass = Non-acceptable"] ;
569 -> 570 ;
571 [label="qcomp <= 0.6\ngini = 0.375\nsamples = 4\nvalue = [3, 1]\nclass = Acceptable"] ;
569 -> 571 ;
572 [label="b_bias <= 17.0\ngini = 0.444\nsamples = 3\nvalue = [2, 1]\nclass = Acceptable"] ;
571 -> 572 ;
573 [label="gini = 0.5\nsamples = 2\nvalue = [1, 1]\nclass = Acceptable"] ;
572 -> 573 ;
574 [label="gini = 0.0\nsamples = 1\nvalue = [1, 0]\nclass = Acceptable"] ;
572 -> 574 ;
575 [label="gini = 0.0\nsamples = 1\nvalue = [1, 0]\nclass = Acceptable"] ;
571 -> 575 ;
576 [label="gini = 0.0\nsamples = 3\nvalue = [0, 3]\nclass = Non-acceptable"] ;
568 -> 576 ;
577 [label="scenecut <= 50.5\ngini = 0.397\nsamples = 11\nvalue = [8, 3]\nclass = Acceptable"] ;
567 -> 577 ;
578 [label="bframes <= 13.0\ngini = 0.5\nsamples = 6\nvalue = [3, 3]\nclass = Acceptable"] ;
577 -> 578 ;
579 [label="b_bias <= 17.0\ngini = 0.375\nsamples = 4\nvalue = [3, 1]\nclass = Acceptable"] ;
578 -> 579 ;
580 [label="qcomp <= 0.6\ngini = 0.5\nsamples = 2\nvalue = [1, 1]\nclass = Acceptable"] ;
579 -> 580 ;
581 [label="gini = 0.0\nsamples = 1\nvalue = [1, 0]\nclass = Acceptable"] ;
580 -> 581 ;
582 [label="gini = 0.0\nsamples = 1\nvalue = [0, 1]\nclass = Non-acceptable"] ;
580 -> 582 ;
583 [label="gini = 0.0\nsamples = 2\nvalue = [2, 0]\nclass = Acceptable"] ;
579 -> 583 ;
584 [label="gini = 0.0\nsamples = 2\nvalue = [0, 2]\nclass = Non-acceptable"] ;
578 -> 584 ;
585 [label="gini = 0.0\nsamples = 5\nvalue = [5, 0]\nclass = Acceptable"] ;
577 -> 585 ;
586 [label="rc_lookahead <= 125.5\ngini = 0.488\nsamples = 71\nvalue = [30, 41]\nclass = Non-acceptable"] ;
350 -> 586 ;
587 [label="keyint <= 500.5\ngini = 0.5\nsamples = 37\nvalue = [19, 18]\nclass = Acceptable"] ;
586 -> 587 ;
588 [label="Threads <= 64.5\ngini = 0.48\nsamples = 20\nvalue = [8, 12]\nclass = Non-acceptable"] ;
587 -> 588 ;
589 [label="scenecut <= 50.5\ngini = 0.32\nsamples = 5\nvalue = [4, 1]\nclass = Acceptable"] ;
588 -> 589 ;
590 [label="gini = 0.0\nsamples = 2\nvalue = [2, 0]\nclass = Acceptable"] ;
589 -> 590 ;
591 [label="bframes <= 13.0\ngini = 0.444\nsamples = 3\nvalue = [2, 1]\nclass = Acceptable"] ;
589 -> 591 ;
592 [label="gini = 0.0\nsamples = 1\nvalue = [0, 1]\nclass = Non-acceptable"] ;
591 -> 592 ;
593 [label="gini = 0.0\nsamples = 2\nvalue = [2, 0]\nclass = Acceptable"] ;
591 -> 593 ;
594 [label="b_bias <= 17.0\ngini = 0.391\nsamples = 15\nvalue = [4, 11]\nclass = Non-acceptable"] ;
588 -> 594 ;
595 [label="aq_strength <= 1.05\ngini = 0.48\nsamples = 10\nvalue = [4, 6]\nclass = Non-acceptable"] ;
594 -> 595 ;
596 [label="qpSetting <= 25.5\ngini = 0.48\nsamples = 5\nvalue = [3, 2]\nclass = Acceptable"] ;
595 -> 596 ;
597 [label="gini = 0.0\nsamples = 2\nvalue = [2, 0]\nclass = Acceptable"] ;
596 -> 597 ;
598 [label="bframes <= 13.0\ngini = 0.444\nsamples = 3\nvalue = [1, 2]\nclass = Non-acceptable"] ;
596 -> 598 ;
599 [label="gini = 0.0\nsamples = 1\nvalue = [1, 0]\nclass = Acceptable"] ;
598 -> 599 ;
600 [label="gini = 0.0\nsamples = 2\nvalue = [0, 2]\nclass = Non-acceptable"] ;
598 -> 600 ;
601 [label="bframes <= 13.0\ngini = 0.32\nsamples = 5\nvalue = [1, 4]\nclass = Non-acceptable"] ;
595 -> 601 ;
602 [label="qcomp <= 0.6\ngini = 0.444\nsamples = 3\nvalue = [1, 2]\nclass = Non-acceptable"] ;
601 -> 602 ;
603 [label="gini = 0.0\nsamples = 2\nvalue = [0, 2]\nclass = Non-acceptable"] ;
602 -> 603 ;
604 [label="gini = 0.0\nsamples = 1\nvalue = [1, 0]\nclass = Acceptable"] ;
602 -> 604 ;
605 [label="gini = 0.0\nsamples = 2\nvalue = [0, 2]\nclass = Non-acceptable"] ;
601 -> 605 ;
606 [label="gini = 0.0\nsamples = 5\nvalue = [0, 5]\nclass = Non-acceptable"] ;
594 -> 606 ;
607 [label="bframes <= 13.0\ngini = 0.457\nsamples = 17\nvalue = [11, 6]\nclass = Acceptable"] ;
587 -> 607 ;
608 [label="Threads <= 64.5\ngini = 0.48\nsamples = 5\nvalue = [2, 3]\nclass = Non-acceptable"] ;
607 -> 608 ;
609 [label="qcomp <= 0.6\ngini = 0.375\nsamples = 4\nvalue = [1, 3]\nclass = Non-acceptable"] ;
608 -> 609 ;
610 [label="gini = 0.0\nsamples = 1\nvalue = [0, 1]\nclass = Non-acceptable"] ;
609 -> 610 ;
611 [label="b_bias <= 17.0\ngini = 0.444\nsamples = 3\nvalue = [1, 2]\nclass = Non-acceptable"] ;
609 -> 611 ;
612 [label="gini = 0.5\nsamples = 2\nvalue = [1, 1]\nclass = Acceptable"] ;
611 -> 612 ;
613 [label="gini = 0.0\nsamples = 1\nvalue = [0, 1]\nclass = Non-acceptable"] ;
611 -> 613 ;
614 [label="gini = 0.0\nsamples = 1\nvalue = [1, 0]\nclass = Acceptable"] ;
608 -> 614 ;
615 [label="b_bias <= 17.0\ngini = 0.375\nsamples = 12\nvalue = [9, 3]\nclass = Acceptable"] ;
607 -> 615 ;
616 [label="scenecut <= 50.5\ngini = 0.219\nsamples = 8\nvalue = [7, 1]\nclass = Acceptable"] ;
615 -> 616 ;
617 [label="gini = 0.0\nsamples = 4\nvalue = [4, 0]\nclass = Acceptable"] ;
616 -> 617 ;
618 [label="qcomp <= 0.6\ngini = 0.375\nsamples = 4\nvalue = [3, 1]\nclass = Acceptable"] ;
616 -> 618 ;
619 [label="gini = 0.0\nsamples = 3\nvalue = [3, 0]\nclass = Acceptable"] ;
618 -> 619 ;
620 [label="gini = 0.0\nsamples = 1\nvalue = [0, 1]\nclass = Non-acceptable"] ;
618 -> 620 ;
621 [label="scenecut <= 50.5\ngini = 0.5\nsamples = 4\nvalue = [2, 2]\nclass = Acceptable"] ;
615 -> 621 ;
622 [label="qcomp <= 0.6\ngini = 0.444\nsamples = 3\nvalue = [1, 2]\nclass = Non-acceptable"] ;
621 -> 622 ;
623 [label="qpSetting <= 25.5\ngini = 0.5\nsamples = 2\nvalue = [1, 1]\nclass = Acceptable"] ;
622 -> 623 ;
624 [label="gini = 0.0\nsamples = 1\nvalue = [0, 1]\nclass = Non-acceptable"] ;
623 -> 624 ;
625 [label="gini = 0.0\nsamples = 1\nvalue = [1, 0]\nclass = Acceptable"] ;
623 -> 625 ;
626 [label="gini = 0.0\nsamples = 1\nvalue = [0, 1]\nclass = Non-acceptable"] ;
622 -> 626 ;
627 [label="gini = 0.0\nsamples = 1\nvalue = [1, 0]\nclass = Acceptable"] ;
621 -> 627 ;
628 [label="qcomp <= 0.6\ngini = 0.438\nsamples = 34\nvalue = [11, 23]\nclass = Non-acceptable"] ;
586 -> 628 ;
629 [label="Threads <= 64.5\ngini = 0.5\nsamples = 12\nvalue = [6, 6]\nclass = Acceptable"] ;
628 -> 629 ;
630 [label="aq_strength <= 1.05\ngini = 0.32\nsamples = 5\nvalue = [4, 1]\nclass = Acceptable"] ;
629 -> 630 ;
631 [label="gini = 0.0\nsamples = 3\nvalue = [3, 0]\nclass = Acceptable"] ;
630 -> 631 ;
632 [label="b_bias <= 17.0\ngini = 0.5\nsamples = 2\nvalue = [1, 1]\nclass = Acceptable"] ;
630 -> 632 ;
633 [label="gini = 0.0\nsamples = 1\nvalue = [1, 0]\nclass = Acceptable"] ;
632 -> 633 ;
634 [label="gini = 0.0\nsamples = 1\nvalue = [0, 1]\nclass = Non-acceptable"] ;
632 -> 634 ;
635 [label="scenecut <= 50.5\ngini = 0.408\nsamples = 7\nvalue = [2, 5]\nclass = Non-acceptable"] ;
629 -> 635 ;
636 [label="gini = 0.0\nsamples = 2\nvalue = [0, 2]\nclass = Non-acceptable"] ;
635 -> 636 ;
637 [label="bframes <= 13.0\ngini = 0.48\nsamples = 5\nvalue = [2, 3]\nclass = Non-acceptable"] ;
635 -> 637 ;
638 [label="gini = 0.0\nsamples = 1\nvalue = [0, 1]\nclass = Non-acceptable"] ;
637 -> 638 ;
639 [label="keyint <= 500.5\ngini = 0.5\nsamples = 4\nvalue = [2, 2]\nclass = Acceptable"] ;
637 -> 639 ;
640 [label="aq_strength <= 1.05\ngini = 0.444\nsamples = 3\nvalue = [1, 2]\nclass = Non-acceptable"] ;
639 -> 640 ;
641 [label="gini = 0.0\nsamples = 1\nvalue = [0, 1]\nclass = Non-acceptable"] ;
640 -> 641 ;
642 [label="b_bias <= 17.0\ngini = 0.5\nsamples = 2\nvalue = [1, 1]\nclass = Acceptable"] ;
640 -> 642 ;
643 [label="gini = 0.0\nsamples = 1\nvalue = [0, 1]\nclass = Non-acceptable"] ;
642 -> 643 ;
644 [label="gini = 0.0\nsamples = 1\nvalue = [1, 0]\nclass = Acceptable"] ;
642 -> 644 ;
645 [label="gini = 0.0\nsamples = 1\nvalue = [1, 0]\nclass = Acceptable"] ;
639 -> 645 ;
646 [label="qpSetting <= 25.5\ngini = 0.351\nsamples = 22\nvalue = [5, 17]\nclass = Non-acceptable"] ;
628 -> 646 ;
647 [label="scenecut <= 50.5\ngini = 0.444\nsamples = 12\nvalue = [4, 8]\nclass = Non-acceptable"] ;
646 -> 647 ;
648 [label="aq_strength <= 1.05\ngini = 0.444\nsamples = 3\nvalue = [2, 1]\nclass = Acceptable"] ;
647 -> 648 ;
649 [label="gini = 0.0\nsamples = 2\nvalue = [2, 0]\nclass = Acceptable"] ;
648 -> 649 ;
650 [label="gini = 0.0\nsamples = 1\nvalue = [0, 1]\nclass = Non-acceptable"] ;
648 -> 650 ;
651 [label="aq_strength <= 1.05\ngini = 0.346\nsamples = 9\nvalue = [2, 7]\nclass = Non-acceptable"] ;
647 -> 651 ;
652 [label="keyint <= 500.5\ngini = 0.278\nsamples = 6\nvalue = [1, 5]\nclass = Non-acceptable"] ;
651 -> 652 ;
653 [label="gini = 0.0\nsamples = 3\nvalue = [0, 3]\nclass = Non-acceptable"] ;
652 -> 653 ;
654 [label="bframes <= 13.0\ngini = 0.444\nsamples = 3\nvalue = [1, 2]\nclass = Non-acceptable"] ;
652 -> 654 ;
655 [label="gini = 0.0\nsamples = 1\nvalue = [0, 1]\nclass = Non-acceptable"] ;
654 -> 655 ;
656 [label="gini = 0.5\nsamples = 2\nvalue = [1, 1]\nclass = Acceptable"] ;
654 -> 656 ;
657 [label="b_bias <= 17.0\ngini = 0.444\nsamples = 3\nvalue = [1, 2]\nclass = Non-acceptable"] ;
651 -> 657 ;
658 [label="gini = 0.0\nsamples = 1\nvalue = [0, 1]\nclass = Non-acceptable"] ;
657 -> 658 ;
659 [label="keyint <= 500.5\ngini = 0.5\nsamples = 2\nvalue = [1, 1]\nclass = Acceptable"] ;
657 -> 659 ;
660 [label="gini = 0.0\nsamples = 1\nvalue = [1, 0]\nclass = Acceptable"] ;
659 -> 660 ;
661 [label="gini = 0.0\nsamples = 1\nvalue = [0, 1]\nclass = Non-acceptable"] ;
659 -> 661 ;
662 [label="b_bias <= 17.0\ngini = 0.18\nsamples = 10\nvalue = [1, 9]\nclass = Non-acceptable"] ;
646 -> 662 ;
663 [label="gini = 0.0\nsamples = 6\nvalue = [0, 6]\nclass = Non-acceptable"] ;
662 -> 663 ;
664 [label="keyint <= 500.5\ngini = 0.375\nsamples = 4\nvalue = [1, 3]\nclass = Non-acceptable"] ;
662 -> 664 ;
665 [label="aq_strength <= 1.05\ngini = 0.5\nsamples = 2\nvalue = [1, 1]\nclass = Acceptable"] ;
664 -> 665 ;
666 [label="gini = 0.0\nsamples = 1\nvalue = [1, 0]\nclass = Acceptable"] ;
665 -> 666 ;
667 [label="gini = 0.0\nsamples = 1\nvalue = [0, 1]\nclass = Non-acceptable"] ;
665 -> 667 ;
668 [label="gini = 0.0\nsamples = 2\nvalue = [0, 2]\nclass = Non-acceptable"] ;
664 -> 668 ;
669 [label="keyint <= 500.5\ngini = 0.5\nsamples = 575\nvalue = [287, 288]\nclass = Non-acceptable"] ;
25 -> 669 ;
670 [label="bframes <= 13.0\ngini = 0.497\nsamples = 268\nvalue = [124, 144]\nclass = Non-acceptable"] ;
669 -> 670 ;
671 [label="rc_lookahead <= 125.5\ngini = 0.479\nsamples = 126\nvalue = [50, 76]\nclass = Non-acceptable"] ;
670 -> 671 ;
672 [label="ipratio <= 1.05\ngini = 0.437\nsamples = 65\nvalue = [21, 44]\nclass = Non-acceptable"] ;
671 -> 672 ;
673 [label="scenecut <= 50.5\ngini = 0.49\nsamples = 35\nvalue = [15, 20]\nclass = Non-acceptable"] ;
672 -> 673 ;
674 [label="no_cabac <= 0.5\ngini = 0.5\nsamples = 20\nvalue = [10, 10]\nclass = Acceptable"] ;
673 -> 674 ;
675 [label="no_scenecut <= 0.5\ngini = 0.484\nsamples = 17\nvalue = [10, 7]\nclass = Acceptable"] ;
674 -> 675 ;
676 [label="qpSetting <= 25.5\ngini = 0.375\nsamples = 12\nvalue = [9, 3]\nclass = Acceptable"] ;
675 -> 676 ;
677 [label="aq_strength <= 1.05\ngini = 0.278\nsamples = 6\nvalue = [5, 1]\nclass = Acceptable"] ;
676 -> 677 ;
678 [label="gini = 0.0\nsamples = 3\nvalue = [3, 0]\nclass = Acceptable"] ;
677 -> 678 ;
679 [label="b_bias <= 17.0\ngini = 0.444\nsamples = 3\nvalue = [2, 1]\nclass = Acceptable"] ;
677 -> 679 ;
680 [label="crf <= 0.5\ngini = 0.5\nsamples = 2\nvalue = [1, 1]\nclass = Acceptable"] ;
679 -> 680 ;
681 [label="gini = 0.0\nsamples = 1\nvalue = [0, 1]\nclass = Non-acceptable"] ;
680 -> 681 ;
682 [label="gini = 0.0\nsamples = 1\nvalue = [1, 0]\nclass = Acceptable"] ;
680 -> 682 ;
683 [label="gini = 0.0\nsamples = 1\nvalue = [1, 0]\nclass = Acceptable"] ;
679 -> 683 ;
684 [label="Threads <= 64.5\ngini = 0.444\nsamples = 6\nvalue = [4, 2]\nclass = Acceptable"] ;
676 -> 684 ;
685 [label="gini = 0.0\nsamples = 1\nvalue = [1, 0]\nclass = Acceptable"] ;
684 -> 685 ;
686 [label="crf <= 0.5\ngini = 0.48\nsamples = 5\nvalue = [3, 2]\nclass = Acceptable"] ;
684 -> 686 ;
687 [label="b_bias <= 17.0\ngini = 0.444\nsamples = 3\nvalue = [2, 1]\nclass = Acceptable"] ;
686 -> 687 ;
688 [label="gini = 0.0\nsamples = 2\nvalue = [2, 0]\nclass = Acceptable"] ;
687 -> 688 ;
689 [label="gini = 0.0\nsamples = 1\nvalue = [0, 1]\nclass = Non-acceptable"] ;
687 -> 689 ;
690 [label="qcomp <= 0.6\ngini = 0.5\nsamples = 2\nvalue = [1, 1]\nclass = Acceptable"] ;
686 -> 690 ;
691 [label="gini = 0.0\nsamples = 1\nvalue = [0, 1]\nclass = Non-acceptable"] ;
690 -> 691 ;
692 [label="gini = 0.0\nsamples = 1\nvalue = [1, 0]\nclass = Acceptable"] ;
690 -> 692 ;
693 [label="b_bias <= 17.0\ngini = 0.32\nsamples = 5\nvalue = [1, 4]\nclass = Non-acceptable"] ;
675 -> 693 ;
694 [label="gini = 0.0\nsamples = 3\nvalue = [0, 3]\nclass = Non-acceptable"] ;
693 -> 694 ;
695 [label="aq_strength <= 1.05\ngini = 0.5\nsamples = 2\nvalue = [1, 1]\nclass = Acceptable"] ;
693 -> 695 ;
696 [label="gini = 0.0\nsamples = 1\nvalue = [1, 0]\nclass = Acceptable"] ;
695 -> 696 ;
697 [label="gini = 0.0\nsamples = 1\nvalue = [0, 1]\nclass = Non-acceptable"] ;
695 -> 697 ;
698 [label="gini = 0.0\nsamples = 3\nvalue = [0, 3]\nclass = Non-acceptable"] ;
674 -> 698 ;
699 [label="aq_strength <= 1.05\ngini = 0.444\nsamples = 15\nvalue = [5, 10]\nclass = Non-acceptable"] ;
673 -> 699 ;
700 [label="gini = 0.0\nsamples = 6\nvalue = [0, 6]\nclass = Non-acceptable"] ;
699 -> 700 ;
701 [label="no_cabac <= 0.5\ngini = 0.494\nsamples = 9\nvalue = [5, 4]\nclass = Acceptable"] ;
699 -> 701 ;
702 [label="Threads <= 64.5\ngini = 0.48\nsamples = 5\nvalue = [2, 3]\nclass = Non-acceptable"] ;
701 -> 702 ;
703 [label="qcomp <= 0.6\ngini = 0.5\nsamples = 4\nvalue = [2, 2]\nclass = Acceptable"] ;
702 -> 703 ;
704 [label="gini = 0.0\nsamples = 1\nvalue = [1, 0]\nclass = Acceptable"] ;
703 -> 704 ;
705 [label="qpSetting <= 25.5\ngini = 0.444\nsamples = 3\nvalue = [1, 2]\nclass = Non-acceptable"] ;
703 -> 705 ;
706 [label="gini = 0.5\nsamples = 2\nvalue = [1, 1]\nclass = Acceptable"] ;
705 -> 706 ;
707 [label="gini = 0.0\nsamples = 1\nvalue = [0, 1]\nclass = Non-acceptable"] ;
705 -> 707 ;
708 [label="gini = 0.0\nsamples = 1\nvalue = [0, 1]\nclass = Non-acceptable"] ;
702 -> 708 ;
709 [label="qpSetting <= 25.5\ngini = 0.375\nsamples = 4\nvalue = [3, 1]\nclass = Acceptable"] ;
701 -> 709 ;
710 [label="gini = 0.0\nsamples = 2\nvalue = [2, 0]\nclass = Acceptable"] ;
709 -> 710 ;
711 [label="b_bias <= 17.0\ngini = 0.5\nsamples = 2\nvalue = [1, 1]\nclass = Acceptable"] ;
709 -> 711 ;
712 [label="gini = 0.0\nsamples = 1\nvalue = [0, 1]\nclass = Non-acceptable"] ;
711 -> 712 ;
713 [label="gini = 0.0\nsamples = 1\nvalue = [1, 0]\nclass = Acceptable"] ;
711 -> 713 ;
714 [label="Threads <= 64.5\ngini = 0.32\nsamples = 30\nvalue = [6, 24]\nclass = Non-acceptable"] ;
672 -> 714 ;
715 [label="qp <= 0.5\ngini = 0.198\nsamples = 18\nvalue = [2, 16]\nclass = Non-acceptable"] ;
714 -> 715 ;
716 [label="aq_strength <= 1.05\ngini = 0.375\nsamples = 4\nvalue = [1, 3]\nclass = Non-acceptable"] ;
715 -> 716 ;
717 [label="gini = 0.0\nsamples = 2\nvalue = [0, 2]\nclass = Non-acceptable"] ;
716 -> 717 ;
718 [label="b_bias <= 17.0\ngini = 0.5\nsamples = 2\nvalue = [1, 1]\nclass = Acceptable"] ;
716 -> 718 ;
719 [label="gini = 0.0\nsamples = 1\nvalue = [0, 1]\nclass = Non-acceptable"] ;
718 -> 719 ;
720 [label="gini = 0.0\nsamples = 1\nvalue = [1, 0]\nclass = Acceptable"] ;
718 -> 720 ;
721 [label="no_cabac <= 0.5\ngini = 0.133\nsamples = 14\nvalue = [1, 13]\nclass = Non-acceptable"] ;
715 -> 721 ;
722 [label="gini = 0.0\nsamples = 9\nvalue = [0, 9]\nclass = Non-acceptable"] ;
721 -> 722 ;
723 [label="b_bias <= 17.0\ngini = 0.32\nsamples = 5\nvalue = [1, 4]\nclass = Non-acceptable"] ;
721 -> 723 ;
724 [label="qcomp <= 0.6\ngini = 0.5\nsamples = 2\nvalue = [1, 1]\nclass = Acceptable"] ;
723 -> 724 ;
725 [label="gini = 0.0\nsamples = 1\nvalue = [1, 0]\nclass = Acceptable"] ;
724 -> 725 ;
726 [label="gini = 0.0\nsamples = 1\nvalue = [0, 1]\nclass = Non-acceptable"] ;
724 -> 726 ;
727 [label="gini = 0.0\nsamples = 3\nvalue = [0, 3]\nclass = Non-acceptable"] ;
723 -> 727 ;
728 [label="scenecut <= 50.5\ngini = 0.444\nsamples = 12\nvalue = [4, 8]\nclass = Non-acceptable"] ;
714 -> 728 ;
729 [label="no_scenecut <= 0.5\ngini = 0.5\nsamples = 6\nvalue = [3, 3]\nclass = Acceptable"] ;
728 -> 729 ;
730 [label="aq_strength <= 1.05\ngini = 0.375\nsamples = 4\nvalue = [1, 3]\nclass = Non-acceptable"] ;
729 -> 730 ;
731 [label="no_cabac <= 0.5\ngini = 0.5\nsamples = 2\nvalue = [1, 1]\nclass = Acceptable"] ;
730 -> 731 ;
732 [label="gini = 0.0\nsamples = 1\nvalue = [0, 1]\nclass = Non-acceptable"] ;
731 -> 732 ;
733 [label="gini = 0.0\nsamples = 1\nvalue = [1, 0]\nclass = Acceptable"] ;
731 -> 733 ;
734 [label="gini = 0.0\nsamples = 2\nvalue = [0, 2]\nclass = Non-acceptable"] ;
730 -> 734 ;
735 [label="gini = 0.0\nsamples = 2\nvalue = [2, 0]\nclass = Acceptable"] ;
729 -> 735 ;
736 [label="aq_strength <= 1.05\ngini = 0.278\nsamples = 6\nvalue = [1, 5]\nclass = Non-acceptable"] ;
728 -> 736 ;
737 [label="gini = 0.0\nsamples = 3\nvalue = [0, 3]\nclass = Non-acceptable"] ;
736 -> 737 ;
738 [label="b_bias <= 17.0\ngini = 0.444\nsamples = 3\nvalue = [1, 2]\nclass = Non-acceptable"] ;
736 -> 738 ;
739 [label="gini = 0.0\nsamples = 2\nvalue = [0, 2]\nclass = Non-acceptable"] ;
738 -> 739 ;
740 [label="gini = 0.0\nsamples = 1\nvalue = [1, 0]\nclass = Acceptable"] ;
738 -> 740 ;
741 [label="qcomp <= 0.6\ngini = 0.499\nsamples = 61\nvalue = [29, 32]\nclass = Non-acceptable"] ;
671 -> 741 ;
742 [label="ipratio <= 1.05\ngini = 0.461\nsamples = 25\nvalue = [9, 16]\nclass = Non-acceptable"] ;
741 -> 742 ;
743 [label="qpSetting <= 25.5\ngini = 0.498\nsamples = 15\nvalue = [8, 7]\nclass = Acceptable"] ;
742 -> 743 ;
744 [label="no_cabac <= 0.5\ngini = 0.32\nsamples = 5\nvalue = [4, 1]\nclass = Acceptable"] ;
743 -> 744 ;
745 [label="gini = 0.0\nsamples = 4\nvalue = [4, 0]\nclass = Acceptable"] ;
744 -> 745 ;
746 [label="gini = 0.0\nsamples = 1\nvalue = [0, 1]\nclass = Non-acceptable"] ;
744 -> 746 ;
747 [label="aq_strength <= 1.05\ngini = 0.48\nsamples = 10\nvalue = [4, 6]\nclass = Non-acceptable"] ;
743 -> 747 ;
748 [label="gini = 0.0\nsamples = 4\nvalue = [0, 4]\nclass = Non-acceptable"] ;
747 -> 748 ;
749 [label="scenecut <= 50.5\ngini = 0.444\nsamples = 6\nvalue = [4, 2]\nclass = Acceptable"] ;
747 -> 749 ;
750 [label="no_cabac <= 0.5\ngini = 0.32\nsamples = 5\nvalue = [4, 1]\nclass = Acceptable"] ;
749 -> 750 ;
751 [label="gini = 0.0\nsamples = 2\nvalue = [2, 0]\nclass = Acceptable"] ;
750 -> 751 ;
752 [label="Threads <= 64.5\ngini = 0.444\nsamples = 3\nvalue = [2, 1]\nclass = Acceptable"] ;
750 -> 752 ;
753 [label="gini = 0.5\nsamples = 2\nvalue = [1, 1]\nclass = Acceptable"] ;
752 -> 753 ;
754 [label="gini = 0.0\nsamples = 1\nvalue = [1, 0]\nclass = Acceptable"] ;
752 -> 754 ;
755 [label="gini = 0.0\nsamples = 1\nvalue = [0, 1]\nclass = Non-acceptable"] ;
749 -> 755 ;
756 [label="no_cabac <= 0.5\ngini = 0.18\nsamples = 10\nvalue = [1, 9]\nclass = Non-acceptable"] ;
742 -> 756 ;
757 [label="gini = 0.0\nsamples = 9\nvalue = [0, 9]\nclass = Non-acceptable"] ;
756 -> 757 ;
758 [label="gini = 0.0\nsamples = 1\nvalue = [1, 0]\nclass = Acceptable"] ;
756 -> 758 ;
759 [label="scenecut <= 50.5\ngini = 0.494\nsamples = 36\nvalue = [20, 16]\nclass = Acceptable"] ;
741 -> 759 ;
760 [label="qpSetting <= 25.5\ngini = 0.49\nsamples = 21\nvalue = [9, 12]\nclass = Non-acceptable"] ;
759 -> 760 ;
761 [label="aq_strength <= 1.05\ngini = 0.375\nsamples = 8\nvalue = [2, 6]\nclass = Non-acceptable"] ;
760 -> 761 ;
762 [label="qp <= 0.5\ngini = 0.48\nsamples = 5\nvalue = [2, 3]\nclass = Non-acceptable"] ;
761 -> 762 ;
763 [label="gini = 0.0\nsamples = 2\nvalue = [0, 2]\nclass = Non-acceptable"] ;
762 -> 763 ;
764 [label="no_scenecut <= 0.5\ngini = 0.444\nsamples = 3\nvalue = [2, 1]\nclass = Acceptable"] ;
762 -> 764 ;
765 [label="gini = 0.0\nsamples = 1\nvalue = [1, 0]\nclass = Acceptable"] ;
764 -> 765 ;
766 [label="Threads <= 64.5\ngini = 0.5\nsamples = 2\nvalue = [1, 1]\nclass = Acceptable"] ;
764 -> 766 ;
767 [label="gini = 0.0\nsamples = 1\nvalue = [1, 0]\nclass = Acceptable"] ;
766 -> 767 ;
768 [label="gini = 0.0\nsamples = 1\nvalue = [0, 1]\nclass = Non-acceptable"] ;
766 -> 768 ;
769 [label="gini = 0.0\nsamples = 3\nvalue = [0, 3]\nclass = Non-acceptable"] ;
761 -> 769 ;
770 [label="aq_strength <= 1.05\ngini = 0.497\nsamples = 13\nvalue = [7, 6]\nclass = Acceptable"] ;
760 -> 770 ;
771 [label="b_bias <= 17.0\ngini = 0.469\nsamples = 8\nvalue = [3, 5]\nclass = Non-acceptable"] ;
770 -> 771 ;
772 [label="gini = 0.0\nsamples = 3\nvalue = [0, 3]\nclass = Non-acceptable"] ;
771 -> 772 ;
773 [label="crf <= 0.5\ngini = 0.48\nsamples = 5\nvalue = [3, 2]\nclass = Acceptable"] ;
771 -> 773 ;
774 [label="gini = 0.5\nsamples = 2\nvalue = [1, 1]\nclass = Acceptable"] ;
773 -> 774 ;
775 [label="Threads <= 64.5\ngini = 0.444\nsamples = 3\nvalue = [2, 1]\nclass = Acceptable"] ;
773 -> 775 ;
776 [label="gini = 0.5\nsamples = 2\nvalue = [1, 1]\nclass = Acceptable"] ;
775 -> 776 ;
777 [label="gini = 0.0\nsamples = 1\nvalue = [1, 0]\nclass = Acceptable"] ;
775 -> 777 ;
778 [label="no_scenecut <= 0.5\ngini = 0.32\nsamples = 5\nvalue = [4, 1]\nclass = Acceptable"] ;
770 -> 778 ;
779 [label="gini = 0.0\nsamples = 3\nvalue = [3, 0]\nclass = Acceptable"] ;
778 -> 779 ;
780 [label="ipratio <= 1.05\ngini = 0.5\nsamples = 2\nvalue = [1, 1]\nclass = Acceptable"] ;
778 -> 780 ;
781 [label="gini = 0.0\nsamples = 1\nvalue = [0, 1]\nclass = Non-acceptable"] ;
780 -> 781 ;
782 [label="gini = 0.0\nsamples = 1\nvalue = [1, 0]\nclass = Acceptable"] ;
780 -> 782 ;
783 [label="no_cabac <= 0.5\ngini = 0.391\nsamples = 15\nvalue = [11, 4]\nclass = Acceptable"] ;
759 -> 783 ;
784 [label="no_scenecut <= 0.5\ngini = 0.463\nsamples = 11\nvalue = [7, 4]\nclass = Acceptable"] ;
783 -> 784 ;
785 [label="qp <= 0.5\ngini = 0.49\nsamples = 7\nvalue = [3, 4]\nclass = Non-acceptable"] ;
784 -> 785 ;
786 [label="Threads <= 64.5\ngini = 0.48\nsamples = 5\nvalue = [3, 2]\nclass = Acceptable"] ;
785 -> 786 ;
787 [label="gini = 0.0\nsamples = 2\nvalue = [2, 0]\nclass = Acceptable"] ;
786 -> 787 ;
788 [label="aq_strength <= 1.05\ngini = 0.444\nsamples = 3\nvalue = [1, 2]\nclass = Non-acceptable"] ;
786 -> 788 ;
789 [label="gini = 0.0\nsamples = 1\nvalue = [1, 0]\nclass = Acceptable"] ;
788 -> 789 ;
790 [label="gini = 0.0\nsamples = 2\nvalue = [0, 2]\nclass = Non-acceptable"] ;
788 -> 790 ;
791 [label="gini = 0.0\nsamples = 2\nvalue = [0, 2]\nclass = Non-acceptable"] ;
785 -> 791 ;
792 [label="gini = 0.0\nsamples = 4\nvalue = [4, 0]\nclass = Acceptable"] ;
784 -> 792 ;
793 [label="gini = 0.0\nsamples = 4\nvalue = [4, 0]\nclass = Acceptable"] ;
783 -> 793 ;
794 [label="no_scenecut <= 0.5\ngini = 0.499\nsamples = 142\nvalue = [74, 68]\nclass = Acceptable"] ;
670 -> 794 ;
795 [label="Threads <= 64.5\ngini = 0.491\nsamples = 113\nvalue = [64, 49]\nclass = Acceptable"] ;
794 -> 795 ;
796 [label="crf <= 0.5\ngini = 0.5\nsamples = 61\nvalue = [30, 31]\nclass = Non-acceptable"] ;
795 -> 796 ;
797 [label="scenecut <= 50.5\ngini = 0.489\nsamples = 40\nvalue = [17, 23]\nclass = Non-acceptable"] ;
796 -> 797 ;
798 [label="ipratio <= 1.05\ngini = 0.494\nsamples = 18\nvalue = [10, 8]\nclass = Acceptable"] ;
797 -> 798 ;
799 [label="aq_strength <= 1.05\ngini = 0.32\nsamples = 5\nvalue = [4, 1]\nclass = Acceptable"] ;
798 -> 799 ;
800 [label="gini = 0.0\nsamples = 1\nvalue = [0, 1]\nclass = Non-acceptable"] ;
799 -> 800 ;
801 [label="gini = 0.0\nsamples = 4\nvalue = [4, 0]\nclass = Acceptable"] ;
799 -> 801 ;
802 [label="rc_lookahead <= 125.5\ngini = 0.497\nsamples = 13\nvalue = [6, 7]\nclass = Non-acceptable"] ;
798 -> 802 ;
803 [label="no_cabac <= 0.5\ngini = 0.48\nsamples = 10\nvalue = [4, 6]\nclass = Non-acceptable"] ;
802 -> 803 ;
804 [label="qpSetting <= 25.5\ngini = 0.48\nsamples = 5\nvalue = [3, 2]\nclass = Acceptable"] ;
803 -> 804 ;
805 [label="gini = 0.0\nsamples = 3\nvalue = [3, 0]\nclass = Acceptable"] ;
804 -> 805 ;
806 [label="gini = 0.0\nsamples = 2\nvalue = [0, 2]\nclass = Non-acceptable"] ;
804 -> 806 ;
807 [label="qcomp <= 0.6\ngini = 0.32\nsamples = 5\nvalue = [1, 4]\nclass = Non-acceptable"] ;
803 -> 807 ;
808 [label="gini = 0.0\nsamples = 3\nvalue = [0, 3]\nclass = Non-acceptable"] ;
807 -> 808 ;
809 [label="aq_strength <= 1.05\ngini = 0.5\nsamples = 2\nvalue = [1, 1]\nclass = Acceptable"] ;
807 -> 809 ;
810 [label="gini = 0.0\nsamples = 1\nvalue = [1, 0]\nclass = Acceptable"] ;
809 -> 810 ;
811 [label="gini = 0.0\nsamples = 1\nvalue = [0, 1]\nclass = Non-acceptable"] ;
809 -> 811 ;
812 [label="no_cabac <= 0.5\ngini = 0.444\nsamples = 3\nvalue = [2, 1]\nclass = Acceptable"] ;
802 -> 812 ;
813 [label="gini = 0.0\nsamples = 1\nvalue = [0, 1]\nclass = Non-acceptable"] ;
812 -> 813 ;
814 [label="gini = 0.0\nsamples = 2\nvalue = [2, 0]\nclass = Acceptable"] ;
812 -> 814 ;
815 [label="rc_lookahead <= 125.5\ngini = 0.434\nsamples = 22\nvalue = [7, 15]\nclass = Non-acceptable"] ;
797 -> 815 ;
816 [label="ipratio <= 1.05\ngini = 0.494\nsamples = 9\nvalue = [4, 5]\nclass = Non-acceptable"] ;
815 -> 816 ;
817 [label="qpSetting <= 25.5\ngini = 0.48\nsamples = 5\nvalue = [3, 2]\nclass = Acceptable"] ;
816 -> 817 ;
818 [label="gini = 0.0\nsamples = 2\nvalue = [2, 0]\nclass = Acceptable"] ;
817 -> 818 ;
819 [label="b_bias <= 17.0\ngini = 0.444\nsamples = 3\nvalue = [1, 2]\nclass = Non-acceptable"] ;
817 -> 819 ;
820 [label="gini = 0.5\nsamples = 2\nvalue = [1, 1]\nclass = Acceptable"] ;
819 -> 820 ;
821 [label="gini = 0.0\nsamples = 1\nvalue = [0, 1]\nclass = Non-acceptable"] ;
819 -> 821 ;
822 [label="qpSetting <= 25.5\ngini = 0.375\nsamples = 4\nvalue = [1, 3]\nclass = Non-acceptable"] ;
816 -> 822 ;
823 [label="gini = 0.0\nsamples = 2\nvalue = [0, 2]\nclass = Non-acceptable"] ;
822 -> 823 ;
824 [label="gini = 0.5\nsamples = 2\nvalue = [1, 1]\nclass = Acceptable"] ;
822 -> 824 ;
825 [label="qpSetting <= 25.5\ngini = 0.355\nsamples = 13\nvalue = [3, 10]\nclass = Non-acceptable"] ;
815 -> 825 ;
826 [label="b_bias <= 17.0\ngini = 0.245\nsamples = 7\nvalue = [1, 6]\nclass = Non-acceptable"] ;
825 -> 826 ;
827 [label="qcomp <= 0.6\ngini = 0.375\nsamples = 4\nvalue = [1, 3]\nclass = Non-acceptable"] ;
826 -> 827 ;
828 [label="no_cabac <= 0.5\ngini = 0.444\nsamples = 3\nvalue = [1, 2]\nclass = Non-acceptable"] ;
827 -> 828 ;
829 [label="gini = 0.5\nsamples = 2\nvalue = [1, 1]\nclass = Acceptable"] ;
828 -> 829 ;
830 [label="gini = 0.0\nsamples = 1\nvalue = [0, 1]\nclass = Non-acceptable"] ;
828 -> 830 ;
831 [label="gini = 0.0\nsamples = 1\nvalue = [0, 1]\nclass = Non-acceptable"] ;
827 -> 831 ;
832 [label="gini = 0.0\nsamples = 3\nvalue = [0, 3]\nclass = Non-acceptable"] ;
826 -> 832 ;
833 [label="ipratio <= 1.05\ngini = 0.444\nsamples = 6\nvalue = [2, 4]\nclass = Non-acceptable"] ;
825 -> 833 ;
834 [label="qcomp <= 0.6\ngini = 0.375\nsamples = 4\nvalue = [1, 3]\nclass = Non-acceptable"] ;
833 -> 834 ;
835 [label="gini = 0.0\nsamples = 2\nvalue = [0, 2]\nclass = Non-acceptable"] ;
834 -> 835 ;
836 [label="b_bias <= 17.0\ngini = 0.5\nsamples = 2\nvalue = [1, 1]\nclass = Acceptable"] ;
834 -> 836 ;
837 [label="gini = 0.0\nsamples = 1\nvalue = [1, 0]\nclass = Acceptable"] ;
836 -> 837 ;
838 [label="gini = 0.0\nsamples = 1\nvalue = [0, 1]\nclass = Non-acceptable"] ;
836 -> 838 ;
839 [label="gini = 0.5\nsamples = 2\nvalue = [1, 1]\nclass = Acceptable"] ;
833 -> 839 ;
840 [label="scenecut <= 50.5\ngini = 0.472\nsamples = 21\nvalue = [13, 8]\nclass = Acceptable"] ;
796 -> 840 ;
841 [label="rc_lookahead <= 125.5\ngini = 0.497\nsamples = 13\nvalue = [7, 6]\nclass = Acceptable"] ;
840 -> 841 ;
842 [label="qpSetting <= 25.5\ngini = 0.49\nsamples = 7\nvalue = [3, 4]\nclass = Non-acceptable"] ;
841 -> 842 ;
843 [label="b_bias <= 17.0\ngini = 0.48\nsamples = 5\nvalue = [3, 2]\nclass = Acceptable"] ;
842 -> 843 ;
844 [label="gini = 0.0\nsamples = 2\nvalue = [2, 0]\nclass = Acceptable"] ;
843 -> 844 ;
845 [label="aq_strength <= 1.05\ngini = 0.444\nsamples = 3\nvalue = [1, 2]\nclass = Non-acceptable"] ;
843 -> 845 ;
846 [label="gini = 0.0\nsamples = 1\nvalue = [1, 0]\nclass = Acceptable"] ;
845 -> 846 ;
847 [label="gini = 0.0\nsamples = 2\nvalue = [0, 2]\nclass = Non-acceptable"] ;
845 -> 847 ;
848 [label="gini = 0.0\nsamples = 2\nvalue = [0, 2]\nclass = Non-acceptable"] ;
842 -> 848 ;
849 [label="qcomp <= 0.6\ngini = 0.444\nsamples = 6\nvalue = [4, 2]\nclass = Acceptable"] ;
841 -> 849 ;
850 [label="b_bias <= 17.0\ngini = 0.444\nsamples = 3\nvalue = [1, 2]\nclass = Non-acceptable"] ;
849 -> 850 ;
851 [label="gini = 0.5\nsamples = 2\nvalue = [1, 1]\nclass = Acceptable"] ;
850 -> 851 ;
852 [label="gini = 0.0\nsamples = 1\nvalue = [0, 1]\nclass = Non-acceptable"] ;
850 -> 852 ;
853 [label="gini = 0.0\nsamples = 3\nvalue = [3, 0]\nclass = Acceptable"] ;
849 -> 853 ;
854 [label="ipratio <= 1.05\ngini = 0.375\nsamples = 8\nvalue = [6, 2]\nclass = Acceptable"] ;
840 -> 854 ;
855 [label="aq_strength <= 1.05\ngini = 0.48\nsamples = 5\nvalue = [3, 2]\nclass = Acceptable"] ;
854 -> 855 ;
856 [label="gini = 0.0\nsamples = 2\nvalue = [2, 0]\nclass = Acceptable"] ;
855 -> 856 ;
857 [label="qpSetting <= 25.5\ngini = 0.444\nsamples = 3\nvalue = [1, 2]\nclass = Non-acceptable"] ;
855 -> 857 ;
858 [label="gini = 0.0\nsamples = 2\nvalue = [0, 2]\nclass = Non-acceptable"] ;
857 -> 858 ;
859 [label="gini = 0.0\nsamples = 1\nvalue = [1, 0]\nclass = Acceptable"] ;
857 -> 859 ;
860 [label="gini = 0.0\nsamples = 3\nvalue = [3, 0]\nclass = Acceptable"] ;
854 -> 860 ;
861 [label="aq_strength <= 1.05\ngini = 0.453\nsamples = 52\nvalue = [34, 18]\nclass = Acceptable"] ;
795 -> 861 ;
862 [label="no_cabac <= 0.5\ngini = 0.351\nsamples = 22\nvalue = [17, 5]\nclass = Acceptable"] ;
861 -> 862 ;
863 [label="ipratio <= 1.05\ngini = 0.245\nsamples = 14\nvalue = [12, 2]\nclass = Acceptable"] ;
862 -> 863 ;
864 [label="qcomp <= 0.6\ngini = 0.408\nsamples = 7\nvalue = [5, 2]\nclass = Acceptable"] ;
863 -> 864 ;
865 [label="gini = 0.0\nsamples = 2\nvalue = [2, 0]\nclass = Acceptable"] ;
864 -> 865 ;
866 [label="crf <= 0.5\ngini = 0.48\nsamples = 5\nvalue = [3, 2]\nclass = Acceptable"] ;
864 -> 866 ;
867 [label="b_bias <= 17.0\ngini = 0.375\nsamples = 4\nvalue = [3, 1]\nclass = Acceptable"] ;
866 -> 867 ;
868 [label="gini = 0.0\nsamples = 2\nvalue = [2, 0]\nclass = Acceptable"] ;
867 -> 868 ;
869 [label="rc_lookahead <= 125.5\ngini = 0.5\nsamples = 2\nvalue = [1, 1]\nclass = Acceptable"] ;
867 -> 869 ;
870 [label="gini = 0.0\nsamples = 1\nvalue = [1, 0]\nclass = Acceptable"] ;
869 -> 870 ;
871 [label="gini = 0.0\nsamples = 1\nvalue = [0, 1]\nclass = Non-acceptable"] ;
869 -> 871 ;
872 [label="gini = 0.0\nsamples = 1\nvalue = [0, 1]\nclass = Non-acceptable"] ;
866 -> 872 ;
873 [label="gini = 0.0\nsamples = 7\nvalue = [7, 0]\nclass = Acceptable"] ;
863 -> 873 ;
874 [label="qcomp <= 0.6\ngini = 0.469\nsamples = 8\nvalue = [5, 3]\nclass = Acceptable"] ;
862 -> 874 ;
875 [label="ipratio <= 1.05\ngini = 0.444\nsamples = 3\nvalue = [1, 2]\nclass = Non-acceptable"] ;
874 -> 875 ;
876 [label="gini = 0.0\nsamples = 1\nvalue = [0, 1]\nclass = Non-acceptable"] ;
875 -> 876 ;
877 [label="gini = 0.5\nsamples = 2\nvalue = [1, 1]\nclass = Acceptable"] ;
875 -> 877 ;
878 [label="rc_lookahead <= 125.5\ngini = 0.32\nsamples = 5\nvalue = [4, 1]\nclass = Acceptable"] ;
874 -> 878 ;
879 [label="gini = 0.0\nsamples = 2\nvalue = [2, 0]\nclass = Acceptable"] ;
878 -> 879 ;
880 [label="qpSetting <= 25.5\ngini = 0.444\nsamples = 3\nvalue = [2, 1]\nclass = Acceptable"] ;
878 -> 880 ;
881 [label="gini = 0.0\nsamples = 1\nvalue = [1, 0]\nclass = Acceptable"] ;
880 -> 881 ;
882 [label="ipratio <= 1.05\ngini = 0.5\nsamples = 2\nvalue = [1, 1]\nclass = Acceptable"] ;
880 -> 882 ;
883 [label="gini = 0.0\nsamples = 1\nvalue = [1, 0]\nclass = Acceptable"] ;
882 -> 883 ;
884 [label="gini = 0.0\nsamples = 1\nvalue = [0, 1]\nclass = Non-acceptable"] ;
882 -> 884 ;
885 [label="ipratio <= 1.05\ngini = 0.491\nsamples = 30\nvalue = [17, 13]\nclass = Acceptable"] ;
861 -> 885 ;
886 [label="qcomp <= 0.6\ngini = 0.5\nsamples = 16\nvalue = [8, 8]\nclass = Acceptable"] ;
885 -> 886 ;
887 [label="b_bias <= 17.0\ngini = 0.444\nsamples = 6\nvalue = [2, 4]\nclass = Non-acceptable"] ;
886 -> 887 ;
888 [label="gini = 0.0\nsamples = 2\nvalue = [2, 0]\nclass = Acceptable"] ;
887 -> 888 ;
889 [label="gini = 0.0\nsamples = 4\nvalue = [0, 4]\nclass = Non-acceptable"] ;
887 -> 889 ;
890 [label="b_bias <= 17.0\ngini = 0.48\nsamples = 10\nvalue = [6, 4]\nclass = Acceptable"] ;
886 -> 890 ;
891 [label="scenecut <= 50.5\ngini = 0.444\nsamples = 3\nvalue = [1, 2]\nclass = Non-acceptable"] ;
890 -> 891 ;
892 [label="gini = 0.0\nsamples = 1\nvalue = [0, 1]\nclass = Non-acceptable"] ;
891 -> 892 ;
893 [label="rc_lookahead <= 125.5\ngini = 0.5\nsamples = 2\nvalue = [1, 1]\nclass = Acceptable"] ;
891 -> 893 ;
894 [label="gini = 0.0\nsamples = 1\nvalue = [0, 1]\nclass = Non-acceptable"] ;
893 -> 894 ;
895 [label="gini = 0.0\nsamples = 1\nvalue = [1, 0]\nclass = Acceptable"] ;
893 -> 895 ;
896 [label="scenecut <= 50.5\ngini = 0.408\nsamples = 7\nvalue = [5, 2]\nclass = Acceptable"] ;
890 -> 896 ;
897 [label="qpSetting <= 25.5\ngini = 0.48\nsamples = 5\nvalue = [3, 2]\nclass = Acceptable"] ;
896 -> 897 ;
898 [label="rc_lookahead <= 125.5\ngini = 0.444\nsamples = 3\nvalue = [1, 2]\nclass = Non-acceptable"] ;
897 -> 898 ;
899 [label="gini = 0.5\nsamples = 2\nvalue = [1, 1]\nclass = Acceptable"] ;
898 -> 899 ;
900 [label="gini = 0.0\nsamples = 1\nvalue = [0, 1]\nclass = Non-acceptable"] ;
898 -> 900 ;
901 [label="gini = 0.0\nsamples = 2\nvalue = [2, 0]\nclass = Acceptable"] ;
897 -> 901 ;
902 [label="gini = 0.0\nsamples = 2\nvalue = [2, 0]\nclass = Acceptable"] ;
896 -> 902 ;
903 [label="b_bias <= 17.0\ngini = 0.459\nsamples = 14\nvalue = [9, 5]\nclass = Acceptable"] ;
885 -> 903 ;
904 [label="qp <= 0.5\ngini = 0.494\nsamples = 9\nvalue = [4, 5]\nclass = Non-acceptable"] ;
903 -> 904 ;
905 [label="scenecut <= 50.5\ngini = 0.444\nsamples = 6\nvalue = [2, 4]\nclass = Non-acceptable"] ;
904 -> 905 ;
906 [label="gini = 0.0\nsamples = 1\nvalue = [1, 0]\nclass = Acceptable"] ;
905 -> 906 ;
907 [label="rc_lookahead <= 125.5\ngini = 0.32\nsamples = 5\nvalue = [1, 4]\nclass = Non-acceptable"] ;
905 -> 907 ;
908 [label="gini = 0.0\nsamples = 2\nvalue = [0, 2]\nclass = Non-acceptable"] ;
907 -> 908 ;
909 [label="qcomp <= 0.6\ngini = 0.444\nsamples = 3\nvalue = [1, 2]\nclass = Non-acceptable"] ;
907 -> 909 ;
910 [label="gini = 0.5\nsamples = 2\nvalue = [1, 1]\nclass = Acceptable"] ;
909 -> 910 ;
911 [label="gini = 0.0\nsamples = 1\nvalue = [0, 1]\nclass = Non-acceptable"] ;
909 -> 911 ;
912 [label="rc_lookahead <= 125.5\ngini = 0.444\nsamples = 3\nvalue = [2, 1]\nclass = Acceptable"] ;
904 -> 912 ;
913 [label="no_cabac <= 0.5\ngini = 0.5\nsamples = 2\nvalue = [1, 1]\nclass = Acceptable"] ;
912 -> 913 ;
914 [label="gini = 0.0\nsamples = 1\nvalue = [1, 0]\nclass = Acceptable"] ;
913 -> 914 ;
915 [label="gini = 0.0\nsamples = 1\nvalue = [0, 1]\nclass = Non-acceptable"] ;
913 -> 915 ;
916 [label="gini = 0.0\nsamples = 1\nvalue = [1, 0]\nclass = Acceptable"] ;
912 -> 916 ;
917 [label="gini = 0.0\nsamples = 5\nvalue = [5, 0]\nclass = Acceptable"] ;
903 -> 917 ;
918 [label="qcomp <= 0.6\ngini = 0.452\nsamples = 29\nvalue = [10, 19]\nclass = Non-acceptable"] ;
794 -> 918 ;
919 [label="qpSetting <= 25.5\ngini = 0.498\nsamples = 15\nvalue = [7, 8]\nclass = Non-acceptable"] ;
918 -> 919 ;
920 [label="rc_lookahead <= 125.5\ngini = 0.408\nsamples = 7\nvalue = [2, 5]\nclass = Non-acceptable"] ;
919 -> 920 ;
921 [label="scenecut <= 50.5\ngini = 0.5\nsamples = 4\nvalue = [2, 2]\nclass = Acceptable"] ;
920 -> 921 ;
922 [label="gini = 0.0\nsamples = 1\nvalue = [0, 1]\nclass = Non-acceptable"] ;
921 -> 922 ;
923 [label="aq_strength <= 1.05\ngini = 0.444\nsamples = 3\nvalue = [2, 1]\nclass = Acceptable"] ;
921 -> 923 ;
924 [label="gini = 0.0\nsamples = 1\nvalue = [1, 0]\nclass = Acceptable"] ;
923 -> 924 ;
925 [label="Threads <= 64.5\ngini = 0.5\nsamples = 2\nvalue = [1, 1]\nclass = Acceptable"] ;
923 -> 925 ;
926 [label="gini = 0.0\nsamples = 1\nvalue = [0, 1]\nclass = Non-acceptable"] ;
925 -> 926 ;
927 [label="gini = 0.0\nsamples = 1\nvalue = [1, 0]\nclass = Acceptable"] ;
925 -> 927 ;
928 [label="gini = 0.0\nsamples = 3\nvalue = [0, 3]\nclass = Non-acceptable"] ;
920 -> 928 ;
929 [label="b_bias <= 17.0\ngini = 0.469\nsamples = 8\nvalue = [5, 3]\nclass = Acceptable"] ;
919 -> 929 ;
930 [label="gini = 0.0\nsamples = 3\nvalue = [3, 0]\nclass = Acceptable"] ;
929 -> 930 ;
931 [label="rc_lookahead <= 125.5\ngini = 0.48\nsamples = 5\nvalue = [2, 3]\nclass = Non-acceptable"] ;
929 -> 931 ;
932 [label="gini = 0.0\nsamples = 2\nvalue = [0, 2]\nclass = Non-acceptable"] ;
931 -> 932 ;
933 [label="aq_strength <= 1.05\ngini = 0.444\nsamples = 3\nvalue = [2, 1]\nclass = Acceptable"] ;
931 -> 933 ;
934 [label="gini = 0.0\nsamples = 2\nvalue = [2, 0]\nclass = Acceptable"] ;
933 -> 934 ;
935 [label="gini = 0.0\nsamples = 1\nvalue = [0, 1]\nclass = Non-acceptable"] ;
933 -> 935 ;
936 [label="scenecut <= 50.5\ngini = 0.337\nsamples = 14\nvalue = [3, 11]\nclass = Non-acceptable"] ;
918 -> 936 ;
937 [label="qpSetting <= 25.5\ngini = 0.444\nsamples = 9\nvalue = [3, 6]\nclass = Non-acceptable"] ;
936 -> 937 ;
938 [label="Threads <= 64.5\ngini = 0.444\nsamples = 3\nvalue = [2, 1]\nclass = Acceptable"] ;
937 -> 938 ;
939 [label="gini = 0.0\nsamples = 2\nvalue = [2, 0]\nclass = Acceptable"] ;
938 -> 939 ;
940 [label="gini = 0.0\nsamples = 1\nvalue = [0, 1]\nclass = Non-acceptable"] ;
938 -> 940 ;
941 [label="Threads <= 64.5\ngini = 0.278\nsamples = 6\nvalue = [1, 5]\nclass = Non-acceptable"] ;
937 -> 941 ;
942 [label="gini = 0.0\nsamples = 3\nvalue = [0, 3]\nclass = Non-acceptable"] ;
941 -> 942 ;
943 [label="b_bias <= 17.0\ngini = 0.444\nsamples = 3\nvalue = [1, 2]\nclass = Non-acceptable"] ;
941 -> 943 ;
944 [label="rc_lookahead <= 125.5\ngini = 0.5\nsamples = 2\nvalue = [1, 1]\nclass = Acceptable"] ;
943 -> 944 ;
945 [label="gini = 0.0\nsamples = 1\nvalue = [1, 0]\nclass = Acceptable"] ;
944 -> 945 ;
946 [label="gini = 0.0\nsamples = 1\nvalue = [0, 1]\nclass = Non-acceptable"] ;
944 -> 946 ;
947 [label="gini = 0.0\nsamples = 1\nvalue = [0, 1]\nclass = Non-acceptable"] ;
943 -> 947 ;
948 [label="gini = 0.0\nsamples = 5\nvalue = [0, 5]\nclass = Non-acceptable"] ;
936 -> 948 ;
949 [label="bframes <= 13.0\ngini = 0.498\nsamples = 307\nvalue = [163, 144]\nclass = Acceptable"] ;
669 -> 949 ;
950 [label="ipratio <= 1.05\ngini = 0.482\nsamples = 156\nvalue = [93, 63]\nclass = Acceptable"] ;
949 -> 950 ;
951 [label="no_cabac <= 0.5\ngini = 0.45\nsamples = 79\nvalue = [52, 27]\nclass = Acceptable"] ;
950 -> 951 ;
952 [label="aq_strength <= 0.8\ngini = 0.477\nsamples = 56\nvalue = [34, 22]\nclass = Acceptable"] ;
951 -> 952 ;
953 [label="qcomp <= 0.6\ngini = 0.497\nsamples = 24\nvalue = [11, 13]\nclass = Non-acceptable"] ;
952 -> 953 ;
954 [label="no_scenecut <= 0.5\ngini = 0.32\nsamples = 10\nvalue = [2, 8]\nclass = Non-acceptable"] ;
953 -> 954 ;
955 [label="gini = 0.0\nsamples = 5\nvalue = [0, 5]\nclass = Non-acceptable"] ;
954 -> 955 ;
956 [label="scenecut <= 50.5\ngini = 0.48\nsamples = 5\nvalue = [2, 3]\nclass = Non-acceptable"] ;
954 -> 956 ;
957 [label="gini = 0.0\nsamples = 1\nvalue = [0, 1]\nclass = Non-acceptable"] ;
956 -> 957 ;
958 [label="b_bias <= 17.0\ngini = 0.5\nsamples = 4\nvalue = [2, 2]\nclass = Acceptable"] ;
956 -> 958 ;
959 [label="Threads <= 64.5\ngini = 0.444\nsamples = 3\nvalue = [1, 2]\nclass = Non-acceptable"] ;
958 -> 959 ;
960 [label="gini = 0.0\nsamples = 1\nvalue = [1, 0]\nclass = Acceptable"] ;
959 -> 960 ;
961 [label="gini = 0.0\nsamples = 2\nvalue = [0, 2]\nclass = Non-acceptable"] ;
959 -> 961 ;
962 [label="gini = 0.0\nsamples = 1\nvalue = [1, 0]\nclass = Acceptable"] ;
958 -> 962 ;
963 [label="qp <= 0.5\ngini = 0.459\nsamples = 14\nvalue = [9, 5]\nclass = Acceptable"] ;
953 -> 963 ;
964 [label="scenecut <= 50.5\ngini = 0.278\nsamples = 6\nvalue = [5, 1]\nclass = Acceptable"] ;
963 -> 964 ;
965 [label="gini = 0.0\nsamples = 3\nvalue = [3, 0]\nclass = Acceptable"] ;
964 -> 965 ;
966 [label="qpSetting <= 25.5\ngini = 0.444\nsamples = 3\nvalue = [2, 1]\nclass = Acceptable"] ;
964 -> 966 ;
967 [label="gini = 0.0\nsamples = 1\nvalue = [1, 0]\nclass = Acceptable"] ;
966 -> 967 ;
968 [label="gini = 0.5\nsamples = 2\nvalue = [1, 1]\nclass = Acceptable"] ;
966 -> 968 ;
969 [label="b_bias <= 17.0\ngini = 0.5\nsamples = 8\nvalue = [4, 4]\nclass = Acceptable"] ;
963 -> 969 ;
970 [label="qpSetting <= 25.5\ngini = 0.444\nsamples = 3\nvalue = [2, 1]\nclass = Acceptable"] ;
969 -> 970 ;
971 [label="gini = 0.0\nsamples = 1\nvalue = [1, 0]\nclass = Acceptable"] ;
970 -> 971 ;
972 [label="no_scenecut <= 0.5\ngini = 0.5\nsamples = 2\nvalue = [1, 1]\nclass = Acceptable"] ;
970 -> 972 ;
973 [label="gini = 0.0\nsamples = 1\nvalue = [0, 1]\nclass = Non-acceptable"] ;
972 -> 973 ;
974 [label="gini = 0.0\nsamples = 1\nvalue = [1, 0]\nclass = Acceptable"] ;
972 -> 974 ;
975 [label="no_scenecut <= 0.5\ngini = 0.48\nsamples = 5\nvalue = [2, 3]\nclass = Non-acceptable"] ;
969 -> 975 ;
976 [label="Threads <= 64.5\ngini = 0.5\nsamples = 4\nvalue = [2, 2]\nclass = Acceptable"] ;
975 -> 976 ;
977 [label="scenecut <= 50.5\ngini = 0.5\nsamples = 2\nvalue = [1, 1]\nclass = Acceptable"] ;
976 -> 977 ;
978 [label="gini = 0.0\nsamples = 1\nvalue = [0, 1]\nclass = Non-acceptable"] ;
977 -> 978 ;
979 [label="gini = 0.0\nsamples = 1\nvalue = [1, 0]\nclass = Acceptable"] ;
977 -> 979 ;
980 [label="scenecut <= 50.5\ngini = 0.5\nsamples = 2\nvalue = [1, 1]\nclass = Acceptable"] ;
976 -> 980 ;
981 [label="gini = 0.0\nsamples = 1\nvalue = [1, 0]\nclass = Acceptable"] ;
980 -> 981 ;
982 [label="gini = 0.0\nsamples = 1\nvalue = [0, 1]\nclass = Non-acceptable"] ;
980 -> 982 ;
983 [label="gini = 0.0\nsamples = 1\nvalue = [0, 1]\nclass = Non-acceptable"] ;
975 -> 983 ;
984 [label="scenecut <= 41.0\ngini = 0.404\nsamples = 32\nvalue = [23, 9]\nclass = Acceptable"] ;
952 -> 984 ;
985 [label="qcomp <= 0.6\ngini = 0.488\nsamples = 19\nvalue = [11, 8]\nclass = Acceptable"] ;
984 -> 985 ;
986 [label="b_bias <= 17.0\ngini = 0.444\nsamples = 12\nvalue = [8, 4]\nclass = Acceptable"] ;
985 -> 986 ;
987 [label="gini = 0.0\nsamples = 4\nvalue = [4, 0]\nclass = Acceptable"] ;
986 -> 987 ;
988 [label="crf <= 0.5\ngini = 0.5\nsamples = 8\nvalue = [4, 4]\nclass = Acceptable"] ;
986 -> 988 ;
989 [label="qpSetting <= 25.5\ngini = 0.444\nsamples = 6\nvalue = [2, 4]\nclass = Non-acceptable"] ;
988 -> 989 ;
990 [label="no_scenecut <= 0.5\ngini = 0.5\nsamples = 4\nvalue = [2, 2]\nclass = Acceptable"] ;
989 -> 990 ;
991 [label="Threads <= 64.5\ngini = 0.444\nsamples = 3\nvalue = [1, 2]\nclass = Non-acceptable"] ;
990 -> 991 ;
992 [label="gini = 0.0\nsamples = 1\nvalue = [0, 1]\nclass = Non-acceptable"] ;
991 -> 992 ;
993 [label="rc_lookahead <= 125.5\ngini = 0.5\nsamples = 2\nvalue = [1, 1]\nclass = Acceptable"] ;
991 -> 993 ;
