digraph Tree {
node [shape=box] ;
0 [label="SQLITE_TEMP_STOREtwo <= 0.5\ngini = 0.499\nsamples = 1365\nvalue = [708, 657]\nclass = Acceptable"] ;
1 [label="SQLITE_TEMP_STOREzero <= 0.5\ngini = 0.493\nsamples = 1197\nvalue = [670, 527]\nclass = Acceptable"] ;
0 -> 1 [labeldistance=2.5, labelangle=45, headlabel="True"] ;
2 [label="SQLITE_OMIT_OR_OPTIMIZATION <= 0.5\ngini = 0.499\nsamples = 1031\nvalue = [536, 495]\nclass = Acceptable"] ;
1 -> 2 ;
3 [label="ChooseSQLITE_TEMP_STORE <= 0.5\ngini = 0.5\nsamples = 839\nvalue = [407, 432]\nclass = Non-acceptable"] ;
2 -> 3 ;
4 [label="AutoVacuumOn <= 0.5\ngini = 0.498\nsamples = 613\nvalue = [325, 288]\nclass = Acceptable"] ;
3 -> 4 ;
5 [label="StandardPageSize <= 0.5\ngini = 0.41\nsamples = 295\nvalue = [210, 85]\nclass = Acceptable"] ;
4 -> 5 ;
6 [label="StandardCacheSize <= 0.5\ngini = 0.228\nsamples = 99\nvalue = [86, 13]\nclass = Acceptable"] ;
5 -> 6 ;
7 [label="SQLITE_ENABLE_STAT2 <= 0.5\ngini = 0.42\nsamples = 20\nvalue = [14, 6]\nclass = Acceptable"] ;
6 -> 7 ;
8 [label="NormalLockingMode <= 0.5\ngini = 0.388\nsamples = 19\nvalue = [14, 5]\nclass = Acceptable"] ;
7 -> 8 ;
9 [label="SQLITE_OMIT_BETWEEN_OPTIMIZATION <= 0.5\ngini = 0.346\nsamples = 18\nvalue = [14, 4]\nclass = Acceptable"] ;
8 -> 9 ;
10 [label="SQLITE_OMIT_LIKE_OPTIMIZATION <= 0.5\ngini = 0.391\nsamples = 15\nvalue = [11, 4]\nclass = Acceptable"] ;
9 -> 10 ;
11 [label="DisableFeatures <= 0.5\ngini = 0.426\nsamples = 13\nvalue = [9, 4]\nclass = Acceptable"] ;
10 -> 11 ;
12 [label="gini = 0.0\nsamples = 1\nvalue = [1, 0]\nclass = Acceptable"] ;
11 -> 12 ;
13 [label="HighestPageSize <= 0.5\ngini = 0.444\nsamples = 12\nvalue = [8, 4]\nclass = Acceptable"] ;
11 -> 13 ;
14 [label="SQLITE_SECURE_DELETE <= 0.5\ngini = 0.49\nsamples = 7\nvalue = [4, 3]\nclass = Acceptable"] ;
13 -> 14 ;
15 [label="SQLITE_OMIT_BTREECOUNT <= 0.5\ngini = 0.444\nsamples = 6\nvalue = [4, 2]\nclass = Acceptable"] ;
14 -> 15 ;
16 [label="HigherPageSize <= 0.5\ngini = 0.32\nsamples = 5\nvalue = [4, 1]\nclass = Acceptable"] ;
15 -> 16 ;
17 [label="gini = 0.0\nsamples = 3\nvalue = [3, 0]\nclass = Acceptable"] ;
16 -> 17 ;
18 [label="SQLITE_OMIT_AUTOMATIC_INDEX <= 0.5\ngini = 0.5\nsamples = 2\nvalue = [1, 1]\nclass = Acceptable"] ;
16 -> 18 ;
19 [label="gini = 0.0\nsamples = 1\nvalue = [0, 1]\nclass = Non-acceptable"] ;
18 -> 19 ;
20 [label="gini = 0.0\nsamples = 1\nvalue = [1, 0]\nclass = Acceptable"] ;
18 -> 20 ;
21 [label="gini = 0.0\nsamples = 1\nvalue = [0, 1]\nclass = Non-acceptable"] ;
15 -> 21 ;
22 [label="gini = 0.0\nsamples = 1\nvalue = [0, 1]\nclass = Non-acceptable"] ;
14 -> 22 ;
23 [label="HigherCacheSize <= 0.5\ngini = 0.32\nsamples = 5\nvalue = [4, 1]\nclass = Acceptable"] ;
13 -> 23 ;
24 [label="gini = 0.0\nsamples = 1\nvalue = [0, 1]\nclass = Non-acceptable"] ;
23 -> 24 ;
25 [label="gini = 0.0\nsamples = 4\nvalue = [4, 0]\nclass = Acceptable"] ;
23 -> 25 ;
26 [label="gini = 0.0\nsamples = 2\nvalue = [2, 0]\nclass = Acceptable"] ;
10 -> 26 ;
27 [label="gini = 0.0\nsamples = 3\nvalue = [3, 0]\nclass = Acceptable"] ;
9 -> 27 ;
28 [label="gini = 0.0\nsamples = 1\nvalue = [0, 1]\nclass = Non-acceptable"] ;
8 -> 28 ;
29 [label="gini = 0.0\nsamples = 1\nvalue = [0, 1]\nclass = Non-acceptable"] ;
7 -> 29 ;
30 [label="SQLITE_OMIT_BETWEEN_OPTIMIZATION <= 0.5\ngini = 0.162\nsamples = 79\nvalue = [72, 7]\nclass = Acceptable"] ;
6 -> 30 ;
31 [label="LowerPageSize <= 0.5\ngini = 0.109\nsamples = 69\nvalue = [65, 4]\nclass = Acceptable"] ;
30 -> 31 ;
32 [label="SQLITE_SECURE_DELETE <= 0.5\ngini = 0.15\nsamples = 49\nvalue = [45, 4]\nclass = Acceptable"] ;
31 -> 32 ;
33 [label="SQLITE_OMIT_BTREECOUNT <= 0.5\ngini = 0.124\nsamples = 45\nvalue = [42, 3]\nclass = Acceptable"] ;
32 -> 33 ;
34 [label="SQLITE_OMIT_SHARED_CACHE <= 0.5\ngini = 0.157\nsamples = 35\nvalue = [32, 3]\nclass = Acceptable"] ;
33 -> 34 ;
35 [label="SQLITE_OMIT_QUICKBALANCE <= 0.5\ngini = 0.191\nsamples = 28\nvalue = [25, 3]\nclass = Acceptable"] ;
34 -> 35 ;
36 [label="SQLITE_OMIT_XFER_OPT <= 0.5\ngini = 0.245\nsamples = 21\nvalue = [18, 3]\nclass = Acceptable"] ;
35 -> 36 ;
37 [label="SQLITE_ENABLE_STAT2 <= 0.5\ngini = 0.305\nsamples = 16\nvalue = [13, 3]\nclass = Acceptable"] ;
36 -> 37 ;
38 [label="SQLITE_OMIT_AUTOMATIC_INDEX <= 0.5\ngini = 0.355\nsamples = 13\nvalue = [10, 3]\nclass = Acceptable"] ;
37 -> 38 ;
39 [label="SQLITE_DISABLE_DIRSYNC <= 0.5\ngini = 0.42\nsamples = 10\nvalue = [7, 3]\nclass = Acceptable"] ;
38 -> 39 ;
40 [label="OperatingSystemCharacteristics <= 0.5\ngini = 0.49\nsamples = 7\nvalue = [4, 3]\nclass = Acceptable"] ;
39 -> 40 ;
41 [label="gini = 0.0\nsamples = 1\nvalue = [1, 0]\nclass = Acceptable"] ;
40 -> 41 ;
42 [label="ExclusiveLock <= 0.5\ngini = 0.5\nsamples = 6\nvalue = [3, 3]\nclass = Acceptable"] ;
40 -> 42 ;
43 [label="gini = 0.0\nsamples = 1\nvalue = [1, 0]\nclass = Acceptable"] ;
42 -> 43 ;
44 [label="SQLITE_OMIT_LOOKASIDE <= 0.5\ngini = 0.48\nsamples = 5\nvalue = [2, 3]\nclass = Non-acceptable"] ;
42 -> 44 ;
45 [label="gini = 0.0\nsamples = 2\nvalue = [0, 2]\nclass = Non-acceptable"] ;
44 -> 45 ;
46 [label="SQLITE_ENABLE_ATOMIC_WRITE <= 0.5\ngini = 0.444\nsamples = 3\nvalue = [2, 1]\nclass = Acceptable"] ;
44 -> 46 ;
47 [label="HigherPageSize <= 0.5\ngini = 0.5\nsamples = 2\nvalue = [1, 1]\nclass = Acceptable"] ;
46 -> 47 ;
48 [label="gini = 0.0\nsamples = 1\nvalue = [0, 1]\nclass = Non-acceptable"] ;
47 -> 48 ;
49 [label="gini = 0.0\nsamples = 1\nvalue = [1, 0]\nclass = Acceptable"] ;
47 -> 49 ;
50 [label="gini = 0.0\nsamples = 1\nvalue = [1, 0]\nclass = Acceptable"] ;
46 -> 50 ;
51 [label="gini = 0.0\nsamples = 3\nvalue = [3, 0]\nclass = Acceptable"] ;
39 -> 51 ;
52 [label="gini = 0.0\nsamples = 3\nvalue = [3, 0]\nclass = Acceptable"] ;
38 -> 52 ;
53 [label="gini = 0.0\nsamples = 3\nvalue = [3, 0]\nclass = Acceptable"] ;
37 -> 53 ;
54 [label="gini = 0.0\nsamples = 5\nvalue = [5, 0]\nclass = Acceptable"] ;
36 -> 54 ;
55 [label="gini = 0.0\nsamples = 7\nvalue = [7, 0]\nclass = Acceptable"] ;
35 -> 55 ;
56 [label="gini = 0.0\nsamples = 7\nvalue = [7, 0]\nclass = Acceptable"] ;
34 -> 56 ;
57 [label="gini = 0.0\nsamples = 10\nvalue = [10, 0]\nclass = Acceptable"] ;
33 -> 57 ;
58 [label="SQLITE_DISABLE_LFS <= 0.5\ngini = 0.375\nsamples = 4\nvalue = [3, 1]\nclass = Acceptable"] ;
32 -> 58 ;
59 [label="SQLITE_OMIT_QUICKBALANCE <= 0.5\ngini = 0.444\nsamples = 3\nvalue = [2, 1]\nclass = Acceptable"] ;
58 -> 59 ;
60 [label="SQLITE_OMIT_AUTOMATIC_INDEX <= 0.5\ngini = 0.5\nsamples = 2\nvalue = [1, 1]\nclass = Acceptable"] ;
59 -> 60 ;
61 [label="gini = 0.0\nsamples = 1\nvalue = [0, 1]\nclass = Non-acceptable"] ;
60 -> 61 ;
62 [label="gini = 0.0\nsamples = 1\nvalue = [1, 0]\nclass = Acceptable"] ;
60 -> 62 ;
63 [label="gini = 0.0\nsamples = 1\nvalue = [1, 0]\nclass = Acceptable"] ;
59 -> 63 ;
64 [label="gini = 0.0\nsamples = 1\nvalue = [1, 0]\nclass = Acceptable"] ;
58 -> 64 ;
65 [label="gini = 0.0\nsamples = 20\nvalue = [20, 0]\nclass = Acceptable"] ;
31 -> 65 ;
66 [label="SQLITE_OMIT_AUTOMATIC_INDEX <= 0.5\ngini = 0.42\nsamples = 10\nvalue = [7, 3]\nclass = Acceptable"] ;
30 -> 66 ;
67 [label="SQLITE_OMIT_LOOKASIDE <= 0.5\ngini = 0.346\nsamples = 9\nvalue = [7, 2]\nclass = Acceptable"] ;
66 -> 67 ;
68 [label="HigherPageSize <= 0.5\ngini = 0.245\nsamples = 7\nvalue = [6, 1]\nclass = Acceptable"] ;
67 -> 68 ;
69 [label="SQLITE_ENABLE_ATOMIC_WRITE <= 0.5\ngini = 0.375\nsamples = 4\nvalue = [3, 1]\nclass = Acceptable"] ;
68 -> 69 ;
70 [label="SQLITE_OMIT_BTREECOUNT <= 0.5\ngini = 0.444\nsamples = 3\nvalue = [2, 1]\nclass = Acceptable"] ;
69 -> 70 ;
71 [label="SQLITE_OMIT_SHARED_CACHE <= 0.5\ngini = 0.5\nsamples = 2\nvalue = [1, 1]\nclass = Acceptable"] ;
70 -> 71 ;
72 [label="gini = 0.0\nsamples = 1\nvalue = [0, 1]\nclass = Non-acceptable"] ;
71 -> 72 ;
73 [label="gini = 0.0\nsamples = 1\nvalue = [1, 0]\nclass = Acceptable"] ;
71 -> 73 ;
74 [label="gini = 0.0\nsamples = 1\nvalue = [1, 0]\nclass = Acceptable"] ;
70 -> 74 ;
75 [label="gini = 0.0\nsamples = 1\nvalue = [1, 0]\nclass = Acceptable"] ;
69 -> 75 ;
76 [label="gini = 0.0\nsamples = 3\nvalue = [3, 0]\nclass = Acceptable"] ;
68 -> 76 ;
77 [label="HigherPageSize <= 0.5\ngini = 0.5\nsamples = 2\nvalue = [1, 1]\nclass = Acceptable"] ;
67 -> 77 ;
78 [label="gini = 0.0\nsamples = 1\nvalue = [1, 0]\nclass = Acceptable"] ;
77 -> 78 ;
79 [label="gini = 0.0\nsamples = 1\nvalue = [0, 1]\nclass = Non-acceptable"] ;
77 -> 79 ;
80 [label="gini = 0.0\nsamples = 1\nvalue = [0, 1]\nclass = Non-acceptable"] ;
66 -> 80 ;
81 [label="SQLITE_SECURE_DELETE <= 0.5\ngini = 0.465\nsamples = 196\nvalue = [124, 72]\nclass = Acceptable"] ;
5 -> 81 ;
82 [label="SQLITE_DISABLE_LFS <= 0.5\ngini = 0.427\nsamples = 165\nvalue = [114, 51]\nclass = Acceptable"] ;
81 -> 82 ;
83 [label="LowerCacheSize <= 0.5\ngini = 0.397\nsamples = 132\nvalue = [96, 36]\nclass = Acceptable"] ;
82 -> 83 ;
84 [label="SQLITE_ENABLE_STAT2 <= 0.5\ngini = 0.427\nsamples = 110\nvalue = [76, 34]\nclass = Acceptable"] ;
83 -> 84 ;
85 [label="SQLITE_ENABLE_ATOMIC_WRITE <= 0.5\ngini = 0.381\nsamples = 82\nvalue = [61, 21]\nclass = Acceptable"] ;
84 -> 85 ;
86 [label="HigherCacheSize <= 0.5\ngini = 0.309\nsamples = 68\nvalue = [55, 13]\nclass = Acceptable"] ;
85 -> 86 ;
87 [label="SQLITE_DISABLE_DIRSYNC <= 0.5\ngini = 0.241\nsamples = 50\nvalue = [43, 7]\nclass = Acceptable"] ;
86 -> 87 ;
88 [label="SQLITE_OMIT_LOOKASIDE <= 0.5\ngini = 0.198\nsamples = 45\nvalue = [40, 5]\nclass = Acceptable"] ;
87 -> 88 ;
89 [label="SQLITE_OMIT_QUICKBALANCE <= 0.5\ngini = 0.264\nsamples = 32\nvalue = [27, 5]\nclass = Acceptable"] ;
88 -> 89 ;
90 [label="SQLITE_OMIT_AUTOMATIC_INDEX <= 0.5\ngini = 0.351\nsamples = 22\nvalue = [17, 5]\nclass = Acceptable"] ;
89 -> 90 ;
91 [label="DisableFeatures <= 0.5\ngini = 0.43\nsamples = 16\nvalue = [11, 5]\nclass = Acceptable"] ;
90 -> 91 ;
92 [label="gini = 0.0\nsamples = 2\nvalue = [2, 0]\nclass = Acceptable"] ;
91 -> 92 ;
93 [label="NormalLockingMode <= 0.5\ngini = 0.459\nsamples = 14\nvalue = [9, 5]\nclass = Acceptable"] ;
91 -> 93 ;
94 [label="SQLITE_OMIT_LIKE_OPTIMIZATION <= 0.5\ngini = 0.48\nsamples = 5\nvalue = [2, 3]\nclass = Non-acceptable"] ;
93 -> 94 ;
95 [label="gini = 0.0\nsamples = 2\nvalue = [0, 2]\nclass = Non-acceptable"] ;
94 -> 95 ;
96 [label="SQLITE_OMIT_BTREECOUNT <= 0.5\ngini = 0.444\nsamples = 3\nvalue = [2, 1]\nclass = Acceptable"] ;
94 -> 96 ;
97 [label="SQLITE_OMIT_SHARED_CACHE <= 0.5\ngini = 0.5\nsamples = 2\nvalue = [1, 1]\nclass = Acceptable"] ;
96 -> 97 ;
98 [label="gini = 0.0\nsamples = 1\nvalue = [0, 1]\nclass = Non-acceptable"] ;
97 -> 98 ;
99 [label="gini = 0.0\nsamples = 1\nvalue = [1, 0]\nclass = Acceptable"] ;
97 -> 99 ;
100 [label="gini = 0.0\nsamples = 1\nvalue = [1, 0]\nclass = Acceptable"] ;
96 -> 100 ;
101 [label="SQLITE_OMIT_BETWEEN_OPTIMIZATION <= 0.5\ngini = 0.346\nsamples = 9\nvalue = [7, 2]\nclass = Acceptable"] ;
93 -> 101 ;
102 [label="SQLITE_OMIT_BTREECOUNT <= 0.5\ngini = 0.444\nsamples = 6\nvalue = [4, 2]\nclass = Acceptable"] ;
101 -> 102 ;
103 [label="SQLITE_OMIT_SHARED_CACHE <= 0.5\ngini = 0.5\nsamples = 4\nvalue = [2, 2]\nclass = Acceptable"] ;
102 -> 103 ;
104 [label="gini = 0.0\nsamples = 2\nvalue = [0, 2]\nclass = Non-acceptable"] ;
103 -> 104 ;
105 [label="gini = 0.0\nsamples = 2\nvalue = [2, 0]\nclass = Acceptable"] ;
103 -> 105 ;
106 [label="gini = 0.0\nsamples = 2\nvalue = [2, 0]\nclass = Acceptable"] ;
102 -> 106 ;
107 [label="gini = 0.0\nsamples = 3\nvalue = [3, 0]\nclass = Acceptable"] ;
101 -> 107 ;
108 [label="gini = 0.0\nsamples = 6\nvalue = [6, 0]\nclass = Acceptable"] ;
90 -> 108 ;
109 [label="gini = 0.0\nsamples = 10\nvalue = [10, 0]\nclass = Acceptable"] ;
89 -> 109 ;
110 [label="gini = 0.0\nsamples = 13\nvalue = [13, 0]\nclass = Acceptable"] ;
88 -> 110 ;
111 [label="SQLITE_OMIT_SHARED_CACHE <= 0.5\ngini = 0.48\nsamples = 5\nvalue = [3, 2]\nclass = Acceptable"] ;
87 -> 111 ;
112 [label="gini = 0.0\nsamples = 2\nvalue = [0, 2]\nclass = Non-acceptable"] ;
111 -> 112 ;
113 [label="gini = 0.0\nsamples = 3\nvalue = [3, 0]\nclass = Acceptable"] ;
111 -> 113 ;
114 [label="ExclusiveLock <= 0.5\ngini = 0.444\nsamples = 18\nvalue = [12, 6]\nclass = Acceptable"] ;
86 -> 114 ;
115 [label="SQLITE_DISABLE_DIRSYNC <= 0.5\ngini = 0.444\nsamples = 3\nvalue = [1, 2]\nclass = Non-acceptable"] ;
114 -> 115 ;
116 [label="SQLITE_OMIT_SHARED_CACHE <= 0.5\ngini = 0.5\nsamples = 2\nvalue = [1, 1]\nclass = Acceptable"] ;
115 -> 116 ;
117 [label="gini = 0.0\nsamples = 1\nvalue = [1, 0]\nclass = Acceptable"] ;
116 -> 117 ;
118 [label="gini = 0.0\nsamples = 1\nvalue = [0, 1]\nclass = Non-acceptable"] ;
116 -> 118 ;
119 [label="gini = 0.0\nsamples = 1\nvalue = [0, 1]\nclass = Non-acceptable"] ;
115 -> 119 ;
120 [label="SQLITE_OMIT_QUICKBALANCE <= 0.5\ngini = 0.391\nsamples = 15\nvalue = [11, 4]\nclass = Acceptable"] ;
114 -> 120 ;
121 [label="SQLITE_OMIT_SHARED_CACHE <= 0.5\ngini = 0.298\nsamples = 11\nvalue = [9, 2]\nclass = Acceptable"] ;
120 -> 121 ;
122 [label="SQLITE_OMIT_LOOKASIDE <= 0.5\ngini = 0.198\nsamples = 9\nvalue = [8, 1]\nclass = Acceptable"] ;
121 -> 122 ;
123 [label="gini = 0.0\nsamples = 7\nvalue = [7, 0]\nclass = Acceptable"] ;
122 -> 123 ;
124 [label="SQLITE_OMIT_XFER_OPT <= 0.5\ngini = 0.5\nsamples = 2\nvalue = [1, 1]\nclass = Acceptable"] ;
122 -> 124 ;
125 [label="gini = 0.0\nsamples = 1\nvalue = [1, 0]\nclass = Acceptable"] ;
124 -> 125 ;
126 [label="gini = 0.0\nsamples = 1\nvalue = [0, 1]\nclass = Non-acceptable"] ;
124 -> 126 ;
127 [label="SQLITE_OMIT_LOOKASIDE <= 0.5\ngini = 0.5\nsamples = 2\nvalue = [1, 1]\nclass = Acceptable"] ;
121 -> 127 ;
128 [label="gini = 0.0\nsamples = 1\nvalue = [0, 1]\nclass = Non-acceptable"] ;
127 -> 128 ;
129 [label="gini = 0.0\nsamples = 1\nvalue = [1, 0]\nclass = Acceptable"] ;
127 -> 129 ;
130 [label="SQLITE_OMIT_LIKE_OPTIMIZATION <= 0.5\ngini = 0.5\nsamples = 4\nvalue = [2, 2]\nclass = Acceptable"] ;
120 -> 130 ;
131 [label="SQLITE_OMIT_AUTOMATIC_INDEX <= 0.5\ngini = 0.444\nsamples = 3\nvalue = [2, 1]\nclass = Acceptable"] ;
130 -> 131 ;
132 [label="gini = 0.0\nsamples = 2\nvalue = [2, 0]\nclass = Acceptable"] ;
131 -> 132 ;
133 [label="gini = 0.0\nsamples = 1\nvalue = [0, 1]\nclass = Non-acceptable"] ;
131 -> 133 ;
134 [label="gini = 0.0\nsamples = 1\nvalue = [0, 1]\nclass = Non-acceptable"] ;
130 -> 134 ;
135 [label="StandardCacheSize <= 0.5\ngini = 0.49\nsamples = 14\nvalue = [6, 8]\nclass = Non-acceptable"] ;
85 -> 135 ;
136 [label="gini = 0.0\nsamples = 2\nvalue = [2, 0]\nclass = Acceptable"] ;
135 -> 136 ;
137 [label="ExclusiveLock <= 0.5\ngini = 0.444\nsamples = 12\nvalue = [4, 8]\nclass = Non-acceptable"] ;
135 -> 137 ;
138 [label="gini = 0.0\nsamples = 1\nvalue = [1, 0]\nclass = Acceptable"] ;
137 -> 138 ;
139 [label="SQLITE_OMIT_BETWEEN_OPTIMIZATION <= 0.5\ngini = 0.397\nsamples = 11\nvalue = [3, 8]\nclass = Non-acceptable"] ;
137 -> 139 ;
140 [label="SQLITE_OMIT_QUICKBALANCE <= 0.5\ngini = 0.219\nsamples = 8\nvalue = [1, 7]\nclass = Non-acceptable"] ;
139 -> 140 ;
141 [label="gini = 0.0\nsamples = 6\nvalue = [0, 6]\nclass = Non-acceptable"] ;
140 -> 141 ;
142 [label="SQLITE_OMIT_LOOKASIDE <= 0.5\ngini = 0.5\nsamples = 2\nvalue = [1, 1]\nclass = Acceptable"] ;
140 -> 142 ;
143 [label="gini = 0.0\nsamples = 1\nvalue = [1, 0]\nclass = Acceptable"] ;
142 -> 143 ;
144 [label="gini = 0.0\nsamples = 1\nvalue = [0, 1]\nclass = Non-acceptable"] ;
142 -> 144 ;
145 [label="SQLITE_OMIT_AUTOMATIC_INDEX <= 0.5\ngini = 0.444\nsamples = 3\nvalue = [2, 1]\nclass = Acceptable"] ;
139 -> 145 ;
146 [label="gini = 0.0\nsamples = 2\nvalue = [2, 0]\nclass = Acceptable"] ;
145 -> 146 ;
147 [label="gini = 0.0\nsamples = 1\nvalue = [0, 1]\nclass = Non-acceptable"] ;
145 -> 147 ;
148 [label="HigherCacheSize <= 0.5\ngini = 0.497\nsamples = 28\nvalue = [15, 13]\nclass = Acceptable"] ;
84 -> 148 ;
149 [label="SQLITE_OMIT_XFER_OPT <= 0.5\ngini = 0.491\nsamples = 23\nvalue = [10, 13]\nclass = Non-acceptable"] ;
148 -> 149 ;
150 [label="SQLITE_OMIT_LIKE_OPTIMIZATION <= 0.5\ngini = 0.494\nsamples = 18\nvalue = [10, 8]\nclass = Acceptable"] ;
149 -> 150 ;
151 [label="SQLITE_OMIT_SHARED_CACHE <= 0.5\ngini = 0.444\nsamples = 15\nvalue = [10, 5]\nclass = Acceptable"] ;
150 -> 151 ;
152 [label="SQLITE_OMIT_LOOKASIDE <= 0.5\ngini = 0.32\nsamples = 10\nvalue = [8, 2]\nclass = Acceptable"] ;
151 -> 152 ;
153 [label="SQLITE_OMIT_BETWEEN_OPTIMIZATION <= 0.5\ngini = 0.198\nsamples = 9\nvalue = [8, 1]\nclass = Acceptable"] ;
152 -> 153 ;
154 [label="gini = 0.0\nsamples = 7\nvalue = [7, 0]\nclass = Acceptable"] ;
153 -> 154 ;
155 [label="ExclusiveLock <= 0.5\ngini = 0.5\nsamples = 2\nvalue = [1, 1]\nclass = Acceptable"] ;
153 -> 155 ;
156 [label="gini = 0.0\nsamples = 1\nvalue = [1, 0]\nclass = Acceptable"] ;
155 -> 156 ;
157 [label="gini = 0.0\nsamples = 1\nvalue = [0, 1]\nclass = Non-acceptable"] ;
155 -> 157 ;
158 [label="gini = 0.0\nsamples = 1\nvalue = [0, 1]\nclass = Non-acceptable"] ;
152 -> 158 ;
159 [label="NormalLockingMode <= 0.5\ngini = 0.48\nsamples = 5\nvalue = [2, 3]\nclass = Non-acceptable"] ;
151 -> 159 ;
160 [label="SQLITE_OMIT_QUICKBALANCE <= 0.5\ngini = 0.375\nsamples = 4\nvalue = [1, 3]\nclass = Non-acceptable"] ;
159 -> 160 ;
161 [label="gini = 0.0\nsamples = 3\nvalue = [0, 3]\nclass = Non-acceptable"] ;
160 -> 161 ;
162 [label="gini = 0.0\nsamples = 1\nvalue = [1, 0]\nclass = Acceptable"] ;
160 -> 162 ;
163 [label="gini = 0.0\nsamples = 1\nvalue = [1, 0]\nclass = Acceptable"] ;
159 -> 163 ;
164 [label="gini = 0.0\nsamples = 3\nvalue = [0, 3]\nclass = Non-acceptable"] ;
150 -> 164 ;
165 [label="gini = 0.0\nsamples = 5\nvalue = [0, 5]\nclass = Non-acceptable"] ;
149 -> 165 ;
166 [label="gini = 0.0\nsamples = 5\nvalue = [5, 0]\nclass = Acceptable"] ;
148 -> 166 ;
167 [label="SQLITE_OMIT_SHARED_CACHE <= 0.5\ngini = 0.165\nsamples = 22\nvalue = [20, 2]\nclass = Acceptable"] ;
83 -> 167 ;
168 [label="SQLITE_OMIT_LOOKASIDE <= 0.5\ngini = 0.091\nsamples = 21\nvalue = [20, 1]\nclass = Acceptable"] ;
167 -> 168 ;
169 [label="gini = 0.0\nsamples = 15\nvalue = [15, 0]\nclass = Acceptable"] ;
168 -> 169 ;
170 [label="SQLITE_ENABLE_ATOMIC_WRITE <= 0.5\ngini = 0.278\nsamples = 6\nvalue = [5, 1]\nclass = Acceptable"] ;
168 -> 170 ;
171 [label="SQLITE_OMIT_LIKE_OPTIMIZATION <= 0.5\ngini = 0.32\nsamples = 5\nvalue = [4, 1]\nclass = Acceptable"] ;
170 -> 171 ;
172 [label="SQLITE_OMIT_XFER_OPT <= 0.5\ngini = 0.375\nsamples = 4\nvalue = [3, 1]\nclass = Acceptable"] ;
171 -> 172 ;
173 [label="SQLITE_OMIT_BETWEEN_OPTIMIZATION <= 0.5\ngini = 0.444\nsamples = 3\nvalue = [2, 1]\nclass = Acceptable"] ;
172 -> 173 ;
174 [label="SQLITE_ENABLE_STAT2 <= 0.5\ngini = 0.5\nsamples = 2\nvalue = [1, 1]\nclass = Acceptable"] ;
173 -> 174 ;
175 [label="gini = 0.0\nsamples = 1\nvalue = [0, 1]\nclass = Non-acceptable"] ;
174 -> 175 ;
176 [label="gini = 0.0\nsamples = 1\nvalue = [1, 0]\nclass = Acceptable"] ;
174 -> 176 ;
177 [label="gini = 0.0\nsamples = 1\nvalue = [1, 0]\nclass = Acceptable"] ;
173 -> 177 ;
178 [label="gini = 0.0\nsamples = 1\nvalue = [1, 0]\nclass = Acceptable"] ;
172 -> 178 ;
179 [label="gini = 0.0\nsamples = 1\nvalue = [1, 0]\nclass = Acceptable"] ;
171 -> 179 ;
180 [label="gini = 0.0\nsamples = 1\nvalue = [1, 0]\nclass = Acceptable"] ;
170 -> 180 ;
181 [label="gini = 0.0\nsamples = 1\nvalue = [0, 1]\nclass = Non-acceptable"] ;
167 -> 181 ;
182 [label="HigherCacheSize <= 0.5\ngini = 0.496\nsamples = 33\nvalue = [18, 15]\nclass = Acceptable"] ;
82 -> 182 ;
183 [label="SQLITE_OMIT_AUTOMATIC_INDEX <= 0.5\ngini = 0.499\nsamples = 29\nvalue = [14, 15]\nclass = Non-acceptable"] ;
182 -> 183 ;
184 [label="ExclusiveLock <= 0.5\ngini = 0.488\nsamples = 26\nvalue = [11, 15]\nclass = Non-acceptable"] ;
183 -> 184 ;
185 [label="gini = 0.0\nsamples = 2\nvalue = [2, 0]\nclass = Acceptable"] ;
184 -> 185 ;
186 [label="SQLITE_OMIT_LOOKASIDE <= 0.5\ngini = 0.469\nsamples = 24\nvalue = [9, 15]\nclass = Non-acceptable"] ;
184 -> 186 ;
187 [label="SQLITE_OMIT_LIKE_OPTIMIZATION <= 0.5\ngini = 0.432\nsamples = 19\nvalue = [6, 13]\nclass = Non-acceptable"] ;
186 -> 187 ;
188 [label="SQLITE_ENABLE_STAT2 <= 0.5\ngini = 0.48\nsamples = 15\nvalue = [6, 9]\nclass = Non-acceptable"] ;
187 -> 188 ;
189 [label="SQLITE_DISABLE_DIRSYNC <= 0.5\ngini = 0.49\nsamples = 14\nvalue = [6, 8]\nclass = Non-acceptable"] ;
188 -> 189 ;
190 [label="SQLITE_OMIT_QUICKBALANCE <= 0.5\ngini = 0.497\nsamples = 13\nvalue = [6, 7]\nclass = Non-acceptable"] ;
189 -> 190 ;
191 [label="LowerCacheSize <= 0.5\ngini = 0.5\nsamples = 10\nvalue = [5, 5]\nclass = Acceptable"] ;
190 -> 191 ;
192 [label="SQLITE_OMIT_BTREECOUNT <= 0.5\ngini = 0.469\nsamples = 8\nvalue = [5, 3]\nclass = Acceptable"] ;
191 -> 192 ;
193 [label="SQLITE_ENABLE_ATOMIC_WRITE <= 0.5\ngini = 0.32\nsamples = 5\nvalue = [4, 1]\nclass = Acceptable"] ;
192 -> 193 ;
194 [label="gini = 0.0\nsamples = 3\nvalue = [3, 0]\nclass = Acceptable"] ;
193 -> 194 ;
195 [label="SQLITE_OMIT_XFER_OPT <= 0.5\ngini = 0.5\nsamples = 2\nvalue = [1, 1]\nclass = Acceptable"] ;
193 -> 195 ;
196 [label="gini = 0.0\nsamples = 1\nvalue = [1, 0]\nclass = Acceptable"] ;
195 -> 196 ;
197 [label="gini = 0.0\nsamples = 1\nvalue = [0, 1]\nclass = Non-acceptable"] ;
195 -> 197 ;
198 [label="SQLITE_ENABLE_ATOMIC_WRITE <= 0.5\ngini = 0.444\nsamples = 3\nvalue = [1, 2]\nclass = Non-acceptable"] ;
192 -> 198 ;
199 [label="gini = 0.0\nsamples = 2\nvalue = [0, 2]\nclass = Non-acceptable"] ;
198 -> 199 ;
200 [label="gini = 0.0\nsamples = 1\nvalue = [1, 0]\nclass = Acceptable"] ;
198 -> 200 ;
201 [label="gini = 0.0\nsamples = 2\nvalue = [0, 2]\nclass = Non-acceptable"] ;
191 -> 201 ;
202 [label="StandardCacheSize <= 0.5\ngini = 0.444\nsamples = 3\nvalue = [1, 2]\nclass = Non-acceptable"] ;
190 -> 202 ;
203 [label="gini = 0.0\nsamples = 1\nvalue = [1, 0]\nclass = Acceptable"] ;
202 -> 203 ;
204 [label="gini = 0.0\nsamples = 2\nvalue = [0, 2]\nclass = Non-acceptable"] ;
202 -> 204 ;
205 [label="gini = 0.0\nsamples = 1\nvalue = [0, 1]\nclass = Non-acceptable"] ;
189 -> 205 ;
206 [label="gini = 0.0\nsamples = 1\nvalue = [0, 1]\nclass = Non-acceptable"] ;
188 -> 206 ;
207 [label="gini = 0.0\nsamples = 4\nvalue = [0, 4]\nclass = Non-acceptable"] ;
187 -> 207 ;
208 [label="LowerCacheSize <= 0.5\ngini = 0.48\nsamples = 5\nvalue = [3, 2]\nclass = Acceptable"] ;
186 -> 208 ;
209 [label="SQLITE_OMIT_QUICKBALANCE <= 0.5\ngini = 0.375\nsamples = 4\nvalue = [3, 1]\nclass = Acceptable"] ;
208 -> 209 ;
210 [label="gini = 0.0\nsamples = 3\nvalue = [3, 0]\nclass = Acceptable"] ;
209 -> 210 ;
211 [label="gini = 0.0\nsamples = 1\nvalue = [0, 1]\nclass = Non-acceptable"] ;
209 -> 211 ;
212 [label="gini = 0.0\nsamples = 1\nvalue = [0, 1]\nclass = Non-acceptable"] ;
208 -> 212 ;
213 [label="gini = 0.0\nsamples = 3\nvalue = [3, 0]\nclass = Acceptable"] ;
183 -> 213 ;
214 [label="gini = 0.0\nsamples = 4\nvalue = [4, 0]\nclass = Acceptable"] ;
182 -> 214 ;
215 [label="StandardCacheSize <= 0.5\ngini = 0.437\nsamples = 31\nvalue = [10, 21]\nclass = Non-acceptable"] ;
81 -> 215 ;
216 [label="gini = 0.0\nsamples = 4\nvalue = [4, 0]\nclass = Acceptable"] ;
215 -> 216 ;
217 [label="NormalLockingMode <= 0.5\ngini = 0.346\nsamples = 27\nvalue = [6, 21]\nclass = Non-acceptable"] ;
215 -> 217 ;
218 [label="SQLITE_OMIT_LIKE_OPTIMIZATION <= 0.5\ngini = 0.219\nsamples = 24\nvalue = [3, 21]\nclass = Non-acceptable"] ;
217 -> 218 ;
219 [label="SQLITE_OMIT_QUICKBALANCE <= 0.5\ngini = 0.1\nsamples = 19\nvalue = [1, 18]\nclass = Non-acceptable"] ;
218 -> 219 ;
220 [label="gini = 0.0\nsamples = 17\nvalue = [0, 17]\nclass = Non-acceptable"] ;
219 -> 220 ;
221 [label="SQLITE_DISABLE_LFS <= 0.5\ngini = 0.5\nsamples = 2\nvalue = [1, 1]\nclass = Acceptable"] ;
219 -> 221 ;
222 [label="gini = 0.0\nsamples = 1\nvalue = [1, 0]\nclass = Acceptable"] ;
221 -> 222 ;
223 [label="gini = 0.0\nsamples = 1\nvalue = [0, 1]\nclass = Non-acceptable"] ;
221 -> 223 ;
224 [label="SQLITE_OMIT_XFER_OPT <= 0.5\ngini = 0.48\nsamples = 5\nvalue = [2, 3]\nclass = Non-acceptable"] ;
218 -> 224 ;
225 [label="SQLITE_OMIT_SHARED_CACHE <= 0.5\ngini = 0.375\nsamples = 4\nvalue = [1, 3]\nclass = Non-acceptable"] ;
224 -> 225 ;
226 [label="SQLITE_DISABLE_DIRSYNC <= 0.5\ngini = 0.444\nsamples = 3\nvalue = [1, 2]\nclass = Non-acceptable"] ;
225 -> 226 ;
227 [label="SQLITE_ENABLE_STAT2 <= 0.5\ngini = 0.5\nsamples = 2\nvalue = [1, 1]\nclass = Acceptable"] ;
226 -> 227 ;
228 [label="gini = 0.0\nsamples = 1\nvalue = [1, 0]\nclass = Acceptable"] ;
227 -> 228 ;
229 [label="gini = 0.0\nsamples = 1\nvalue = [0, 1]\nclass = Non-acceptable"] ;
227 -> 229 ;
230 [label="gini = 0.0\nsamples = 1\nvalue = [0, 1]\nclass = Non-acceptable"] ;
226 -> 230 ;
231 [label="gini = 0.0\nsamples = 1\nvalue = [0, 1]\nclass = Non-acceptable"] ;
225 -> 231 ;
232 [label="gini = 0.0\nsamples = 1\nvalue = [1, 0]\nclass = Acceptable"] ;
224 -> 232 ;
233 [label="gini = 0.0\nsamples = 3\nvalue = [3, 0]\nclass = Acceptable"] ;
217 -> 233 ;
234 [label="HigherCacheSize <= 0.5\ngini = 0.462\nsamples = 318\nvalue = [115, 203]\nclass = Non-acceptable"] ;
4 -> 234 ;
235 [label="NormalLockingMode <= 0.5\ngini = 0.483\nsamples = 273\nvalue = [111, 162]\nclass = Non-acceptable"] ;
234 -> 235 ;
236 [label="SQLITE_OMIT_QUICKBALANCE <= 0.5\ngini = 0.496\nsamples = 226\nvalue = [103, 123]\nclass = Non-acceptable"] ;
235 -> 236 ;
237 [label="LowerPageSize <= 0.5\ngini = 0.5\nsamples = 191\nvalue = [94, 97]\nclass = Non-acceptable"] ;
236 -> 237 ;
238 [label="SQLITE_SECURE_DELETE <= 0.5\ngini = 0.499\nsamples = 165\nvalue = [86, 79]\nclass = Acceptable"] ;
237 -> 238 ;
239 [label="SQLITE_DISABLE_LFS <= 0.5\ngini = 0.494\nsamples = 133\nvalue = [74, 59]\nclass = Acceptable"] ;
238 -> 239 ;
240 [label="SQLITE_ENABLE_ATOMIC_WRITE <= 0.5\ngini = 0.485\nsamples = 104\nvalue = [61, 43]\nclass = Acceptable"] ;
239 -> 240 ;
241 [label="LowerCacheSize <= 0.5\ngini = 0.471\nsamples = 79\nvalue = [49, 30]\nclass = Acceptable"] ;
240 -> 241 ;
242 [label="StandardPageSize <= 0.5\ngini = 0.444\nsamples = 57\nvalue = [38, 19]\nclass = Acceptable"] ;
241 -> 242 ;
243 [label="SQLITE_ENABLE_STAT2 <= 0.5\ngini = 0.497\nsamples = 28\nvalue = [13, 15]\nclass = Non-acceptable"] ;
242 -> 243 ;
244 [label="SQLITE_OMIT_SHARED_CACHE <= 0.5\ngini = 0.499\nsamples = 23\nvalue = [12, 11]\nclass = Acceptable"] ;
243 -> 244 ;
245 [label="SQLITE_DISABLE_DIRSYNC <= 0.5\ngini = 0.457\nsamples = 17\nvalue = [11, 6]\nclass = Acceptable"] ;
244 -> 245 ;
246 [label="SQLITE_OMIT_LIKE_OPTIMIZATION <= 0.5\ngini = 0.49\nsamples = 14\nvalue = [8, 6]\nclass = Acceptable"] ;
245 -> 246 ;
247 [label="SQLITE_OMIT_AUTOMATIC_INDEX <= 0.5\ngini = 0.444\nsamples = 9\nvalue = [6, 3]\nclass = Acceptable"] ;
246 -> 247 ;
248 [label="SQLITE_OMIT_BTREECOUNT <= 0.5\ngini = 0.5\nsamples = 6\nvalue = [3, 3]\nclass = Acceptable"] ;
247 -> 248 ;
249 [label="SQLITE_OMIT_LOOKASIDE <= 0.5\ngini = 0.375\nsamples = 4\nvalue = [1, 3]\nclass = Non-acceptable"] ;
248 -> 249 ;
250 [label="gini = 0.0\nsamples = 2\nvalue = [0, 2]\nclass = Non-acceptable"] ;
249 -> 250 ;
251 [label="SQLITE_OMIT_XFER_OPT <= 0.5\ngini = 0.5\nsamples = 2\nvalue = [1, 1]\nclass = Acceptable"] ;
249 -> 251 ;
252 [label="gini = 0.0\nsamples = 1\nvalue = [1, 0]\nclass = Acceptable"] ;
251 -> 252 ;
253 [label="gini = 0.0\nsamples = 1\nvalue = [0, 1]\nclass = Non-acceptable"] ;
251 -> 253 ;
254 [label="gini = 0.0\nsamples = 2\nvalue = [2, 0]\nclass = Acceptable"] ;
248 -> 254 ;
255 [label="gini = 0.0\nsamples = 3\nvalue = [3, 0]\nclass = Acceptable"] ;
247 -> 255 ;
256 [label="SQLITE_OMIT_XFER_OPT <= 0.5\ngini = 0.48\nsamples = 5\nvalue = [2, 3]\nclass = Non-acceptable"] ;
246 -> 256 ;
257 [label="HighestPageSize <= 0.5\ngini = 0.375\nsamples = 4\nvalue = [1, 3]\nclass = Non-acceptable"] ;
256 -> 257 ;
258 [label="gini = 0.0\nsamples = 1\nvalue = [0, 1]\nclass = Non-acceptable"] ;
257 -> 258 ;
259 [label="SQLITE_OMIT_BTREECOUNT <= 0.5\ngini = 0.444\nsamples = 3\nvalue = [1, 2]\nclass = Non-acceptable"] ;
257 -> 259 ;
260 [label="SQLITE_OMIT_LOOKASIDE <= 0.5\ngini = 0.5\nsamples = 2\nvalue = [1, 1]\nclass = Acceptable"] ;
259 -> 260 ;
261 [label="gini = 0.0\nsamples = 1\nvalue = [1, 0]\nclass = Acceptable"] ;
260 -> 261 ;
262 [label="gini = 0.0\nsamples = 1\nvalue = [0, 1]\nclass = Non-acceptable"] ;
260 -> 262 ;
263 [label="gini = 0.0\nsamples = 1\nvalue = [0, 1]\nclass = Non-acceptable"] ;
259 -> 263 ;
264 [label="gini = 0.0\nsamples = 1\nvalue = [1, 0]\nclass = Acceptable"] ;
256 -> 264 ;
265 [label="gini = 0.0\nsamples = 3\nvalue = [3, 0]\nclass = Acceptable"] ;
245 -> 265 ;
266 [label="SQLITE_OMIT_LOOKASIDE <= 0.5\ngini = 0.278\nsamples = 6\nvalue = [1, 5]\nclass = Non-acceptable"] ;
244 -> 266 ;
267 [label="HigherPageSize <= 0.5\ngini = 0.375\nsamples = 4\nvalue = [1, 3]\nclass = Non-acceptable"] ;
266 -> 267 ;
268 [label="SQLITE_OMIT_AUTOMATIC_INDEX <= 0.5\ngini = 0.444\nsamples = 3\nvalue = [1, 2]\nclass = Non-acceptable"] ;
267 -> 268 ;
269 [label="SQLITE_OMIT_BETWEEN_OPTIMIZATION <= 0.5\ngini = 0.5\nsamples = 2\nvalue = [1, 1]\nclass = Acceptable"] ;
268 -> 269 ;
270 [label="gini = 0.0\nsamples = 1\nvalue = [1, 0]\nclass = Acceptable"] ;
269 -> 270 ;
271 [label="gini = 0.0\nsamples = 1\nvalue = [0, 1]\nclass = Non-acceptable"] ;
269 -> 271 ;
272 [label="gini = 0.0\nsamples = 1\nvalue = [0, 1]\nclass = Non-acceptable"] ;
268 -> 272 ;
273 [label="gini = 0.0\nsamples = 1\nvalue = [0, 1]\nclass = Non-acceptable"] ;
267 -> 273 ;
274 [label="gini = 0.0\nsamples = 2\nvalue = [0, 2]\nclass = Non-acceptable"] ;
266 -> 274 ;
275 [label="SQLITE_OMIT_SHARED_CACHE <= 0.5\ngini = 0.32\nsamples = 5\nvalue = [1, 4]\nclass = Non-acceptable"] ;
243 -> 275 ;
276 [label="gini = 0.0\nsamples = 4\nvalue = [0, 4]\nclass = Non-acceptable"] ;
275 -> 276 ;
277 [label="gini = 0.0\nsamples = 1\nvalue = [1, 0]\nclass = Acceptable"] ;
275 -> 277 ;
278 [label="SQLITE_ENABLE_STAT2 <= 0.5\ngini = 0.238\nsamples = 29\nvalue = [25, 4]\nclass = Acceptable"] ;
242 -> 278 ;
279 [label="gini = 0.0\nsamples = 19\nvalue = [19, 0]\nclass = Acceptable"] ;
278 -> 279 ;
280 [label="SQLITE_OMIT_SHARED_CACHE <= 0.5\ngini = 0.48\nsamples = 10\nvalue = [6, 4]\nclass = Acceptable"] ;
278 -> 280 ;
281 [label="SQLITE_OMIT_XFER_OPT <= 0.5\ngini = 0.444\nsamples = 6\nvalue = [2, 4]\nclass = Non-acceptable"] ;
280 -> 281 ;
282 [label="SQLITE_OMIT_LOOKASIDE <= 0.5\ngini = 0.32\nsamples = 5\nvalue = [1, 4]\nclass = Non-acceptable"] ;
281 -> 282 ;
283 [label="gini = 0.0\nsamples = 2\nvalue = [0, 2]\nclass = Non-acceptable"] ;
282 -> 283 ;
284 [label="SQLITE_OMIT_BTREECOUNT <= 0.5\ngini = 0.444\nsamples = 3\nvalue = [1, 2]\nclass = Non-acceptable"] ;
282 -> 284 ;
285 [label="gini = 0.0\nsamples = 2\nvalue = [0, 2]\nclass = Non-acceptable"] ;
284 -> 285 ;
286 [label="gini = 0.0\nsamples = 1\nvalue = [1, 0]\nclass = Acceptable"] ;
284 -> 286 ;
287 [label="gini = 0.0\nsamples = 1\nvalue = [1, 0]\nclass = Acceptable"] ;
281 -> 287 ;
288 [label="gini = 0.0\nsamples = 4\nvalue = [4, 0]\nclass = Acceptable"] ;
280 -> 288 ;
289 [label="StandardPageSize <= 0.5\ngini = 0.5\nsamples = 22\nvalue = [11, 11]\nclass = Acceptable"] ;
241 -> 289 ;
290 [label="SQLITE_OMIT_LOOKASIDE <= 0.5\ngini = 0.18\nsamples = 10\nvalue = [9, 1]\nclass = Acceptable"] ;
289 -> 290 ;
291 [label="gini = 0.0\nsamples = 9\nvalue = [9, 0]\nclass = Acceptable"] ;
290 -> 291 ;
292 [label="gini = 0.0\nsamples = 1\nvalue = [0, 1]\nclass = Non-acceptable"] ;
290 -> 292 ;
293 [label="SQLITE_OMIT_SHARED_CACHE <= 0.5\ngini = 0.278\nsamples = 12\nvalue = [2, 10]\nclass = Non-acceptable"] ;
289 -> 293 ;
294 [label="SQLITE_OMIT_AUTOMATIC_INDEX <= 0.5\ngini = 0.18\nsamples = 10\nvalue = [1, 9]\nclass = Non-acceptable"] ;
293 -> 294 ;
295 [label="gini = 0.0\nsamples = 7\nvalue = [0, 7]\nclass = Non-acceptable"] ;
294 -> 295 ;
296 [label="SQLITE_OMIT_BETWEEN_OPTIMIZATION <= 0.5\ngini = 0.444\nsamples = 3\nvalue = [1, 2]\nclass = Non-acceptable"] ;
294 -> 296 ;
297 [label="SQLITE_OMIT_BTREECOUNT <= 0.5\ngini = 0.5\nsamples = 2\nvalue = [1, 1]\nclass = Acceptable"] ;
296 -> 297 ;
298 [label="gini = 0.0\nsamples = 1\nvalue = [1, 0]\nclass = Acceptable"] ;
297 -> 298 ;
299 [label="gini = 0.0\nsamples = 1\nvalue = [0, 1]\nclass = Non-acceptable"] ;
297 -> 299 ;
300 [label="gini = 0.0\nsamples = 1\nvalue = [0, 1]\nclass = Non-acceptable"] ;
296 -> 300 ;
301 [label="SQLITE_OMIT_XFER_OPT <= 0.5\ngini = 0.5\nsamples = 2\nvalue = [1, 1]\nclass = Acceptable"] ;
293 -> 301 ;
302 [label="gini = 0.0\nsamples = 1\nvalue = [1, 0]\nclass = Acceptable"] ;
301 -> 302 ;
303 [label="gini = 0.0\nsamples = 1\nvalue = [0, 1]\nclass = Non-acceptable"] ;
301 -> 303 ;
304 [label="SQLITE_OMIT_XFER_OPT <= 0.5\ngini = 0.499\nsamples = 25\nvalue = [12, 13]\nclass = Non-acceptable"] ;
240 -> 304 ;
305 [label="SQLITE_OMIT_AUTOMATIC_INDEX <= 0.5\ngini = 0.488\nsamples = 19\nvalue = [11, 8]\nclass = Acceptable"] ;
304 -> 305 ;
306 [label="StandardPageSize <= 0.5\ngini = 0.444\nsamples = 15\nvalue = [10, 5]\nclass = Acceptable"] ;
305 -> 306 ;
307 [label="SQLITE_OMIT_BETWEEN_OPTIMIZATION <= 0.5\ngini = 0.48\nsamples = 5\nvalue = [2, 3]\nclass = Non-acceptable"] ;
306 -> 307 ;
308 [label="HighestPageSize <= 0.5\ngini = 0.5\nsamples = 4\nvalue = [2, 2]\nclass = Acceptable"] ;
307 -> 308 ;
309 [label="gini = 0.0\nsamples = 1\nvalue = [1, 0]\nclass = Acceptable"] ;
308 -> 309 ;
310 [label="SQLITE_OMIT_LIKE_OPTIMIZATION <= 0.5\ngini = 0.444\nsamples = 3\nvalue = [1, 2]\nclass = Non-acceptable"] ;
308 -> 310 ;
311 [label="SQLITE_OMIT_BTREECOUNT <= 0.5\ngini = 0.5\nsamples = 2\nvalue = [1, 1]\nclass = Acceptable"] ;
310 -> 311 ;
312 [label="gini = 0.0\nsamples = 1\nvalue = [1, 0]\nclass = Acceptable"] ;
311 -> 312 ;
313 [label="gini = 0.0\nsamples = 1\nvalue = [0, 1]\nclass = Non-acceptable"] ;
311 -> 313 ;
314 [label="gini = 0.0\nsamples = 1\nvalue = [0, 1]\nclass = Non-acceptable"] ;
310 -> 314 ;
315 [label="gini = 0.0\nsamples = 1\nvalue = [0, 1]\nclass = Non-acceptable"] ;
307 -> 315 ;
316 [label="SQLITE_ENABLE_STAT2 <= 0.5\ngini = 0.32\nsamples = 10\nvalue = [8, 2]\nclass = Acceptable"] ;
306 -> 316 ;
317 [label="gini = 0.0\nsamples = 7\nvalue = [7, 0]\nclass = Acceptable"] ;
316 -> 317 ;
318 [label="SQLITE_OMIT_LIKE_OPTIMIZATION <= 0.5\ngini = 0.444\nsamples = 3\nvalue = [1, 2]\nclass = Non-acceptable"] ;
316 -> 318 ;
319 [label="gini = 0.0\nsamples = 2\nvalue = [0, 2]\nclass = Non-acceptable"] ;
318 -> 319 ;
320 [label="gini = 0.0\nsamples = 1\nvalue = [1, 0]\nclass = Acceptable"] ;
318 -> 320 ;
321 [label="SQLITE_DISABLE_DIRSYNC <= 0.5\ngini = 0.375\nsamples = 4\nvalue = [1, 3]\nclass = Non-acceptable"] ;
305 -> 321 ;
322 [label="gini = 0.0\nsamples = 3\nvalue = [0, 3]\nclass = Non-acceptable"] ;
321 -> 322 ;
323 [label="gini = 0.0\nsamples = 1\nvalue = [1, 0]\nclass = Acceptable"] ;
321 -> 323 ;
324 [label="SQLITE_OMIT_SHARED_CACHE <= 0.5\ngini = 0.278\nsamples = 6\nvalue = [1, 5]\nclass = Non-acceptable"] ;
304 -> 324 ;
325 [label="gini = 0.0\nsamples = 5\nvalue = [0, 5]\nclass = Non-acceptable"] ;
324 -> 325 ;
326 [label="gini = 0.0\nsamples = 1\nvalue = [1, 0]\nclass = Acceptable"] ;
324 -> 326 ;
327 [label="SQLITE_OMIT_BTREECOUNT <= 0.5\ngini = 0.495\nsamples = 29\nvalue = [13, 16]\nclass = Non-acceptable"] ;
239 -> 327 ;
328 [label="SQLITE_DISABLE_DIRSYNC <= 0.5\ngini = 0.5\nsamples = 26\nvalue = [13, 13]\nclass = Acceptable"] ;
327 -> 328 ;
329 [label="SQLITE_OMIT_BETWEEN_OPTIMIZATION <= 0.5\ngini = 0.49\nsamples = 21\nvalue = [12, 9]\nclass = Acceptable"] ;
328 -> 329 ;
330 [label="SQLITE_OMIT_AUTOMATIC_INDEX <= 0.5\ngini = 0.5\nsamples = 18\nvalue = [9, 9]\nclass = Acceptable"] ;
329 -> 330 ;
331 [label="HighestPageSize <= 0.5\ngini = 0.49\nsamples = 14\nvalue = [8, 6]\nclass = Acceptable"] ;
330 -> 331 ;
332 [label="SQLITE_ENABLE_ATOMIC_WRITE <= 0.5\ngini = 0.444\nsamples = 9\nvalue = [6, 3]\nclass = Acceptable"] ;
331 -> 332 ;
333 [label="SQLITE_OMIT_LIKE_OPTIMIZATION <= 0.5\ngini = 0.375\nsamples = 8\nvalue = [6, 2]\nclass = Acceptable"] ;
332 -> 333 ;
334 [label="LowerCacheSize <= 0.5\ngini = 0.245\nsamples = 7\nvalue = [6, 1]\nclass = Acceptable"] ;
333 -> 334 ;
335 [label="gini = 0.0\nsamples = 5\nvalue = [5, 0]\nclass = Acceptable"] ;
334 -> 335 ;
336 [label="HigherPageSize <= 0.5\ngini = 0.5\nsamples = 2\nvalue = [1, 1]\nclass = Acceptable"] ;
334 -> 336 ;
337 [label="gini = 0.0\nsamples = 1\nvalue = [1, 0]\nclass = Acceptable"] ;
336 -> 337 ;
338 [label="gini = 0.0\nsamples = 1\nvalue = [0, 1]\nclass = Non-acceptable"] ;
336 -> 338 ;
339 [label="gini = 0.0\nsamples = 1\nvalue = [0, 1]\nclass = Non-acceptable"] ;
333 -> 339 ;
340 [label="gini = 0.0\nsamples = 1\nvalue = [0, 1]\nclass = Non-acceptable"] ;
332 -> 340 ;
341 [label="SQLITE_ENABLE_ATOMIC_WRITE <= 0.5\ngini = 0.48\nsamples = 5\nvalue = [2, 3]\nclass = Non-acceptable"] ;
331 -> 341 ;
342 [label="SQLITE_OMIT_LIKE_OPTIMIZATION <= 0.5\ngini = 0.375\nsamples = 4\nvalue = [1, 3]\nclass = Non-acceptable"] ;
341 -> 342 ;
343 [label="gini = 0.0\nsamples = 3\nvalue = [0, 3]\nclass = Non-acceptable"] ;
342 -> 343 ;
344 [label="gini = 0.0\nsamples = 1\nvalue = [1, 0]\nclass = Acceptable"] ;
342 -> 344 ;
345 [label="gini = 0.0\nsamples = 1\nvalue = [1, 0]\nclass = Acceptable"] ;
341 -> 345 ;
346 [label="HigherPageSize <= 0.5\ngini = 0.375\nsamples = 4\nvalue = [1, 3]\nclass = Non-acceptable"] ;
330 -> 346 ;
347 [label="SQLITE_ENABLE_STAT2 <= 0.5\ngini = 0.444\nsamples = 3\nvalue = [1, 2]\nclass = Non-acceptable"] ;
346 -> 347 ;
348 [label="SQLITE_ENABLE_ATOMIC_WRITE <= 0.5\ngini = 0.5\nsamples = 2\nvalue = [1, 1]\nclass = Acceptable"] ;
347 -> 348 ;
349 [label="gini = 0.0\nsamples = 1\nvalue = [1, 0]\nclass = Acceptable"] ;
348 -> 349 ;
350 [label="gini = 0.0\nsamples = 1\nvalue = [0, 1]\nclass = Non-acceptable"] ;
348 -> 350 ;
351 [label="gini = 0.0\nsamples = 1\nvalue = [0, 1]\nclass = Non-acceptable"] ;
347 -> 351 ;
352 [label="gini = 0.0\nsamples = 1\nvalue = [0, 1]\nclass = Non-acceptable"] ;
346 -> 352 ;
353 [label="gini = 0.0\nsamples = 3\nvalue = [3, 0]\nclass = Acceptable"] ;
329 -> 353 ;
354 [label="HighestPageSize <= 0.5\ngini = 0.32\nsamples = 5\nvalue = [1, 4]\nclass = Non-acceptable"] ;
328 -> 354 ;
355 [label="SQLITE_OMIT_SHARED_CACHE <= 0.5\ngini = 0.375\nsamples = 4\nvalue = [1, 3]\nclass = Non-acceptable"] ;
354 -> 355 ;
356 [label="SQLITE_OMIT_LOOKASIDE <= 0.5\ngini = 0.444\nsamples = 3\nvalue = [1, 2]\nclass = Non-acceptable"] ;
355 -> 356 ;
357 [label="SQLITE_OMIT_BETWEEN_OPTIMIZATION <= 0.5\ngini = 0.5\nsamples = 2\nvalue = [1, 1]\nclass = Acceptable"] ;
356 -> 357 ;
358 [label="gini = 0.0\nsamples = 1\nvalue = [1, 0]\nclass = Acceptable"] ;
357 -> 358 ;
359 [label="gini = 0.0\nsamples = 1\nvalue = [0, 1]\nclass = Non-acceptable"] ;
357 -> 359 ;
360 [label="gini = 0.0\nsamples = 1\nvalue = [0, 1]\nclass = Non-acceptable"] ;
356 -> 360 ;
361 [label="gini = 0.0\nsamples = 1\nvalue = [0, 1]\nclass = Non-acceptable"] ;
355 -> 361 ;
362 [label="gini = 0.0\nsamples = 1\nvalue = [0, 1]\nclass = Non-acceptable"] ;
354 -> 362 ;
363 [label="gini = 0.0\nsamples = 3\nvalue = [0, 3]\nclass = Non-acceptable"] ;
327 -> 363 ;
364 [label="SQLITE_OMIT_BTREECOUNT <= 0.5\ngini = 0.469\nsamples = 32\nvalue = [12, 20]\nclass = Non-acceptable"] ;
238 -> 364 ;
365 [label="SQLITE_OMIT_SHARED_CACHE <= 0.5\ngini = 0.5\nsamples = 24\nvalue = [12, 12]\nclass = Acceptable"] ;
364 -> 365 ;
366 [label="SQLITE_DISABLE_DIRSYNC <= 0.5\ngini = 0.488\nsamples = 19\nvalue = [11, 8]\nclass = Acceptable"] ;
365 -> 366 ;
367 [label="SQLITE_OMIT_AUTOMATIC_INDEX <= 0.5\ngini = 0.457\nsamples = 17\nvalue = [11, 6]\nclass = Acceptable"] ;
366 -> 367 ;
368 [label="SQLITE_ENABLE_ATOMIC_WRITE <= 0.5\ngini = 0.43\nsamples = 16\nvalue = [11, 5]\nclass = Acceptable"] ;
367 -> 368 ;
369 [label="StandardCacheSize <= 0.5\ngini = 0.355\nsamples = 13\nvalue = [10, 3]\nclass = Acceptable"] ;
368 -> 369 ;
370 [label="gini = 0.0\nsamples = 4\nvalue = [4, 0]\nclass = Acceptable"] ;
369 -> 370 ;
371 [label="HigherPageSize <= 0.5\ngini = 0.444\nsamples = 9\nvalue = [6, 3]\nclass = Acceptable"] ;
369 -> 371 ;
372 [label="SQLITE_OMIT_LOOKASIDE <= 0.5\ngini = 0.375\nsamples = 8\nvalue = [6, 2]\nclass = Acceptable"] ;
371 -> 372 ;
373 [label="SQLITE_OMIT_BETWEEN_OPTIMIZATION <= 0.5\ngini = 0.245\nsamples = 7\nvalue = [6, 1]\nclass = Acceptable"] ;
372 -> 373 ;
374 [label="gini = 0.0\nsamples = 5\nvalue = [5, 0]\nclass = Acceptable"] ;
373 -> 374 ;
375 [label="SQLITE_ENABLE_STAT2 <= 0.5\ngini = 0.5\nsamples = 2\nvalue = [1, 1]\nclass = Acceptable"] ;
373 -> 375 ;
376 [label="gini = 0.0\nsamples = 1\nvalue = [1, 0]\nclass = Acceptable"] ;
375 -> 376 ;
377 [label="gini = 0.0\nsamples = 1\nvalue = [0, 1]\nclass = Non-acceptable"] ;
375 -> 377 ;
378 [label="gini = 0.0\nsamples = 1\nvalue = [0, 1]\nclass = Non-acceptable"] ;
372 -> 378 ;
379 [label="gini = 0.0\nsamples = 1\nvalue = [0, 1]\nclass = Non-acceptable"] ;
371 -> 379 ;
380 [label="SQLITE_DISABLE_LFS <= 0.5\ngini = 0.444\nsamples = 3\nvalue = [1, 2]\nclass = Non-acceptable"] ;
368 -> 380 ;
381 [label="gini = 0.0\nsamples = 2\nvalue = [0, 2]\nclass = Non-acceptable"] ;
380 -> 381 ;
382 [label="gini = 0.0\nsamples = 1\nvalue = [1, 0]\nclass = Acceptable"] ;
380 -> 382 ;
383 [label="gini = 0.0\nsamples = 1\nvalue = [0, 1]\nclass = Non-acceptable"] ;
367 -> 383 ;
384 [label="gini = 0.0\nsamples = 2\nvalue = [0, 2]\nclass = Non-acceptable"] ;
366 -> 384 ;
385 [label="SQLITE_ENABLE_ATOMIC_WRITE <= 0.5\ngini = 0.32\nsamples = 5\nvalue = [1, 4]\nclass = Non-acceptable"] ;
365 -> 385 ;
386 [label="SQLITE_OMIT_AUTOMATIC_INDEX <= 0.5\ngini = 0.375\nsamples = 4\nvalue = [1, 3]\nclass = Non-acceptable"] ;
385 -> 386 ;
387 [label="SQLITE_OMIT_BETWEEN_OPTIMIZATION <= 0.5\ngini = 0.444\nsamples = 3\nvalue = [1, 2]\nclass = Non-acceptable"] ;
386 -> 387 ;
388 [label="SQLITE_DISABLE_LFS <= 0.5\ngini = 0.5\nsamples = 2\nvalue = [1, 1]\nclass = Acceptable"] ;
387 -> 388 ;
389 [label="gini = 0.0\nsamples = 1\nvalue = [1, 0]\nclass = Acceptable"] ;
388 -> 389 ;
390 [label="gini = 0.0\nsamples = 1\nvalue = [0, 1]\nclass = Non-acceptable"] ;
388 -> 390 ;
391 [label="gini = 0.0\nsamples = 1\nvalue = [0, 1]\nclass = Non-acceptable"] ;
387 -> 391 ;
392 [label="gini = 0.0\nsamples = 1\nvalue = [0, 1]\nclass = Non-acceptable"] ;
386 -> 392 ;
393 [label="gini = 0.0\nsamples = 1\nvalue = [0, 1]\nclass = Non-acceptable"] ;
385 -> 393 ;
394 [label="gini = 0.0\nsamples = 8\nvalue = [0, 8]\nclass = Non-acceptable"] ;
364 -> 394 ;
395 [label="SQLITE_SECURE_DELETE <= 0.5\ngini = 0.426\nsamples = 26\nvalue = [8, 18]\nclass = Non-acceptable"] ;
237 -> 395 ;
396 [label="SQLITE_ENABLE_STAT2 <= 0.5\ngini = 0.403\nsamples = 25\nvalue = [7, 18]\nclass = Non-acceptable"] ;
395 -> 396 ;
397 [label="SQLITE_DISABLE_LFS <= 0.5\ngini = 0.444\nsamples = 21\nvalue = [7, 14]\nclass = Non-acceptable"] ;
396 -> 397 ;
398 [label="SQLITE_OMIT_SHARED_CACHE <= 0.5\ngini = 0.475\nsamples = 18\nvalue = [7, 11]\nclass = Non-acceptable"] ;
397 -> 398 ;
399 [label="SQLITE_OMIT_LOOKASIDE <= 0.5\ngini = 0.498\nsamples = 15\nvalue = [7, 8]\nclass = Non-acceptable"] ;
398 -> 399 ;
400 [label="SQLITE_OMIT_LIKE_OPTIMIZATION <= 0.5\ngini = 0.497\nsamples = 13\nvalue = [7, 6]\nclass = Acceptable"] ;
399 -> 400 ;
401 [label="SQLITE_OMIT_XFER_OPT <= 0.5\ngini = 0.496\nsamples = 11\nvalue = [5, 6]\nclass = Non-acceptable"] ;
400 -> 401 ;
402 [label="SQLITE_OMIT_BETWEEN_OPTIMIZATION <= 0.5\ngini = 0.5\nsamples = 8\nvalue = [4, 4]\nclass = Acceptable"] ;
401 -> 402 ;
403 [label="SQLITE_OMIT_AUTOMATIC_INDEX <= 0.5\ngini = 0.49\nsamples = 7\nvalue = [3, 4]\nclass = Non-acceptable"] ;
402 -> 403 ;
404 [label="SQLITE_ENABLE_ATOMIC_WRITE <= 0.5\ngini = 0.444\nsamples = 6\nvalue = [2, 4]\nclass = Non-acceptable"] ;
403 -> 404 ;
405 [label="SQLITE_OMIT_BTREECOUNT <= 0.5\ngini = 0.375\nsamples = 4\nvalue = [1, 3]\nclass = Non-acceptable"] ;
404 -> 405 ;
406 [label="gini = 0.0\nsamples = 2\nvalue = [0, 2]\nclass = Non-acceptable"] ;
405 -> 406 ;
407 [label="LowerCacheSize <= 0.5\ngini = 0.5\nsamples = 2\nvalue = [1, 1]\nclass = Acceptable"] ;
405 -> 407 ;
408 [label="gini = 0.0\nsamples = 1\nvalue = [1, 0]\nclass = Acceptable"] ;
407 -> 408 ;
409 [label="gini = 0.0\nsamples = 1\nvalue = [0, 1]\nclass = Non-acceptable"] ;
407 -> 409 ;
410 [label="LowerCacheSize <= 0.5\ngini = 0.5\nsamples = 2\nvalue = [1, 1]\nclass = Acceptable"] ;
404 -> 410 ;
411 [label="gini = 0.0\nsamples = 1\nvalue = [0, 1]\nclass = Non-acceptable"] ;
410 -> 411 ;
412 [label="gini = 0.0\nsamples = 1\nvalue = [1, 0]\nclass = Acceptable"] ;
410 -> 412 ;
413 [label="gini = 0.0\nsamples = 1\nvalue = [1, 0]\nclass = Acceptable"] ;
403 -> 413 ;
414 [label="gini = 0.0\nsamples = 1\nvalue = [1, 0]\nclass = Acceptable"] ;
402 -> 414 ;
415 [label="SQLITE_OMIT_BTREECOUNT <= 0.5\ngini = 0.444\nsamples = 3\nvalue = [1, 2]\nclass = Non-acceptable"] ;
401 -> 415 ;
416 [label="gini = 0.0\nsamples = 2\nvalue = [0, 2]\nclass = Non-acceptable"] ;
415 -> 416 ;
417 [label="gini = 0.0\nsamples = 1\nvalue = [1, 0]\nclass = Acceptable"] ;
415 -> 417 ;
418 [label="gini = 0.0\nsamples = 2\nvalue = [2, 0]\nclass = Acceptable"] ;
400 -> 418 ;
419 [label="gini = 0.0\nsamples = 2\nvalue = [0, 2]\nclass = Non-acceptable"] ;
399 -> 419 ;
420 [label="gini = 0.0\nsamples = 3\nvalue = [0, 3]\nclass = Non-acceptable"] ;
398 -> 420 ;
421 [label="gini = 0.0\nsamples = 3\nvalue = [0, 3]\nclass = Non-acceptable"] ;
397 -> 421 ;
422 [label="gini = 0.0\nsamples = 4\nvalue = [0, 4]\nclass = Non-acceptable"] ;
396 -> 422 ;
423 [label="gini = 0.0\nsamples = 1\nvalue = [1, 0]\nclass = Acceptable"] ;
395 -> 423 ;
424 [label="SQLITE_OMIT_LOOKASIDE <= 0.5\ngini = 0.382\nsamples = 35\nvalue = [9, 26]\nclass = Non-acceptable"] ;
236 -> 424 ;
425 [label="StandardPageSize <= 0.5\ngini = 0.35\nsamples = 31\nvalue = [7, 24]\nclass = Non-acceptable"] ;
424 -> 425 ;
426 [label="HigherPageSize <= 0.5\ngini = 0.153\nsamples = 12\nvalue = [1, 11]\nclass = Non-acceptable"] ;
425 -> 426 ;
427 [label="gini = 0.0\nsamples = 6\nvalue = [0, 6]\nclass = Non-acceptable"] ;
426 -> 427 ;
428 [label="SQLITE_OMIT_AUTOMATIC_INDEX <= 0.5\ngini = 0.278\nsamples = 6\nvalue = [1, 5]\nclass = Non-acceptable"] ;
426 -> 428 ;
429 [label="SQLITE_ENABLE_STAT2 <= 0.5\ngini = 0.32\nsamples = 5\nvalue = [1, 4]\nclass = Non-acceptable"] ;
428 -> 429 ;
430 [label="SQLITE_DISABLE_DIRSYNC <= 0.5\ngini = 0.375\nsamples = 4\nvalue = [1, 3]\nclass = Non-acceptable"] ;
429 -> 430 ;
431 [label="SQLITE_OMIT_BETWEEN_OPTIMIZATION <= 0.5\ngini = 0.444\nsamples = 3\nvalue = [1, 2]\nclass = Non-acceptable"] ;
430 -> 431 ;
432 [label="StandardCacheSize <= 0.5\ngini = 0.5\nsamples = 2\nvalue = [1, 1]\nclass = Acceptable"] ;
431 -> 432 ;
433 [label="gini = 0.0\nsamples = 1\nvalue = [0, 1]\nclass = Non-acceptable"] ;
432 -> 433 ;
434 [label="gini = 0.0\nsamples = 1\nvalue = [1, 0]\nclass = Acceptable"] ;
432 -> 434 ;
435 [label="gini = 0.0\nsamples = 1\nvalue = [0, 1]\nclass = Non-acceptable"] ;
431 -> 435 ;
436 [label="gini = 0.0\nsamples = 1\nvalue = [0, 1]\nclass = Non-acceptable"] ;
430 -> 436 ;
437 [label="gini = 0.0\nsamples = 1\nvalue = [0, 1]\nclass = Non-acceptable"] ;
429 -> 437 ;
438 [label="gini = 0.0\nsamples = 1\nvalue = [0, 1]\nclass = Non-acceptable"] ;
428 -> 438 ;
439 [label="SQLITE_ENABLE_ATOMIC_WRITE <= 0.5\ngini = 0.432\nsamples = 19\nvalue = [6, 13]\nclass = Non-acceptable"] ;
425 -> 439 ;
440 [label="SQLITE_DISABLE_DIRSYNC <= 0.5\ngini = 0.337\nsamples = 14\nvalue = [3, 11]\nclass = Non-acceptable"] ;
439 -> 440 ;
441 [label="SQLITE_ENABLE_STAT2 <= 0.5\ngini = 0.278\nsamples = 12\nvalue = [2, 10]\nclass = Non-acceptable"] ;
440 -> 441 ;
442 [label="gini = 0.0\nsamples = 6\nvalue = [0, 6]\nclass = Non-acceptable"] ;
441 -> 442 ;
443 [label="SQLITE_SECURE_DELETE <= 0.5\ngini = 0.444\nsamples = 6\nvalue = [2, 4]\nclass = Non-acceptable"] ;
441 -> 443 ;
444 [label="SQLITE_OMIT_BTREECOUNT <= 0.5\ngini = 0.32\nsamples = 5\nvalue = [1, 4]\nclass = Non-acceptable"] ;
443 -> 444 ;
445 [label="SQLITE_DISABLE_LFS <= 0.5\ngini = 0.375\nsamples = 4\nvalue = [1, 3]\nclass = Non-acceptable"] ;
444 -> 445 ;
446 [label="SQLITE_OMIT_SHARED_CACHE <= 0.5\ngini = 0.444\nsamples = 3\nvalue = [1, 2]\nclass = Non-acceptable"] ;
445 -> 446 ;
447 [label="SQLITE_OMIT_BETWEEN_OPTIMIZATION <= 0.5\ngini = 0.5\nsamples = 2\nvalue = [1, 1]\nclass = Acceptable"] ;
446 -> 447 ;
448 [label="gini = 0.0\nsamples = 1\nvalue = [1, 0]\nclass = Acceptable"] ;
447 -> 448 ;
449 [label="gini = 0.0\nsamples = 1\nvalue = [0, 1]\nclass = Non-acceptable"] ;
447 -> 449 ;
450 [label="gini = 0.0\nsamples = 1\nvalue = [0, 1]\nclass = Non-acceptable"] ;
446 -> 450 ;
451 [label="gini = 0.0\nsamples = 1\nvalue = [0, 1]\nclass = Non-acceptable"] ;
445 -> 451 ;
452 [label="gini = 0.0\nsamples = 1\nvalue = [0, 1]\nclass = Non-acceptable"] ;
444 -> 452 ;
453 [label="gini = 0.0\nsamples = 1\nvalue = [1, 0]\nclass = Acceptable"] ;
443 -> 453 ;
454 [label="SQLITE_ENABLE_STAT2 <= 0.5\ngini = 0.5\nsamples = 2\nvalue = [1, 1]\nclass = Acceptable"] ;
440 -> 454 ;
455 [label="gini = 0.0\nsamples = 1\nvalue = [1, 0]\nclass = Acceptable"] ;
454 -> 455 ;
456 [label="gini = 0.0\nsamples = 1\nvalue = [0, 1]\nclass = Non-acceptable"] ;
454 -> 456 ;
457 [label="SQLITE_OMIT_XFER_OPT <= 0.5\ngini = 0.48\nsamples = 5\nvalue = [3, 2]\nclass = Acceptable"] ;
439 -> 457 ;
458 [label="SQLITE_DISABLE_DIRSYNC <= 0.5\ngini = 0.375\nsamples = 4\nvalue = [3, 1]\nclass = Acceptable"] ;
457 -> 458 ;
459 [label="gini = 0.0\nsamples = 3\nvalue = [3, 0]\nclass = Acceptable"] ;
458 -> 459 ;
460 [label="gini = 0.0\nsamples = 1\nvalue = [0, 1]\nclass = Non-acceptable"] ;
458 -> 460 ;
461 [label="gini = 0.0\nsamples = 1\nvalue = [0, 1]\nclass = Non-acceptable"] ;
457 -> 461 ;
462 [label="SQLITE_OMIT_LIKE_OPTIMIZATION <= 0.5\ngini = 0.5\nsamples = 4\nvalue = [2, 2]\nclass = Acceptable"] ;
424 -> 462 ;
463 [label="LowerPageSize <= 0.5\ngini = 0.444\nsamples = 3\nvalue = [1, 2]\nclass = Non-acceptable"] ;
462 -> 463 ;
464 [label="gini = 0.0\nsamples = 2\nvalue = [0, 2]\nclass = Non-acceptable"] ;
463 -> 464 ;
465 [label="gini = 0.0\nsamples = 1\nvalue = [1, 0]\nclass = Acceptable"] ;
463 -> 465 ;
466 [label="gini = 0.0\nsamples = 1\nvalue = [1, 0]\nclass = Acceptable"] ;
462 -> 466 ;
467 [label="SQLITE_OMIT_LIKE_OPTIMIZATION <= 0.5\ngini = 0.282\nsamples = 47\nvalue = [8, 39]\nclass = Non-acceptable"] ;
235 -> 467 ;
468 [label="SQLITE_ENABLE_STAT2 <= 0.5\ngini = 0.219\nsamples = 40\nvalue = [5, 35]\nclass = Non-acceptable"] ;
467 -> 468 ;
469 [label="SQLITE_ENABLE_ATOMIC_WRITE <= 0.5\ngini = 0.161\nsamples = 34\nvalue = [3, 31]\nclass = Non-acceptable"] ;
468 -> 469 ;
470 [label="SQLITE_OMIT_XFER_OPT <= 0.5\ngini = 0.121\nsamples = 31\nvalue = [2, 29]\nclass = Non-acceptable"] ;
469 -> 470 ;
471 [label="SQLITE_OMIT_BTREECOUNT <= 0.5\ngini = 0.074\nsamples = 26\nvalue = [1, 25]\nclass = Non-acceptable"] ;
470 -> 471 ;
472 [label="gini = 0.0\nsamples = 21\nvalue = [0, 21]\nclass = Non-acceptable"] ;
471 -> 472 ;
473 [label="StandardPageSize <= 0.5\ngini = 0.32\nsamples = 5\nvalue = [1, 4]\nclass = Non-acceptable"] ;
471 -> 473 ;
474 [label="gini = 0.0\nsamples = 1\nvalue = [0, 1]\nclass = Non-acceptable"] ;
473 -> 474 ;
475 [label="SQLITE_OMIT_LOOKASIDE <= 0.5\ngini = 0.375\nsamples = 4\nvalue = [1, 3]\nclass = Non-acceptable"] ;
473 -> 475 ;
476 [label="SQLITE_SECURE_DELETE <= 0.5\ngini = 0.444\nsamples = 3\nvalue = [1, 2]\nclass = Non-acceptable"] ;
475 -> 476 ;
477 [label="SQLITE_OMIT_BETWEEN_OPTIMIZATION <= 0.5\ngini = 0.5\nsamples = 2\nvalue = [1, 1]\nclass = Acceptable"] ;
476 -> 477 ;
478 [label="gini = 0.0\nsamples = 1\nvalue = [1, 0]\nclass = Acceptable"] ;
477 -> 478 ;
479 [label="gini = 0.0\nsamples = 1\nvalue = [0, 1]\nclass = Non-acceptable"] ;
477 -> 479 ;
480 [label="gini = 0.0\nsamples = 1\nvalue = [0, 1]\nclass = Non-acceptable"] ;
476 -> 480 ;
481 [label="gini = 0.0\nsamples = 1\nvalue = [0, 1]\nclass = Non-acceptable"] ;
475 -> 481 ;
482 [label="StandardPageSize <= 0.5\ngini = 0.32\nsamples = 5\nvalue = [1, 4]\nclass = Non-acceptable"] ;
470 -> 482 ;
483 [label="gini = 0.0\nsamples = 2\nvalue = [0, 2]\nclass = Non-acceptable"] ;
482 -> 483 ;
484 [label="SQLITE_DISABLE_DIRSYNC <= 0.5\ngini = 0.444\nsamples = 3\nvalue = [1, 2]\nclass = Non-acceptable"] ;
482 -> 484 ;
485 [label="SQLITE_OMIT_QUICKBALANCE <= 0.5\ngini = 0.5\nsamples = 2\nvalue = [1, 1]\nclass = Acceptable"] ;
484 -> 485 ;
486 [label="gini = 0.0\nsamples = 1\nvalue = [1, 0]\nclass = Acceptable"] ;
485 -> 486 ;
487 [label="gini = 0.0\nsamples = 1\nvalue = [0, 1]\nclass = Non-acceptable"] ;
485 -> 487 ;
488 [label="gini = 0.0\nsamples = 1\nvalue = [0, 1]\nclass = Non-acceptable"] ;
484 -> 488 ;
489 [label="HigherPageSize <= 0.5\ngini = 0.444\nsamples = 3\nvalue = [1, 2]\nclass = Non-acceptable"] ;
469 -> 489 ;
490 [label="gini = 0.0\nsamples = 2\nvalue = [0, 2]\nclass = Non-acceptable"] ;
489 -> 490 ;
491 [label="gini = 0.0\nsamples = 1\nvalue = [1, 0]\nclass = Acceptable"] ;
489 -> 491 ;
492 [label="StandardCacheSize <= 0.5\ngini = 0.444\nsamples = 6\nvalue = [2, 4]\nclass = Non-acceptable"] ;
468 -> 492 ;
493 [label="gini = 0.0\nsamples = 1\nvalue = [1, 0]\nclass = Acceptable"] ;
492 -> 493 ;
494 [label="SQLITE_OMIT_LOOKASIDE <= 0.5\ngini = 0.32\nsamples = 5\nvalue = [1, 4]\nclass = Non-acceptable"] ;
492 -> 494 ;
495 [label="SQLITE_DISABLE_LFS <= 0.5\ngini = 0.375\nsamples = 4\nvalue = [1, 3]\nclass = Non-acceptable"] ;
494 -> 495 ;
496 [label="SQLITE_OMIT_SHARED_CACHE <= 0.5\ngini = 0.444\nsamples = 3\nvalue = [1, 2]\nclass = Non-acceptable"] ;
495 -> 496 ;
497 [label="SQLITE_OMIT_BTREECOUNT <= 0.5\ngini = 0.5\nsamples = 2\nvalue = [1, 1]\nclass = Acceptable"] ;
496 -> 497 ;
498 [label="gini = 0.0\nsamples = 1\nvalue = [1, 0]\nclass = Acceptable"] ;
497 -> 498 ;
499 [label="gini = 0.0\nsamples = 1\nvalue = [0, 1]\nclass = Non-acceptable"] ;
497 -> 499 ;
500 [label="gini = 0.0\nsamples = 1\nvalue = [0, 1]\nclass = Non-acceptable"] ;
496 -> 500 ;
501 [label="gini = 0.0\nsamples = 1\nvalue = [0, 1]\nclass = Non-acceptable"] ;
495 -> 501 ;
502 [label="gini = 0.0\nsamples = 1\nvalue = [0, 1]\nclass = Non-acceptable"] ;
494 -> 502 ;
503 [label="SQLITE_OMIT_XFER_OPT <= 0.5\ngini = 0.49\nsamples = 7\nvalue = [3, 4]\nclass = Non-acceptable"] ;
467 -> 503 ;
504 [label="SQLITE_OMIT_BETWEEN_OPTIMIZATION <= 0.5\ngini = 0.444\nsamples = 6\nvalue = [2, 4]\nclass = Non-acceptable"] ;
503 -> 504 ;
505 [label="SQLITE_DISABLE_DIRSYNC <= 0.5\ngini = 0.32\nsamples = 5\nvalue = [1, 4]\nclass = Non-acceptable"] ;
504 -> 505 ;
506 [label="SQLITE_ENABLE_STAT2 <= 0.5\ngini = 0.375\nsamples = 4\nvalue = [1, 3]\nclass = Non-acceptable"] ;
505 -> 506 ;
507 [label="SQLITE_DISABLE_LFS <= 0.5\ngini = 0.444\nsamples = 3\nvalue = [1, 2]\nclass = Non-acceptable"] ;
506 -> 507 ;
508 [label="SQLITE_OMIT_BTREECOUNT <= 0.5\ngini = 0.5\nsamples = 2\nvalue = [1, 1]\nclass = Acceptable"] ;
507 -> 508 ;
509 [label="gini = 0.0\nsamples = 1\nvalue = [1, 0]\nclass = Acceptable"] ;
508 -> 509 ;
510 [label="gini = 0.0\nsamples = 1\nvalue = [0, 1]\nclass = Non-acceptable"] ;
508 -> 510 ;
511 [label="gini = 0.0\nsamples = 1\nvalue = [0, 1]\nclass = Non-acceptable"] ;
507 -> 511 ;
512 [label="gini = 0.0\nsamples = 1\nvalue = [0, 1]\nclass = Non-acceptable"] ;
506 -> 512 ;
513 [label="gini = 0.0\nsamples = 1\nvalue = [0, 1]\nclass = Non-acceptable"] ;
505 -> 513 ;
514 [label="gini = 0.0\nsamples = 1\nvalue = [1, 0]\nclass = Acceptable"] ;
504 -> 514 ;
515 [label="gini = 0.0\nsamples = 1\nvalue = [1, 0]\nclass = Acceptable"] ;
503 -> 515 ;
516 [label="SQLITE_OMIT_BTREECOUNT <= 0.5\ngini = 0.162\nsamples = 45\nvalue = [4, 41]\nclass = Non-acceptable"] ;
234 -> 516 ;
517 [label="SQLITE_SECURE_DELETE <= 0.5\ngini = 0.1\nsamples = 38\nvalue = [2, 36]\nclass = Non-acceptable"] ;
516 -> 517 ;
518 [label="SQLITE_OMIT_LOOKASIDE <= 0.5\ngini = 0.062\nsamples = 31\nvalue = [1, 30]\nclass = Non-acceptable"] ;
517 -> 518 ;
519 [label="gini = 0.0\nsamples = 24\nvalue = [0, 24]\nclass = Non-acceptable"] ;
518 -> 519 ;
520 [label="StandardPageSize <= 0.5\ngini = 0.245\nsamples = 7\nvalue = [1, 6]\nclass = Non-acceptable"] ;
518 -> 520 ;
521 [label="gini = 0.0\nsamples = 2\nvalue = [0, 2]\nclass = Non-acceptable"] ;
520 -> 521 ;
522 [label="NormalLockingMode <= 0.5\ngini = 0.32\nsamples = 5\nvalue = [1, 4]\nclass = Non-acceptable"] ;
520 -> 522 ;
523 [label="SQLITE_OMIT_BETWEEN_OPTIMIZATION <= 0.5\ngini = 0.375\nsamples = 4\nvalue = [1, 3]\nclass = Non-acceptable"] ;
522 -> 523 ;
524 [label="SQLITE_OMIT_AUTOMATIC_INDEX <= 0.5\ngini = 0.444\nsamples = 3\nvalue = [1, 2]\nclass = Non-acceptable"] ;
523 -> 524 ;
525 [label="SQLITE_DISABLE_LFS <= 0.5\ngini = 0.5\nsamples = 2\nvalue = [1, 1]\nclass = Acceptable"] ;
524 -> 525 ;
526 [label="gini = 0.0\nsamples = 1\nvalue = [1, 0]\nclass = Acceptable"] ;
525 -> 526 ;
527 [label="gini = 0.0\nsamples = 1\nvalue = [0, 1]\nclass = Non-acceptable"] ;
525 -> 527 ;
528 [label="gini = 0.0\nsamples = 1\nvalue = [0, 1]\nclass = Non-acceptable"] ;
524 -> 528 ;
529 [label="gini = 0.0\nsamples = 1\nvalue = [0, 1]\nclass = Non-acceptable"] ;
523 -> 529 ;
530 [label="gini = 0.0\nsamples = 1\nvalue = [0, 1]\nclass = Non-acceptable"] ;
522 -> 530 ;
531 [label="SQLITE_OMIT_LOOKASIDE <= 0.5\ngini = 0.245\nsamples = 7\nvalue = [1, 6]\nclass = Non-acceptable"] ;
517 -> 531 ;
532 [label="StandardPageSize <= 0.5\ngini = 0.278\nsamples = 6\nvalue = [1, 5]\nclass = Non-acceptable"] ;
531 -> 532 ;
533 [label="gini = 0.0\nsamples = 1\nvalue = [0, 1]\nclass = Non-acceptable"] ;
532 -> 533 ;
534 [label="SQLITE_DISABLE_LFS <= 0.5\ngini = 0.32\nsamples = 5\nvalue = [1, 4]\nclass = Non-acceptable"] ;
532 -> 534 ;
535 [label="SQLITE_OMIT_QUICKBALANCE <= 0.5\ngini = 0.375\nsamples = 4\nvalue = [1, 3]\nclass = Non-acceptable"] ;
534 -> 535 ;
536 [label="SQLITE_OMIT_BETWEEN_OPTIMIZATION <= 0.5\ngini = 0.444\nsamples = 3\nvalue = [1, 2]\nclass = Non-acceptable"] ;
535 -> 536 ;
537 [label="SQLITE_ENABLE_STAT2 <= 0.5\ngini = 0.5\nsamples = 2\nvalue = [1, 1]\nclass = Acceptable"] ;
536 -> 537 ;
538 [label="gini = 0.0\nsamples = 1\nvalue = [1, 0]\nclass = Acceptable"] ;
537 -> 538 ;
539 [label="gini = 0.0\nsamples = 1\nvalue = [0, 1]\nclass = Non-acceptable"] ;
537 -> 539 ;
540 [label="gini = 0.0\nsamples = 1\nvalue = [0, 1]\nclass = Non-acceptable"] ;
536 -> 540 ;
541 [label="gini = 0.0\nsamples = 1\nvalue = [0, 1]\nclass = Non-acceptable"] ;
535 -> 541 ;
542 [label="gini = 0.0\nsamples = 1\nvalue = [0, 1]\nclass = Non-acceptable"] ;
534 -> 542 ;
543 [label="gini = 0.0\nsamples = 1\nvalue = [0, 1]\nclass = Non-acceptable"] ;
531 -> 543 ;
544 [label="SQLITE_SECURE_DELETE <= 0.5\ngini = 0.408\nsamples = 7\nvalue = [2, 5]\nclass = Non-acceptable"] ;
516 -> 544 ;
545 [label="SQLITE_OMIT_QUICKBALANCE <= 0.5\ngini = 0.278\nsamples = 6\nvalue = [1, 5]\nclass = Non-acceptable"] ;
544 -> 545 ;
546 [label="SQLITE_ENABLE_ATOMIC_WRITE <= 0.5\ngini = 0.32\nsamples = 5\nvalue = [1, 4]\nclass = Non-acceptable"] ;
545 -> 546 ;
547 [label="SQLITE_OMIT_BETWEEN_OPTIMIZATION <= 0.5\ngini = 0.375\nsamples = 4\nvalue = [1, 3]\nclass = Non-acceptable"] ;
546 -> 547 ;
548 [label="SQLITE_DISABLE_DIRSYNC <= 0.5\ngini = 0.444\nsamples = 3\nvalue = [1, 2]\nclass = Non-acceptable"] ;
547 -> 548 ;
549 [label="SQLITE_DISABLE_LFS <= 0.5\ngini = 0.5\nsamples = 2\nvalue = [1, 1]\nclass = Acceptable"] ;
548 -> 549 ;
550 [label="gini = 0.0\nsamples = 1\nvalue = [1, 0]\nclass = Acceptable"] ;
549 -> 550 ;
551 [label="gini = 0.0\nsamples = 1\nvalue = [0, 1]\nclass = Non-acceptable"] ;
549 -> 551 ;
552 [label="gini = 0.0\nsamples = 1\nvalue = [0, 1]\nclass = Non-acceptable"] ;
548 -> 552 ;
553 [label="gini = 0.0\nsamples = 1\nvalue = [0, 1]\nclass = Non-acceptable"] ;
547 -> 553 ;
554 [label="gini = 0.0\nsamples = 1\nvalue = [0, 1]\nclass = Non-acceptable"] ;
546 -> 554 ;
555 [label="gini = 0.0\nsamples = 1\nvalue = [0, 1]\nclass = Non-acceptable"] ;
545 -> 555 ;
556 [label="gini = 0.0\nsamples = 1\nvalue = [1, 0]\nclass = Acceptable"] ;
544 -> 556 ;
557 [label="AutoVacuumOn <= 0.5\ngini = 0.462\nsamples = 226\nvalue = [82, 144]\nclass = Non-acceptable"] ;
3 -> 557 ;
558 [label="SQLITE_DISABLE_LFS <= 0.5\ngini = 0.213\nsamples = 124\nvalue = [15, 109]\nclass = Non-acceptable"] ;
557 -> 558 ;
559 [label="StandardPageSize <= 0.5\ngini = 0.18\nsamples = 110\nvalue = [11, 99]\nclass = Non-acceptable"] ;
558 -> 559 ;
560 [label="SQLITE_ENABLE_STAT2 <= 0.5\ngini = 0.059\nsamples = 33\nvalue = [1, 32]\nclass = Non-acceptable"] ;
559 -> 560 ;
561 [label="gini = 0.0\nsamples = 29\nvalue = [0, 29]\nclass = Non-acceptable"] ;
560 -> 561 ;
562 [label="HigherPageSize <= 0.5\ngini = 0.375\nsamples = 4\nvalue = [1, 3]\nclass = Non-acceptable"] ;
560 -> 562 ;
563 [label="SQLITE_TEMP_STOREone <= 0.5\ngini = 0.5\nsamples = 2\nvalue = [1, 1]\nclass = Acceptable"] ;
562 -> 563 ;
564 [label="gini = 0.0\nsamples = 1\nvalue = [0, 1]\nclass = Non-acceptable"] ;
563 -> 564 ;
565 [label="gini = 0.0\nsamples = 1\nvalue = [1, 0]\nclass = Acceptable"] ;
563 -> 565 ;
566 [label="gini = 0.0\nsamples = 2\nvalue = [0, 2]\nclass = Non-acceptable"] ;
562 -> 566 ;
567 [label="SQLITE_ENABLE_ATOMIC_WRITE <= 0.5\ngini = 0.226\nsamples = 77\nvalue = [10, 67]\nclass = Non-acceptable"] ;
559 -> 567 ;
568 [label="SQLITE_ENABLE_STAT2 <= 0.5\ngini = 0.264\nsamples = 64\nvalue = [10, 54]\nclass = Non-acceptable"] ;
567 -> 568 ;
569 [label="SQLITE_DISABLE_DIRSYNC <= 0.5\ngini = 0.306\nsamples = 53\nvalue = [10, 43]\nclass = Non-acceptable"] ;
568 -> 569 ;
570 [label="SQLITE_OMIT_LIKE_OPTIMIZATION <= 0.5\ngini = 0.351\nsamples = 44\nvalue = [10, 34]\nclass = Non-acceptable"] ;
569 -> 570 ;
571 [label="ExclusiveLock <= 0.5\ngini = 0.381\nsamples = 39\nvalue = [10, 29]\nclass = Non-acceptable"] ;
570 -> 571 ;
572 [label="SQLITE_OMIT_SHARED_CACHE <= 0.5\ngini = 0.18\nsamples = 10\nvalue = [1, 9]\nclass = Non-acceptable"] ;
571 -> 572 ;
573 [label="gini = 0.0\nsamples = 8\nvalue = [0, 8]\nclass = Non-acceptable"] ;
572 -> 573 ;
574 [label="SQLITE_TEMP_STOREthree <= 0.5\ngini = 0.5\nsamples = 2\nvalue = [1, 1]\nclass = Acceptable"] ;
572 -> 574 ;
575 [label="gini = 0.0\nsamples = 1\nvalue = [1, 0]\nclass = Acceptable"] ;
574 -> 575 ;
576 [label="gini = 0.0\nsamples = 1\nvalue = [0, 1]\nclass = Non-acceptable"] ;
574 -> 576 ;
577 [label="SQLITE_OMIT_QUICKBALANCE <= 0.5\ngini = 0.428\nsamples = 29\nvalue = [9, 20]\nclass = Non-acceptable"] ;
571 -> 577 ;
578 [label="SQLITE_OMIT_SHARED_CACHE <= 0.5\ngini = 0.48\nsamples = 20\nvalue = [8, 12]\nclass = Non-acceptable"] ;
577 -> 578 ;
579 [label="SQLITE_SECURE_DELETE <= 0.5\ngini = 0.498\nsamples = 17\nvalue = [8, 9]\nclass = Non-acceptable"] ;
578 -> 579 ;
580 [label="SQLITE_TEMP_STOREthree <= 0.5\ngini = 0.492\nsamples = 16\nvalue = [7, 9]\nclass = Non-acceptable"] ;
579 -> 580 ;
581 [label="SQLITE_OMIT_XFER_OPT <= 0.5\ngini = 0.49\nsamples = 7\nvalue = [4, 3]\nclass = Acceptable"] ;
580 -> 581 ;
582 [label="HigherCacheSize <= 0.5\ngini = 0.32\nsamples = 5\nvalue = [4, 1]\nclass = Acceptable"] ;
581 -> 582 ;
583 [label="gini = 0.0\nsamples = 3\nvalue = [3, 0]\nclass = Acceptable"] ;
582 -> 583 ;
584 [label="SQLITE_OMIT_BTREECOUNT <= 0.5\ngini = 0.5\nsamples = 2\nvalue = [1, 1]\nclass = Acceptable"] ;
582 -> 584 ;
585 [label="gini = 0.0\nsamples = 1\nvalue = [0, 1]\nclass = Non-acceptable"] ;
584 -> 585 ;
586 [label="gini = 0.0\nsamples = 1\nvalue = [1, 0]\nclass = Acceptable"] ;
584 -> 586 ;
587 [label="gini = 0.0\nsamples = 2\nvalue = [0, 2]\nclass = Non-acceptable"] ;
581 -> 587 ;
588 [label="StandardCacheSize <= 0.5\ngini = 0.444\nsamples = 9\nvalue = [3, 6]\nclass = Non-acceptable"] ;
580 -> 588 ;
589 [label="gini = 0.0\nsamples = 4\nvalue = [0, 4]\nclass = Non-acceptable"] ;
588 -> 589 ;
590 [label="SQLITE_OMIT_BETWEEN_OPTIMIZATION <= 0.5\ngini = 0.48\nsamples = 5\nvalue = [3, 2]\nclass = Acceptable"] ;
588 -> 590 ;
591 [label="gini = 0.0\nsamples = 2\nvalue = [2, 0]\nclass = Acceptable"] ;
590 -> 591 ;
592 [label="SQLITE_OMIT_LOOKASIDE <= 0.5\ngini = 0.444\nsamples = 3\nvalue = [1, 2]\nclass = Non-acceptable"] ;
590 -> 592 ;
593 [label="SQLITE_OMIT_AUTOMATIC_INDEX <= 0.5\ngini = 0.5\nsamples = 2\nvalue = [1, 1]\nclass = Acceptable"] ;
592 -> 593 ;
594 [label="gini = 0.0\nsamples = 1\nvalue = [1, 0]\nclass = Acceptable"] ;
593 -> 594 ;
595 [label="gini = 0.0\nsamples = 1\nvalue = [0, 1]\nclass = Non-acceptable"] ;
593 -> 595 ;
596 [label="gini = 0.0\nsamples = 1\nvalue = [0, 1]\nclass = Non-acceptable"] ;
592 -> 596 ;
597 [label="gini = 0.0\nsamples = 1\nvalue = [1, 0]\nclass = Acceptable"] ;
579 -> 597 ;
598 [label="gini = 0.0\nsamples = 3\nvalue = [0, 3]\nclass = Non-acceptable"] ;
578 -> 598 ;
599 [label="SQLITE_TEMP_STOREthree <= 0.5\ngini = 0.198\nsamples = 9\nvalue = [1, 8]\nclass = Non-acceptable"] ;
577 -> 599 ;
600 [label="SQLITE_OMIT_BETWEEN_OPTIMIZATION <= 0.5\ngini = 0.245\nsamples = 7\nvalue = [1, 6]\nclass = Non-acceptable"] ;
599 -> 600 ;
601 [label="SQLITE_SECURE_DELETE <= 0.5\ngini = 0.278\nsamples = 6\nvalue = [1, 5]\nclass = Non-acceptable"] ;
600 -> 601 ;
602 [label="SQLITE_OMIT_AUTOMATIC_INDEX <= 0.5\ngini = 0.32\nsamples = 5\nvalue = [1, 4]\nclass = Non-acceptable"] ;
601 -> 602 ;
603 [label="SQLITE_OMIT_BTREECOUNT <= 0.5\ngini = 0.375\nsamples = 4\nvalue = [1, 3]\nclass = Non-acceptable"] ;
602 -> 603 ;
604 [label="SQLITE_OMIT_LOOKASIDE <= 0.5\ngini = 0.444\nsamples = 3\nvalue = [1, 2]\nclass = Non-acceptable"] ;
603 -> 604 ;
605 [label="SQLITE_OMIT_SHARED_CACHE <= 0.5\ngini = 0.5\nsamples = 2\nvalue = [1, 1]\nclass = Acceptable"] ;
604 -> 605 ;
606 [label="gini = 0.0\nsamples = 1\nvalue = [1, 0]\nclass = Acceptable"] ;
605 -> 606 ;
607 [label="gini = 0.0\nsamples = 1\nvalue = [0, 1]\nclass = Non-acceptable"] ;
605 -> 607 ;
608 [label="gini = 0.0\nsamples = 1\nvalue = [0, 1]\nclass = Non-acceptable"] ;
604 -> 608 ;
609 [label="gini = 0.0\nsamples = 1\nvalue = [0, 1]\nclass = Non-acceptable"] ;
603 -> 609 ;
610 [label="gini = 0.0\nsamples = 1\nvalue = [0, 1]\nclass = Non-acceptable"] ;
602 -> 610 ;
611 [label="gini = 0.0\nsamples = 1\nvalue = [0, 1]\nclass = Non-acceptable"] ;
601 -> 611 ;
612 [label="gini = 0.0\nsamples = 1\nvalue = [0, 1]\nclass = Non-acceptable"] ;
600 -> 612 ;
613 [label="gini = 0.0\nsamples = 2\nvalue = [0, 2]\nclass = Non-acceptable"] ;
599 -> 613 ;
614 [label="gini = 0.0\nsamples = 5\nvalue = [0, 5]\nclass = Non-acceptable"] ;
570 -> 614 ;
615 [label="gini = 0.0\nsamples = 9\nvalue = [0, 9]\nclass = Non-acceptable"] ;
569 -> 615 ;
616 [label="gini = 0.0\nsamples = 11\nvalue = [0, 11]\nclass = Non-acceptable"] ;
568 -> 616 ;
617 [label="gini = 0.0\nsamples = 13\nvalue = [0, 13]\nclass = Non-acceptable"] ;
567 -> 617 ;
618 [label="StandardPageSize <= 0.5\ngini = 0.408\nsamples = 14\nvalue = [4, 10]\nclass = Non-acceptable"] ;
558 -> 618 ;
619 [label="SQLITE_TEMP_STOREone <= 0.5\ngini = 0.375\nsamples = 4\nvalue = [3, 1]\nclass = Acceptable"] ;
618 -> 619 ;
620 [label="gini = 0.0\nsamples = 2\nvalue = [2, 0]\nclass = Acceptable"] ;
619 -> 620 ;
621 [label="SQLITE_OMIT_LOOKASIDE <= 0.5\ngini = 0.5\nsamples = 2\nvalue = [1, 1]\nclass = Acceptable"] ;
619 -> 621 ;
622 [label="gini = 0.0\nsamples = 1\nvalue = [1, 0]\nclass = Acceptable"] ;
621 -> 622 ;
623 [label="gini = 0.0\nsamples = 1\nvalue = [0, 1]\nclass = Non-acceptable"] ;
621 -> 623 ;
624 [label="LowerCacheSize <= 0.5\ngini = 0.18\nsamples = 10\nvalue = [1, 9]\nclass = Non-acceptable"] ;
618 -> 624 ;
625 [label="gini = 0.0\nsamples = 9\nvalue = [0, 9]\nclass = Non-acceptable"] ;
624 -> 625 ;
626 [label="gini = 0.0\nsamples = 1\nvalue = [1, 0]\nclass = Acceptable"] ;
624 -> 626 ;
627 [label="SQLITE_SECURE_DELETE <= 0.5\ngini = 0.451\nsamples = 102\nvalue = [67, 35]\nclass = Acceptable"] ;
557 -> 627 ;
628 [label="SQLITE_DISABLE_LFS <= 0.5\ngini = 0.48\nsamples = 85\nvalue = [51, 34]\nclass = Acceptable"] ;
627 -> 628 ;
629 [label="SQLITE_TEMP_STOREthree <= 0.5\ngini = 0.458\nsamples = 76\nvalue = [49, 27]\nclass = Acceptable"] ;
628 -> 629 ;
630 [label="StandardCacheSize <= 0.5\ngini = 0.497\nsamples = 37\nvalue = [20, 17]\nclass = Acceptable"] ;
629 -> 630 ;
631 [label="ExclusiveLock <= 0.5\ngini = 0.391\nsamples = 15\nvalue = [11, 4]\nclass = Acceptable"] ;
630 -> 631 ;
632 [label="gini = 0.0\nsamples = 1\nvalue = [0, 1]\nclass = Non-acceptable"] ;
631 -> 632 ;
633 [label="SQLITE_OMIT_SHARED_CACHE <= 0.5\ngini = 0.337\nsamples = 14\nvalue = [11, 3]\nclass = Acceptable"] ;
631 -> 633 ;
634 [label="SQLITE_DISABLE_DIRSYNC <= 0.5\ngini = 0.26\nsamples = 13\nvalue = [11, 2]\nclass = Acceptable"] ;
633 -> 634 ;
635 [label="LowerCacheSize <= 0.5\ngini = 0.165\nsamples = 11\nvalue = [10, 1]\nclass = Acceptable"] ;
634 -> 635 ;
636 [label="gini = 0.0\nsamples = 5\nvalue = [5, 0]\nclass = Acceptable"] ;
635 -> 636 ;
637 [label="SQLITE_ENABLE_ATOMIC_WRITE <= 0.5\ngini = 0.278\nsamples = 6\nvalue = [5, 1]\nclass = Acceptable"] ;
635 -> 637 ;
638 [label="SQLITE_OMIT_LOOKASIDE <= 0.5\ngini = 0.32\nsamples = 5\nvalue = [4, 1]\nclass = Acceptable"] ;
637 -> 638 ;
639 [label="SQLITE_OMIT_BETWEEN_OPTIMIZATION <= 0.5\ngini = 0.375\nsamples = 4\nvalue = [3, 1]\nclass = Acceptable"] ;
638 -> 639 ;
640 [label="StandardPageSize <= 0.5\ngini = 0.444\nsamples = 3\nvalue = [2, 1]\nclass = Acceptable"] ;
639 -> 640 ;
641 [label="gini = 0.0\nsamples = 1\nvalue = [1, 0]\nclass = Acceptable"] ;
640 -> 641 ;
642 [label="SQLITE_ENABLE_STAT2 <= 0.5\ngini = 0.5\nsamples = 2\nvalue = [1, 1]\nclass = Acceptable"] ;
640 -> 642 ;
643 [label="gini = 0.0\nsamples = 1\nvalue = [0, 1]\nclass = Non-acceptable"] ;
642 -> 643 ;
644 [label="gini = 0.0\nsamples = 1\nvalue = [1, 0]\nclass = Acceptable"] ;
642 -> 644 ;
645 [label="gini = 0.0\nsamples = 1\nvalue = [1, 0]\nclass = Acceptable"] ;
639 -> 645 ;
646 [label="gini = 0.0\nsamples = 1\nvalue = [1, 0]\nclass = Acceptable"] ;
638 -> 646 ;
647 [label="gini = 0.0\nsamples = 1\nvalue = [1, 0]\nclass = Acceptable"] ;
637 -> 647 ;
648 [label="LowerCacheSize <= 0.5\ngini = 0.5\nsamples = 2\nvalue = [1, 1]\nclass = Acceptable"] ;
634 -> 648 ;
649 [label="gini = 0.0\nsamples = 1\nvalue = [0, 1]\nclass = Non-acceptable"] ;
648 -> 649 ;
650 [label="gini = 0.0\nsamples = 1\nvalue = [1, 0]\nclass = Acceptable"] ;
648 -> 650 ;
651 [label="gini = 0.0\nsamples = 1\nvalue = [0, 1]\nclass = Non-acceptable"] ;
633 -> 651 ;
652 [label="StandardPageSize <= 0.5\ngini = 0.483\nsamples = 22\nvalue = [9, 13]\nclass = Non-acceptable"] ;
630 -> 652 ;
653 [label="SQLITE_ENABLE_ATOMIC_WRITE <= 0.5\ngini = 0.444\nsamples = 6\nvalue = [4, 2]\nclass = Acceptable"] ;
652 -> 653 ;
654 [label="LowerPageSize <= 0.5\ngini = 0.32\nsamples = 5\nvalue = [4, 1]\nclass = Acceptable"] ;
653 -> 654 ;
655 [label="gini = 0.0\nsamples = 2\nvalue = [2, 0]\nclass = Acceptable"] ;
654 -> 655 ;
656 [label="SQLITE_ENABLE_STAT2 <= 0.5\ngini = 0.444\nsamples = 3\nvalue = [2, 1]\nclass = Acceptable"] ;
654 -> 656 ;
657 [label="SQLITE_DISABLE_DIRSYNC <= 0.5\ngini = 0.5\nsamples = 2\nvalue = [1, 1]\nclass = Acceptable"] ;
656 -> 657 ;
658 [label="gini = 0.0\nsamples = 1\nvalue = [0, 1]\nclass = Non-acceptable"] ;
657 -> 658 ;
659 [label="gini = 0.0\nsamples = 1\nvalue = [1, 0]\nclass = Acceptable"] ;
657 -> 659 ;
660 [label="gini = 0.0\nsamples = 1\nvalue = [1, 0]\nclass = Acceptable"] ;
656 -> 660 ;
661 [label="gini = 0.0\nsamples = 1\nvalue = [0, 1]\nclass = Non-acceptable"] ;
653 -> 661 ;
662 [label="SQLITE_OMIT_BETWEEN_OPTIMIZATION <= 0.5\ngini = 0.43\nsamples = 16\nvalue = [5, 11]\nclass = Non-acceptable"] ;
652 -> 662 ;
663 [label="SQLITE_ENABLE_STAT2 <= 0.5\ngini = 0.486\nsamples = 12\nvalue = [5, 7]\nclass = Non-acceptable"] ;
662 -> 663 ;
664 [label="SQLITE_OMIT_AUTOMATIC_INDEX <= 0.5\ngini = 0.463\nsamples = 11\nvalue = [4, 7]\nclass = Non-acceptable"] ;
663 -> 664 ;
665 [label="SQLITE_DISABLE_DIRSYNC <= 0.5\ngini = 0.375\nsamples = 8\nvalue = [2, 6]\nclass = Non-acceptable"] ;
664 -> 665 ;
666 [label="NormalLockingMode <= 0.5\ngini = 0.444\nsamples = 6\nvalue = [2, 4]\nclass = Non-acceptable"] ;
665 -> 666 ;
667 [label="SQLITE_OMIT_XFER_OPT <= 0.5\ngini = 0.5\nsamples = 4\nvalue = [2, 2]\nclass = Acceptable"] ;
666 -> 667 ;
668 [label="SQLITE_OMIT_QUICKBALANCE <= 0.5\ngini = 0.444\nsamples = 3\nvalue = [1, 2]\nclass = Non-acceptable"] ;
667 -> 668 ;
669 [label="SQLITE_OMIT_LOOKASIDE <= 0.5\ngini = 0.5\nsamples = 2\nvalue = [1, 1]\nclass = Acceptable"] ;
668 -> 669 ;
670 [label="gini = 0.0\nsamples = 1\nvalue = [0, 1]\nclass = Non-acceptable"] ;
669 -> 670 ;
671 [label="gini = 0.0\nsamples = 1\nvalue = [1, 0]\nclass = Acceptable"] ;
669 -> 671 ;
672 [label="gini = 0.0\nsamples = 1\nvalue = [0, 1]\nclass = Non-acceptable"] ;
668 -> 672 ;
673 [label="gini = 0.0\nsamples = 1\nvalue = [1, 0]\nclass = Acceptable"] ;
667 -> 673 ;
674 [label="gini = 0.0\nsamples = 2\nvalue = [0, 2]\nclass = Non-acceptable"] ;
666 -> 674 ;
675 [label="gini = 0.0\nsamples = 2\nvalue = [0, 2]\nclass = Non-acceptable"] ;
665 -> 675 ;
676 [label="SQLITE_ENABLE_ATOMIC_WRITE <= 0.5\ngini = 0.444\nsamples = 3\nvalue = [2, 1]\nclass = Acceptable"] ;
664 -> 676 ;
677 [label="gini = 0.0\nsamples = 2\nvalue = [2, 0]\nclass = Acceptable"] ;
676 -> 677 ;
678 [label="gini = 0.0\nsamples = 1\nvalue = [0, 1]\nclass = Non-acceptable"] ;
676 -> 678 ;
679 [label="gini = 0.0\nsamples = 1\nvalue = [1, 0]\nclass = Acceptable"] ;
663 -> 679 ;
680 [label="gini = 0.0\nsamples = 4\nvalue = [0, 4]\nclass = Non-acceptable"] ;
662 -> 680 ;
681 [label="SQLITE_OMIT_AUTOMATIC_INDEX <= 0.5\ngini = 0.381\nsamples = 39\nvalue = [29, 10]\nclass = Acceptable"] ;
629 -> 681 ;
682 [label="SQLITE_OMIT_LIKE_OPTIMIZATION <= 0.5\ngini = 0.422\nsamples = 33\nvalue = [23, 10]\nclass = Acceptable"] ;
681 -> 682 ;
683 [label="HighestPageSize <= 0.5\ngini = 0.459\nsamples = 28\nvalue = [18, 10]\nclass = Acceptable"] ;
682 -> 683 ;
684 [label="HigherPageSize <= 0.5\ngini = 0.444\nsamples = 27\nvalue = [18, 9]\nclass = Acceptable"] ;
683 -> 684 ;
685 [label="SQLITE_ENABLE_ATOMIC_WRITE <= 0.5\ngini = 0.469\nsamples = 24\nvalue = [15, 9]\nclass = Acceptable"] ;
684 -> 685 ;
686 [label="SQLITE_OMIT_BTREECOUNT <= 0.5\ngini = 0.454\nsamples = 23\nvalue = [15, 8]\nclass = Acceptable"] ;
685 -> 686 ;
687 [label="SQLITE_OMIT_SHARED_CACHE <= 0.5\ngini = 0.472\nsamples = 21\nvalue = [13, 8]\nclass = Acceptable"] ;
686 -> 687 ;
688 [label="SQLITE_DISABLE_DIRSYNC <= 0.5\ngini = 0.488\nsamples = 19\nvalue = [11, 8]\nclass = Acceptable"] ;
687 -> 688 ;
689 [label="SQLITE_OMIT_XFER_OPT <= 0.5\ngini = 0.469\nsamples = 16\nvalue = [10, 6]\nclass = Acceptable"] ;
688 -> 689 ;
690 [label="ExclusiveLock <= 0.5\ngini = 0.48\nsamples = 15\nvalue = [9, 6]\nclass = Acceptable"] ;
689 -> 690 ;
691 [label="LowerPageSize <= 0.5\ngini = 0.375\nsamples = 4\nvalue = [3, 1]\nclass = Acceptable"] ;
690 -> 691 ;
692 [label="SQLITE_OMIT_LOOKASIDE <= 0.5\ngini = 0.444\nsamples = 3\nvalue = [2, 1]\nclass = Acceptable"] ;
691 -> 692 ;
693 [label="SQLITE_ENABLE_STAT2 <= 0.5\ngini = 0.5\nsamples = 2\nvalue = [1, 1]\nclass = Acceptable"] ;
692 -> 693 ;
694 [label="gini = 0.0\nsamples = 1\nvalue = [0, 1]\nclass = Non-acceptable"] ;
693 -> 694 ;
695 [label="gini = 0.0\nsamples = 1\nvalue = [1, 0]\nclass = Acceptable"] ;
693 -> 695 ;
696 [label="gini = 0.0\nsamples = 1\nvalue = [1, 0]\nclass = Acceptable"] ;
692 -> 696 ;
697 [label="gini = 0.0\nsamples = 1\nvalue = [1, 0]\nclass = Acceptable"] ;
691 -> 697 ;
698 [label="LowerCacheSize <= 0.5\ngini = 0.496\nsamples = 11\nvalue = [6, 5]\nclass = Acceptable"] ;
690 -> 698 ;
699 [label="SQLITE_ENABLE_STAT2 <= 0.5\ngini = 0.49\nsamples = 7\nvalue = [3, 4]\nclass = Non-acceptable"] ;
698 -> 699 ;
700 [label="SQLITE_OMIT_QUICKBALANCE <= 0.5\ngini = 0.5\nsamples = 6\nvalue = [3, 3]\nclass = Acceptable"] ;
699 -> 700 ;
701 [label="SQLITE_OMIT_BETWEEN_OPTIMIZATION <= 0.5\ngini = 0.48\nsamples = 5\nvalue = [2, 3]\nclass = Non-acceptable"] ;
700 -> 701 ;
702 [label="StandardPageSize <= 0.5\ngini = 0.444\nsamples = 3\nvalue = [1, 2]\nclass = Non-acceptable"] ;
701 -> 702 ;
703 [label="gini = 0.0\nsamples = 2\nvalue = [0, 2]\nclass = Non-acceptable"] ;
702 -> 703 ;
704 [label="gini = 0.0\nsamples = 1\nvalue = [1, 0]\nclass = Acceptable"] ;
702 -> 704 ;
705 [label="LowerPageSize <= 0.5\ngini = 0.5\nsamples = 2\nvalue = [1, 1]\nclass = Acceptable"] ;
701 -> 705 ;
706 [label="gini = 0.0\nsamples = 1\nvalue = [0, 1]\nclass = Non-acceptable"] ;
705 -> 706 ;
707 [label="gini = 0.0\nsamples = 1\nvalue = [1, 0]\nclass = Acceptable"] ;
705 -> 707 ;
708 [label="gini = 0.0\nsamples = 1\nvalue = [1, 0]\nclass = Acceptable"] ;
700 -> 708 ;
709 [label="gini = 0.0\nsamples = 1\nvalue = [0, 1]\nclass = Non-acceptable"] ;
699 -> 709 ;
710 [label="SQLITE_OMIT_LOOKASIDE <= 0.5\ngini = 0.375\nsamples = 4\nvalue = [3, 1]\nclass = Acceptable"] ;
698 -> 710 ;
711 [label="gini = 0.0\nsamples = 3\nvalue = [3, 0]\nclass = Acceptable"] ;
710 -> 711 ;
712 [label="gini = 0.0\nsamples = 1\nvalue = [0, 1]\nclass = Non-acceptable"] ;
710 -> 712 ;
713 [label="gini = 0.0\nsamples = 1\nvalue = [1, 0]\nclass = Acceptable"] ;
689 -> 713 ;
714 [label="SQLITE_OMIT_BETWEEN_OPTIMIZATION <= 0.5\ngini = 0.444\nsamples = 3\nvalue = [1, 2]\nclass = Non-acceptable"] ;
688 -> 714 ;
715 [label="gini = 0.0\nsamples = 2\nvalue = [0, 2]\nclass = Non-acceptable"] ;
714 -> 715 ;
716 [label="gini = 0.0\nsamples = 1\nvalue = [1, 0]\nclass = Acceptable"] ;
714 -> 716 ;
717 [label="gini = 0.0\nsamples = 2\nvalue = [2, 0]\nclass = Acceptable"] ;
687 -> 717 ;
718 [label="gini = 0.0\nsamples = 2\nvalue = [2, 0]\nclass = Acceptable"] ;
686 -> 718 ;
719 [label="gini = 0.0\nsamples = 1\nvalue = [0, 1]\nclass = Non-acceptable"] ;
685 -> 719 ;
720 [label="gini = 0.0\nsamples = 3\nvalue = [3, 0]\nclass = Acceptable"] ;
684 -> 720 ;
721 [label="gini = 0.0\nsamples = 1\nvalue = [0, 1]\nclass = Non-acceptable"] ;
683 -> 721 ;
722 [label="gini = 0.0\nsamples = 5\nvalue = [5, 0]\nclass = Acceptable"] ;
682 -> 722 ;
723 [label="gini = 0.0\nsamples = 6\nvalue = [6, 0]\nclass = Acceptable"] ;
681 -> 723 ;
724 [label="SQLITE_ENABLE_ATOMIC_WRITE <= 0.5\ngini = 0.346\nsamples = 9\nvalue = [2, 7]\nclass = Non-acceptable"] ;
628 -> 724 ;
725 [label="StandardCacheSize <= 0.5\ngini = 0.219\nsamples = 8\nvalue = [1, 7]\nclass = Non-acceptable"] ;
724 -> 725 ;
726 [label="gini = 0.0\nsamples = 1\nvalue = [1, 0]\nclass = Acceptable"] ;
725 -> 726 ;
727 [label="gini = 0.0\nsamples = 7\nvalue = [0, 7]\nclass = Non-acceptable"] ;
725 -> 727 ;
728 [label="gini = 0.0\nsamples = 1\nvalue = [1, 0]\nclass = Acceptable"] ;
724 -> 728 ;
729 [label="ExclusiveLock <= 0.5\ngini = 0.111\nsamples = 17\nvalue = [16, 1]\nclass = Acceptable"] ;
627 -> 729 ;
730 [label="gini = 0.0\nsamples = 1\nvalue = [0, 1]\nclass = Non-acceptable"] ;
729 -> 730 ;
731 [label="gini = 0.0\nsamples = 16\nvalue = [16, 0]\nclass = Acceptable"] ;
729 -> 731 ;
732 [label="SQLITE_OMIT_SHARED_CACHE <= 0.5\ngini = 0.441\nsamples = 192\nvalue = [129, 63]\nclass = Acceptable"] ;
2 -> 732 ;
733 [label="SQLITE_OMIT_XFER_OPT <= 0.5\ngini = 0.487\nsamples = 100\nvalue = [58, 42]\nclass = Acceptable"] ;
732 -> 733 ;
734 [label="SQLITE_TEMP_STOREone <= 0.5\ngini = 0.497\nsamples = 89\nvalue = [48, 41]\nclass = Acceptable"] ;
733 -> 734 ;
735 [label="SQLITE_SECURE_DELETE <= 0.5\ngini = 0.49\nsamples = 84\nvalue = [48, 36]\nclass = Acceptable"] ;
734 -> 735 ;
736 [label="AutoVacuumOn <= 0.5\ngini = 0.474\nsamples = 75\nvalue = [46, 29]\nclass = Acceptable"] ;
735 -> 736 ;
737 [label="ChooseSQLITE_TEMP_STORE <= 0.5\ngini = 0.368\nsamples = 37\nvalue = [28, 9]\nclass = Acceptable"] ;
736 -> 737 ;
738 [label="SQLITE_ENABLE_ATOMIC_WRITE <= 0.5\ngini = 0.291\nsamples = 34\nvalue = [28, 6]\nclass = Acceptable"] ;
737 -> 738 ;
739 [label="StandardPageSize <= 0.5\ngini = 0.257\nsamples = 33\nvalue = [28, 5]\nclass = Acceptable"] ;
738 -> 739 ;
740 [label="gini = 0.0\nsamples = 9\nvalue = [9, 0]\nclass = Acceptable"] ;
739 -> 740 ;
741 [label="SQLITE_DISABLE_LFS <= 0.5\ngini = 0.33\nsamples = 24\nvalue = [19, 5]\nclass = Acceptable"] ;
739 -> 741 ;
742 [label="SQLITE_OMIT_AUTOMATIC_INDEX <= 0.5\ngini = 0.255\nsamples = 20\nvalue = [17, 3]\nclass = Acceptable"] ;
741 -> 742 ;
743 [label="SQLITE_ENABLE_STAT2 <= 0.5\ngini = 0.133\nsamples = 14\nvalue = [13, 1]\nclass = Acceptable"] ;
742 -> 743 ;
744 [label="gini = 0.0\nsamples = 11\nvalue = [11, 0]\nclass = Acceptable"] ;
743 -> 744 ;
745 [label="SQLITE_OMIT_LIKE_OPTIMIZATION <= 0.5\ngini = 0.444\nsamples = 3\nvalue = [2, 1]\nclass = Acceptable"] ;
743 -> 745 ;
746 [label="gini = 0.0\nsamples = 2\nvalue = [2, 0]\nclass = Acceptable"] ;
745 -> 746 ;
747 [label="gini = 0.0\nsamples = 1\nvalue = [0, 1]\nclass = Non-acceptable"] ;
745 -> 747 ;
748 [label="SQLITE_DISABLE_DIRSYNC <= 0.5\ngini = 0.444\nsamples = 6\nvalue = [4, 2]\nclass = Acceptable"] ;
742 -> 748 ;
749 [label="SQLITE_OMIT_BTREECOUNT <= 0.5\ngini = 0.32\nsamples = 5\nvalue = [4, 1]\nclass = Acceptable"] ;
748 -> 749 ;
750 [label="StandardCacheSize <= 0.5\ngini = 0.375\nsamples = 4\nvalue = [3, 1]\nclass = Acceptable"] ;
749 -> 750 ;
751 [label="gini = 0.0\nsamples = 1\nvalue = [1, 0]\nclass = Acceptable"] ;
750 -> 751 ;
752 [label="SQLITE_OMIT_LIKE_OPTIMIZATION <= 0.5\ngini = 0.444\nsamples = 3\nvalue = [2, 1]\nclass = Acceptable"] ;
750 -> 752 ;
753 [label="SQLITE_OMIT_QUICKBALANCE <= 0.5\ngini = 0.5\nsamples = 2\nvalue = [1, 1]\nclass = Acceptable"] ;
752 -> 753 ;
754 [label="gini = 0.0\nsamples = 1\nvalue = [0, 1]\nclass = Non-acceptable"] ;
753 -> 754 ;
755 [label="gini = 0.0\nsamples = 1\nvalue = [1, 0]\nclass = Acceptable"] ;
753 -> 755 ;
756 [label="gini = 0.0\nsamples = 1\nvalue = [1, 0]\nclass = Acceptable"] ;
752 -> 756 ;
757 [label="gini = 0.0\nsamples = 1\nvalue = [1, 0]\nclass = Acceptable"] ;
749 -> 757 ;
758 [label="gini = 0.0\nsamples = 1\nvalue = [0, 1]\nclass = Non-acceptable"] ;
748 -> 758 ;
759 [label="StandardCacheSize <= 0.5\ngini = 0.5\nsamples = 4\nvalue = [2, 2]\nclass = Acceptable"] ;
741 -> 759 ;
760 [label="gini = 0.0\nsamples = 1\nvalue = [1, 0]\nclass = Acceptable"] ;
759 -> 760 ;
761 [label="SQLITE_DISABLE_DIRSYNC <= 0.5\ngini = 0.444\nsamples = 3\nvalue = [1, 2]\nclass = Non-acceptable"] ;
759 -> 761 ;
762 [label="gini = 0.0\nsamples = 2\nvalue = [0, 2]\nclass = Non-acceptable"] ;
761 -> 762 ;
763 [label="gini = 0.0\nsamples = 1\nvalue = [1, 0]\nclass = Acceptable"] ;
761 -> 763 ;
764 [label="gini = 0.0\nsamples = 1\nvalue = [0, 1]\nclass = Non-acceptable"] ;
738 -> 764 ;
765 [label="gini = 0.0\nsamples = 3\nvalue = [0, 3]\nclass = Non-acceptable"] ;
737 -> 765 ;
766 [label="SQLITE_TEMP_STOREthree <= 0.5\ngini = 0.499\nsamples = 38\nvalue = [18, 20]\nclass = Non-acceptable"] ;
736 -> 766 ;
767 [label="ExclusiveLock <= 0.5\ngini = 0.475\nsamples = 31\nvalue = [12, 19]\nclass = Non-acceptable"] ;
766 -> 767 ;
768 [label="gini = 0.0\nsamples = 5\nvalue = [0, 5]\nclass = Non-acceptable"] ;
767 -> 768 ;
769 [label="HigherCacheSize <= 0.5\ngini = 0.497\nsamples = 26\nvalue = [12, 14]\nclass = Non-acceptable"] ;
767 -> 769 ;
770 [label="LowerPageSize <= 0.5\ngini = 0.496\nsamples = 22\nvalue = [12, 10]\nclass = Acceptable"] ;
769 -> 770 ;
771 [label="HighestPageSize <= 0.5\ngini = 0.465\nsamples = 19\nvalue = [12, 7]\nclass = Acceptable"] ;
770 -> 771 ;
772 [label="SQLITE_DISABLE_DIRSYNC <= 0.5\ngini = 0.415\nsamples = 17\nvalue = [12, 5]\nclass = Acceptable"] ;
771 -> 772 ;
773 [label="SQLITE_OMIT_QUICKBALANCE <= 0.5\ngini = 0.32\nsamples = 15\nvalue = [12, 3]\nclass = Acceptable"] ;
772 -> 773 ;
774 [label="SQLITE_OMIT_AUTOMATIC_INDEX <= 0.5\ngini = 0.26\nsamples = 13\nvalue = [11, 2]\nclass = Acceptable"] ;
773 -> 774 ;
775 [label="SQLITE_OMIT_LOOKASIDE <= 0.5\ngini = 0.18\nsamples = 10\nvalue = [9, 1]\nclass = Acceptable"] ;
774 -> 775 ;
776 [label="gini = 0.0\nsamples = 8\nvalue = [8, 0]\nclass = Acceptable"] ;
775 -> 776 ;
777 [label="SQLITE_OMIT_BETWEEN_OPTIMIZATION <= 0.5\ngini = 0.5\nsamples = 2\nvalue = [1, 1]\nclass = Acceptable"] ;
775 -> 777 ;
778 [label="gini = 0.0\nsamples = 1\nvalue = [0, 1]\nclass = Non-acceptable"] ;
777 -> 778 ;
779 [label="gini = 0.0\nsamples = 1\nvalue = [1, 0]\nclass = Acceptable"] ;
777 -> 779 ;
780 [label="SQLITE_DISABLE_LFS <= 0.5\ngini = 0.444\nsamples = 3\nvalue = [2, 1]\nclass = Acceptable"] ;
774 -> 780 ;
781 [label="gini = 0.0\nsamples = 2\nvalue = [2, 0]\nclass = Acceptable"] ;
780 -> 781 ;
782 [label="gini = 0.0\nsamples = 1\nvalue = [0, 1]\nclass = Non-acceptable"] ;
780 -> 782 ;
783 [label="SQLITE_OMIT_LIKE_OPTIMIZATION <= 0.5\ngini = 0.5\nsamples = 2\nvalue = [1, 1]\nclass = Acceptable"] ;
773 -> 783 ;
784 [label="gini = 0.0\nsamples = 1\nvalue = [0, 1]\nclass = Non-acceptable"] ;
783 -> 784 ;
785 [label="gini = 0.0\nsamples = 1\nvalue = [1, 0]\nclass = Acceptable"] ;
783 -> 785 ;
786 [label="gini = 0.0\nsamples = 2\nvalue = [0, 2]\nclass = Non-acceptable"] ;
772 -> 786 ;
787 [label="gini = 0.0\nsamples = 2\nvalue = [0, 2]\nclass = Non-acceptable"] ;
771 -> 787 ;
788 [label="gini = 0.0\nsamples = 3\nvalue = [0, 3]\nclass = Non-acceptable"] ;
770 -> 788 ;
789 [label="gini = 0.0\nsamples = 4\nvalue = [0, 4]\nclass = Non-acceptable"] ;
769 -> 789 ;
790 [label="SQLITE_OMIT_QUICKBALANCE <= 0.5\ngini = 0.245\nsamples = 7\nvalue = [6, 1]\nclass = Acceptable"] ;
766 -> 790 ;
791 [label="gini = 0.0\nsamples = 6\nvalue = [6, 0]\nclass = Acceptable"] ;
790 -> 791 ;
792 [label="gini = 0.0\nsamples = 1\nvalue = [0, 1]\nclass = Non-acceptable"] ;
790 -> 792 ;
793 [label="LowerCacheSize <= 0.5\ngini = 0.346\nsamples = 9\nvalue = [2, 7]\nclass = Non-acceptable"] ;
735 -> 793 ;
794 [label="HighestPageSize <= 0.5\ngini = 0.219\nsamples = 8\nvalue = [1, 7]\nclass = Non-acceptable"] ;
793 -> 794 ;
795 [label="gini = 0.0\nsamples = 7\nvalue = [0, 7]\nclass = Non-acceptable"] ;
794 -> 795 ;
796 [label="gini = 0.0\nsamples = 1\nvalue = [1, 0]\nclass = Acceptable"] ;
794 -> 796 ;
797 [label="gini = 0.0\nsamples = 1\nvalue = [1, 0]\nclass = Acceptable"] ;
793 -> 797 ;
798 [label="gini = 0.0\nsamples = 5\nvalue = [0, 5]\nclass = Non-acceptable"] ;
734 -> 798 ;
799 [label="SQLITE_SECURE_DELETE <= 0.5\ngini = 0.165\nsamples = 11\nvalue = [10, 1]\nclass = Acceptable"] ;
733 -> 799 ;
800 [label="gini = 0.0\nsamples = 7\nvalue = [7, 0]\nclass = Acceptable"] ;
799 -> 800 ;
801 [label="SQLITE_OMIT_QUICKBALANCE <= 0.5\ngini = 0.375\nsamples = 4\nvalue = [3, 1]\nclass = Acceptable"] ;
799 -> 801 ;
802 [label="gini = 0.0\nsamples = 1\nvalue = [0, 1]\nclass = Non-acceptable"] ;
801 -> 802 ;
803 [label="gini = 0.0\nsamples = 3\nvalue = [3, 0]\nclass = Acceptable"] ;
801 -> 803 ;
804 [label="NormalLockingMode <= 0.5\ngini = 0.352\nsamples = 92\nvalue = [71, 21]\nclass = Acceptable"] ;
732 -> 804 ;
805 [label="HigherCacheSize <= 0.5\ngini = 0.242\nsamples = 64\nvalue = [55, 9]\nclass = Acceptable"] ;
804 -> 805 ;
806 [label="SQLITE_OMIT_AUTOMATIC_INDEX <= 0.5\ngini = 0.054\nsamples = 36\nvalue = [35, 1]\nclass = Acceptable"] ;
805 -> 806 ;
807 [label="LowerPageSize <= 0.5\ngini = 0.219\nsamples = 8\nvalue = [7, 1]\nclass = Acceptable"] ;
806 -> 807 ;
808 [label="gini = 0.0\nsamples = 6\nvalue = [6, 0]\nclass = Acceptable"] ;
807 -> 808 ;
809 [label="AutoVacuumOn <= 0.5\ngini = 0.5\nsamples = 2\nvalue = [1, 1]\nclass = Acceptable"] ;
807 -> 809 ;
810 [label="gini = 0.0\nsamples = 1\nvalue = [1, 0]\nclass = Acceptable"] ;
809 -> 810 ;
811 [label="gini = 0.0\nsamples = 1\nvalue = [0, 1]\nclass = Non-acceptable"] ;
809 -> 811 ;
812 [label="gini = 0.0\nsamples = 28\nvalue = [28, 0]\nclass = Acceptable"] ;
806 -> 812 ;
813 [label="StandardPageSize <= 0.5\ngini = 0.408\nsamples = 28\nvalue = [20, 8]\nclass = Acceptable"] ;
805 -> 813 ;
814 [label="LowerPageSize <= 0.5\ngini = 0.255\nsamples = 20\nvalue = [17, 3]\nclass = Acceptable"] ;
813 -> 814 ;
815 [label="SQLITE_OMIT_AUTOMATIC_INDEX <= 0.5\ngini = 0.355\nsamples = 13\nvalue = [10, 3]\nclass = Acceptable"] ;
814 -> 815 ;
816 [label="gini = 0.0\nsamples = 3\nvalue = [3, 0]\nclass = Acceptable"] ;
815 -> 816 ;
817 [label="SQLITE_OMIT_LOOKASIDE <= 0.5\ngini = 0.42\nsamples = 10\nvalue = [7, 3]\nclass = Acceptable"] ;
815 -> 817 ;
818 [label="gini = 0.0\nsamples = 2\nvalue = [2, 0]\nclass = Acceptable"] ;
817 -> 818 ;
819 [label="SQLITE_DISABLE_LFS <= 0.5\ngini = 0.469\nsamples = 8\nvalue = [5, 3]\nclass = Acceptable"] ;
817 -> 819 ;
820 [label="gini = 0.0\nsamples = 1\nvalue = [1, 0]\nclass = Acceptable"] ;
819 -> 820 ;
821 [label="SQLITE_TEMP_STOREone <= 0.5\ngini = 0.49\nsamples = 7\nvalue = [4, 3]\nclass = Acceptable"] ;
819 -> 821 ;
822 [label="AutoVacuumOn <= 0.5\ngini = 0.375\nsamples = 4\nvalue = [3, 1]\nclass = Acceptable"] ;
821 -> 822 ;
823 [label="SQLITE_OMIT_XFER_OPT <= 0.5\ngini = 0.444\nsamples = 3\nvalue = [2, 1]\nclass = Acceptable"] ;
822 -> 823 ;
824 [label="gini = 0.0\nsamples = 1\nvalue = [1, 0]\nclass = Acceptable"] ;
823 -> 824 ;
825 [label="SQLITE_OMIT_BTREECOUNT <= 0.5\ngini = 0.5\nsamples = 2\nvalue = [1, 1]\nclass = Acceptable"] ;
823 -> 825 ;
826 [label="gini = 0.0\nsamples = 1\nvalue = [1, 0]\nclass = Acceptable"] ;
825 -> 826 ;
827 [label="gini = 0.0\nsamples = 1\nvalue = [0, 1]\nclass = Non-acceptable"] ;
825 -> 827 ;
828 [label="gini = 0.0\nsamples = 1\nvalue = [1, 0]\nclass = Acceptable"] ;
822 -> 828 ;
829 [label="HigherPageSize <= 0.5\ngini = 0.444\nsamples = 3\nvalue = [1, 2]\nclass = Non-acceptable"] ;
821 -> 829 ;
830 [label="gini = 0.0\nsamples = 2\nvalue = [0, 2]\nclass = Non-acceptable"] ;
829 -> 830 ;
831 [label="gini = 0.0\nsamples = 1\nvalue = [1, 0]\nclass = Acceptable"] ;
829 -> 831 ;
832 [label="gini = 0.0\nsamples = 7\nvalue = [7, 0]\nclass = Acceptable"] ;
814 -> 832 ;
833 [label="SQLITE_DISABLE_LFS <= 0.5\ngini = 0.469\nsamples = 8\nvalue = [3, 5]\nclass = Non-acceptable"] ;
813 -> 833 ;
834 [label="gini = 0.0\nsamples = 1\nvalue = [1, 0]\nclass = Acceptable"] ;
833 -> 834 ;
835 [label="SQLITE_DISABLE_DIRSYNC <= 0.5\ngini = 0.408\nsamples = 7\nvalue = [2, 5]\nclass = Non-acceptable"] ;
833 -> 835 ;
836 [label="gini = 0.0\nsamples = 1\nvalue = [1, 0]\nclass = Acceptable"] ;
835 -> 836 ;
837 [label="SQLITE_OMIT_AUTOMATIC_INDEX <= 0.5\ngini = 0.278\nsamples = 6\nvalue = [1, 5]\nclass = Non-acceptable"] ;
835 -> 837 ;
838 [label="SQLITE_TEMP_STOREthree <= 0.5\ngini = 0.5\nsamples = 2\nvalue = [1, 1]\nclass = Acceptable"] ;
837 -> 838 ;
839 [label="gini = 0.0\nsamples = 1\nvalue = [0, 1]\nclass = Non-acceptable"] ;
838 -> 839 ;
840 [label="gini = 0.0\nsamples = 1\nvalue = [1, 0]\nclass = Acceptable"] ;
838 -> 840 ;
841 [label="gini = 0.0\nsamples = 4\nvalue = [0, 4]\nclass = Non-acceptable"] ;
837 -> 841 ;
842 [label="SQLITE_OMIT_AUTOMATIC_INDEX <= 0.5\ngini = 0.49\nsamples = 28\nvalue = [16, 12]\nclass = Acceptable"] ;
804 -> 842 ;
843 [label="gini = 0.0\nsamples = 4\nvalue = [4, 0]\nclass = Acceptable"] ;
842 -> 843 ;
844 [label="StandardCacheSize <= 0.5\ngini = 0.5\nsamples = 24\nvalue = [12, 12]\nclass = Acceptable"] ;
842 -> 844 ;
845 [label="SQLITE_OMIT_XFER_OPT <= 0.5\ngini = 0.444\nsamples = 12\nvalue = [4, 8]\nclass = Non-acceptable"] ;
844 -> 845 ;
846 [label="gini = 0.0\nsamples = 1\nvalue = [1, 0]\nclass = Acceptable"] ;
845 -> 846 ;
847 [label="SQLITE_OMIT_LOOKASIDE <= 0.5\ngini = 0.397\nsamples = 11\nvalue = [3, 8]\nclass = Non-acceptable"] ;
845 -> 847 ;
848 [label="gini = 0.0\nsamples = 1\nvalue = [1, 0]\nclass = Acceptable"] ;
847 -> 848 ;
849 [label="SQLITE_OMIT_BETWEEN_OPTIMIZATION <= 0.5\ngini = 0.32\nsamples = 10\nvalue = [2, 8]\nclass = Non-acceptable"] ;
847 -> 849 ;
850 [label="gini = 0.0\nsamples = 1\nvalue = [1, 0]\nclass = Acceptable"] ;
849 -> 850 ;
851 [label="SQLITE_DISABLE_LFS <= 0.5\ngini = 0.198\nsamples = 9\nvalue = [1, 8]\nclass = Non-acceptable"] ;
849 -> 851 ;
852 [label="gini = 0.0\nsamples = 1\nvalue = [1, 0]\nclass = Acceptable"] ;
851 -> 852 ;
853 [label="gini = 0.0\nsamples = 8\nvalue = [0, 8]\nclass = Non-acceptable"] ;
851 -> 853 ;
854 [label="SQLITE_SECURE_DELETE <= 0.5\ngini = 0.444\nsamples = 12\nvalue = [8, 4]\nclass = Acceptable"] ;
844 -> 854 ;
855 [label="gini = 0.0\nsamples = 1\nvalue = [0, 1]\nclass = Non-acceptable"] ;
854 -> 855 ;
856 [label="SQLITE_OMIT_QUICKBALANCE <= 0.5\ngini = 0.397\nsamples = 11\nvalue = [8, 3]\nclass = Acceptable"] ;
854 -> 856 ;
857 [label="gini = 0.0\nsamples = 2\nvalue = [2, 0]\nclass = Acceptable"] ;
856 -> 857 ;
858 [label="SQLITE_OMIT_BTREECOUNT <= 0.5\ngini = 0.444\nsamples = 9\nvalue = [6, 3]\nclass = Acceptable"] ;
856 -> 858 ;
859 [label="gini = 0.0\nsamples = 2\nvalue = [2, 0]\nclass = Acceptable"] ;
858 -> 859 ;
860 [label="SQLITE_TEMP_STOREone <= 0.5\ngini = 0.49\nsamples = 7\nvalue = [4, 3]\nclass = Acceptable"] ;
858 -> 860 ;
861 [label="SQLITE_DISABLE_DIRSYNC <= 0.5\ngini = 0.375\nsamples = 4\nvalue = [3, 1]\nclass = Acceptable"] ;
860 -> 861 ;
862 [label="gini = 0.0\nsamples = 1\nvalue = [1, 0]\nclass = Acceptable"] ;
861 -> 862 ;
863 [label="SQLITE_OMIT_XFER_OPT <= 0.5\ngini = 0.444\nsamples = 3\nvalue = [2, 1]\nclass = Acceptable"] ;
861 -> 863 ;
864 [label="gini = 0.0\nsamples = 1\nvalue = [1, 0]\nclass = Acceptable"] ;
863 -> 864 ;
865 [label="SQLITE_OMIT_BETWEEN_OPTIMIZATION <= 0.5\ngini = 0.5\nsamples = 2\nvalue = [1, 1]\nclass = Acceptable"] ;
863 -> 865 ;
866 [label="gini = 0.0\nsamples = 1\nvalue = [1, 0]\nclass = Acceptable"] ;
865 -> 866 ;
867 [label="gini = 0.0\nsamples = 1\nvalue = [0, 1]\nclass = Non-acceptable"] ;
865 -> 867 ;
868 [label="SQLITE_OMIT_LIKE_OPTIMIZATION <= 0.5\ngini = 0.444\nsamples = 3\nvalue = [1, 2]\nclass = Non-acceptable"] ;
860 -> 868 ;
869 [label="gini = 0.0\nsamples = 1\nvalue = [1, 0]\nclass = Acceptable"] ;
868 -> 869 ;
870 [label="gini = 0.0\nsamples = 2\nvalue = [0, 2]\nclass = Non-acceptable"] ;
868 -> 870 ;
871 [label="HigherCacheSize <= 0.5\ngini = 0.311\nsamples = 166\nvalue = [134, 32]\nclass = Acceptable"] ;
1 -> 871 ;
872 [label="SQLITE_OMIT_LIKE_OPTIMIZATION <= 0.5\ngini = 0.361\nsamples = 131\nvalue = [100, 31]\nclass = Acceptable"] ;
871 -> 872 ;
873 [label="AutoVacuumOff <= 0.5\ngini = 0.287\nsamples = 115\nvalue = [95, 20]\nclass = Acceptable"] ;
872 -> 873 ;
874 [label="SQLITE_OMIT_AUTOMATIC_INDEX <= 0.5\ngini = 0.38\nsamples = 51\nvalue = [38, 13]\nclass = Acceptable"] ;
873 -> 874 ;
875 [label="SQLITE_OMIT_XFER_OPT <= 0.5\ngini = 0.348\nsamples = 49\nvalue = [38, 11]\nclass = Acceptable"] ;
874 -> 875 ;
876 [label="SQLITE_OMIT_BTREECOUNT <= 0.5\ngini = 0.303\nsamples = 43\nvalue = [35, 8]\nclass = Acceptable"] ;
875 -> 876 ;
877 [label="LowerCacheSize <= 0.5\ngini = 0.353\nsamples = 35\nvalue = [27, 8]\nclass = Acceptable"] ;
876 -> 877 ;
878 [label="SQLITE_ENABLE_ATOMIC_WRITE <= 0.5\ngini = 0.4\nsamples = 29\nvalue = [21, 8]\nclass = Acceptable"] ;
877 -> 878 ;
879 [label="StandardPageSize <= 0.5\ngini = 0.435\nsamples = 25\nvalue = [17, 8]\nclass = Acceptable"] ;
878 -> 879 ;
880 [label="LowerPageSize <= 0.5\ngini = 0.26\nsamples = 13\nvalue = [11, 2]\nclass = Acceptable"] ;
879 -> 880 ;
881 [label="SQLITE_OMIT_BETWEEN_OPTIMIZATION <= 0.5\ngini = 0.32\nsamples = 10\nvalue = [8, 2]\nclass = Acceptable"] ;
880 -> 881 ;
882 [label="SQLITE_OMIT_SHARED_CACHE <= 0.5\ngini = 0.375\nsamples = 8\nvalue = [6, 2]\nclass = Acceptable"] ;
881 -> 882 ;
883 [label="SQLITE_ENABLE_STAT2 <= 0.5\ngini = 0.408\nsamples = 7\nvalue = [5, 2]\nclass = Acceptable"] ;
882 -> 883 ;
884 [label="NormalLockingMode <= 0.5\ngini = 0.444\nsamples = 6\nvalue = [4, 2]\nclass = Acceptable"] ;
883 -> 884 ;
885 [label="HighestPageSize <= 0.5\ngini = 0.48\nsamples = 5\nvalue = [3, 2]\nclass = Acceptable"] ;
884 -> 885 ;
886 [label="SQLITE_OMIT_LOOKASIDE <= 0.5\ngini = 0.375\nsamples = 4\nvalue = [3, 1]\nclass = Acceptable"] ;
885 -> 886 ;
887 [label="SQLITE_SECURE_DELETE <= 0.5\ngini = 0.444\nsamples = 3\nvalue = [2, 1]\nclass = Acceptable"] ;
886 -> 887 ;
888 [label="SQLITE_DISABLE_DIRSYNC <= 0.5\ngini = 0.5\nsamples = 2\nvalue = [1, 1]\nclass = Acceptable"] ;
887 -> 888 ;
889 [label="gini = 0.0\nsamples = 1\nvalue = [0, 1]\nclass = Non-acceptable"] ;
888 -> 889 ;
890 [label="gini = 0.0\nsamples = 1\nvalue = [1, 0]\nclass = Acceptable"] ;
888 -> 890 ;
891 [label="gini = 0.0\nsamples = 1\nvalue = [1, 0]\nclass = Acceptable"] ;
887 -> 891 ;
892 [label="gini = 0.0\nsamples = 1\nvalue = [1, 0]\nclass = Acceptable"] ;
886 -> 892 ;
893 [label="gini = 0.0\nsamples = 1\nvalue = [0, 1]\nclass = Non-acceptable"] ;
885 -> 893 ;
894 [label="gini = 0.0\nsamples = 1\nvalue = [1, 0]\nclass = Acceptable"] ;
884 -> 894 ;
895 [label="gini = 0.0\nsamples = 1\nvalue = [1, 0]\nclass = Acceptable"] ;
883 -> 895 ;
896 [label="gini = 0.0\nsamples = 1\nvalue = [1, 0]\nclass = Acceptable"] ;
882 -> 896 ;
897 [label="gini = 0.0\nsamples = 2\nvalue = [2, 0]\nclass = Acceptable"] ;
881 -> 897 ;
898 [label="gini = 0.0\nsamples = 3\nvalue = [3, 0]\nclass = Acceptable"] ;
880 -> 898 ;
899 [label="SQLITE_OMIT_QUICKBALANCE <= 0.5\ngini = 0.5\nsamples = 12\nvalue = [6, 6]\nclass = Acceptable"] ;
879 -> 899 ;
900 [label="SQLITE_DISABLE_DIRSYNC <= 0.5\ngini = 0.469\nsamples = 8\nvalue = [3, 5]\nclass = Non-acceptable"] ;
899 -> 900 ;
901 [label="SQLITE_OMIT_OR_OPTIMIZATION <= 0.5\ngini = 0.408\nsamples = 7\nvalue = [2, 5]\nclass = Non-acceptable"] ;
900 -> 901 ;
902 [label="SQLITE_OMIT_SHARED_CACHE <= 0.5\ngini = 0.48\nsamples = 5\nvalue = [2, 3]\nclass = Non-acceptable"] ;
901 -> 902 ;
903 [label="ExclusiveLock <= 0.5\ngini = 0.375\nsamples = 4\nvalue = [1, 3]\nclass = Non-acceptable"] ;
902 -> 903 ;
904 [label="SQLITE_OMIT_LOOKASIDE <= 0.5\ngini = 0.5\nsamples = 2\nvalue = [1, 1]\nclass = Acceptable"] ;
903 -> 904 ;
905 [label="gini = 0.0\nsamples = 1\nvalue = [0, 1]\nclass = Non-acceptable"] ;
904 -> 905 ;
906 [label="gini = 0.0\nsamples = 1\nvalue = [1, 0]\nclass = Acceptable"] ;
904 -> 906 ;
907 [label="gini = 0.0\nsamples = 2\nvalue = [0, 2]\nclass = Non-acceptable"] ;
903 -> 907 ;
908 [label="gini = 0.0\nsamples = 1\nvalue = [1, 0]\nclass = Acceptable"] ;
902 -> 908 ;
909 [label="gini = 0.0\nsamples = 2\nvalue = [0, 2]\nclass = Non-acceptable"] ;
901 -> 909 ;
910 [label="gini = 0.0\nsamples = 1\nvalue = [1, 0]\nclass = Acceptable"] ;
900 -> 910 ;
911 [label="SQLITE_OMIT_LOOKASIDE <= 0.5\ngini = 0.375\nsamples = 4\nvalue = [3, 1]\nclass = Acceptable"] ;
899 -> 911 ;
912 [label="gini = 0.0\nsamples = 3\nvalue = [3, 0]\nclass = Acceptable"] ;
911 -> 912 ;
913 [label="gini = 0.0\nsamples = 1\nvalue = [0, 1]\nclass = Non-acceptable"] ;
911 -> 913 ;
914 [label="gini = 0.0\nsamples = 4\nvalue = [4, 0]\nclass = Acceptable"] ;
878 -> 914 ;
915 [label="gini = 0.0\nsamples = 6\nvalue = [6, 0]\nclass = Acceptable"] ;
877 -> 915 ;
916 [label="gini = 0.0\nsamples = 8\nvalue = [8, 0]\nclass = Acceptable"] ;
876 -> 916 ;
917 [label="NormalLockingMode <= 0.5\ngini = 0.5\nsamples = 6\nvalue = [3, 3]\nclass = Acceptable"] ;
875 -> 917 ;
918 [label="SQLITE_OMIT_SHARED_CACHE <= 0.5\ngini = 0.48\nsamples = 5\nvalue = [2, 3]\nclass = Non-acceptable"] ;
917 -> 918 ;
919 [label="LowerCacheSize <= 0.5\ngini = 0.375\nsamples = 4\nvalue = [1, 3]\nclass = Non-acceptable"] ;
918 -> 919 ;
920 [label="gini = 0.0\nsamples = 3\nvalue = [0, 3]\nclass = Non-acceptable"] ;
919 -> 920 ;
921 [label="gini = 0.0\nsamples = 1\nvalue = [1, 0]\nclass = Acceptable"] ;
919 -> 921 ;
922 [label="gini = 0.0\nsamples = 1\nvalue = [1, 0]\nclass = Acceptable"] ;
918 -> 922 ;
923 [label="gini = 0.0\nsamples = 1\nvalue = [1, 0]\nclass = Acceptable"] ;
917 -> 923 ;
924 [label="gini = 0.0\nsamples = 2\nvalue = [0, 2]\nclass = Non-acceptable"] ;
874 -> 924 ;
925 [label="LowerPageSize <= 0.5\ngini = 0.195\nsamples = 64\nvalue = [57, 7]\nclass = Acceptable"] ;
873 -> 925 ;
926 [label="StandardPageSize <= 0.5\ngini = 0.16\nsamples = 57\nvalue = [52, 5]\nclass = Acceptable"] ;
925 -> 926 ;
927 [label="gini = 0.0\nsamples = 12\nvalue = [12, 0]\nclass = Acceptable"] ;
926 -> 927 ;
928 [label="SQLITE_OMIT_LOOKASIDE <= 0.5\ngini = 0.198\nsamples = 45\nvalue = [40, 5]\nclass = Acceptable"] ;
926 -> 928 ;
929 [label="SQLITE_SECURE_DELETE <= 0.5\ngini = 0.153\nsamples = 36\nvalue = [33, 3]\nclass = Acceptable"] ;
928 -> 929 ;
930 [label="ExclusiveLock <= 0.5\ngini = 0.121\nsamples = 31\nvalue = [29, 2]\nclass = Acceptable"] ;
929 -> 930 ;
931 [label="StandardCacheSize <= 0.5\ngini = 0.32\nsamples = 5\nvalue = [4, 1]\nclass = Acceptable"] ;
930 -> 931 ;
932 [label="gini = 0.0\nsamples = 1\nvalue = [0, 1]\nclass = Non-acceptable"] ;
931 -> 932 ;
933 [label="gini = 0.0\nsamples = 4\nvalue = [4, 0]\nclass = Acceptable"] ;
931 -> 933 ;
